net
{
     node_size = (0 0);
     name = "New BN";
     tree = "(C1,C2,C3,C4,C5,C6,C7,C8)";
     UnBBayes_Color_Probabilistic_Description = "-256";
     UnBBayes_Color_Probabilistic_Explanation = "-16711936";
}

node Smoking
{
     label = "C1";
     position = (68 82);
     states = ("Yes" "No");
}

node Alcohol
{
     label = "C2";
     position = (255 54);
     states = ("Yes" "No");
}

node Employed
{
     label = "C3";
     position = (441 51);
     states = ("Employed" "Unemployed");
}

node working_condition
{
     label = "C4";
     position = (566 64);
     states = ("easy" "difficult");
}

node living_place
{
     label = "C5";
     position = (736 52);
     states = ("city" "village");
}

node living_object
{
     label = "C6";
     position = (926 56);
     states = ("flat" "house");
}

node pet
{
     label = "C7";
     position = (1056 54);
     states = ("Yes" "No");
}

node solution
{
     label = "C8";
     position = (237 466);
     states = ("rtg_pluca" "ct_pluca" "ultrazvuk" "krvna_slika");
}

node ranije_bolesti
{
     label = "C1";
     position = (1175 60);
     states = ("acute_bronchitis" "acute_sinusitis" "alergy" "chronic_sinusitis" "common_cold" "copd" "lung_cancer" "pleural_efusion" "pneumonia" "pneumothorax" "smoking_addiction" "otitis_media" "seasonal_allergies" "flu");
}

potential (Smoking)
{
 data = ( 0.5 0.5 );
}

potential (Alcohol)
{
 data = ( 0.5 0.5 );
}

potential (Employed)
{
 data = ( 0.5 0.5 );
}

potential (working_condition)
{
 data = ( 0.5 0.5 );
}

potential (living_place)
{
 data = ( 0.5 0.5 );
}

potential (living_object)
{
 data = ( 0.5 0.5 );
}

potential (pet)
{
 data = ( 0.5 0.5 );
}

potential (solution | ranije_bolesti pet living_object living_place Employed working_condition Alcohol Smoking)
{
 data = ((((((((( 0.40000007 0.20000003 0.25 0.14999999 )
( 0.4 0.2 0.25 0.15 ))
(( 0.2 0.25 0.15 0.4 )
( 0.2 0.25 0.15 0.4 )))
((( 0.25 0.15 0.4 0.2 )
( 0.25 0.15 0.4 0.2 ))
(( 0.15 0.4 0.2 0.25 )
( 0.15 0.4 0.2 0.25 ))))
(((( 0.15 0.4 0.2 0.25 )
( 0.15 0.4 0.2 0.25 ))
(( 0.15 0.4 0.2 0.25 )
( 0.15 0.4 0.2 0.25 )))
((( 0.15 0.4 0.2 0.25 )
( 0.15 0.4 0.2 0.25 ))
(( 0.15 0.4 0.2 0.25 )
( 0.15 0.4 0.2 0.25 )))))
((((( 0.15 0.4 0.2 0.25 )
( 0.15 0.4 0.2 0.25 ))
(( 0.15 0.4 0.2 0.25 )
( 0.15 0.4 0.2 0.25 )))
((( 0.2 0.25 0.15 0.4 )
( 0.2 0.25 0.15 0.4 ))
(( 0.2 0.25 0.15 0.4 )
( 0.2 0.25 0.15 0.4 ))))
(((( 0.2 0.25 0.15 0.4 )
( 0.2 0.25 0.15 0.4 ))
(( 0.2 0.25 0.15 0.4 )
( 0.2 0.25 0.15 0.4 )))
((( 0.25 0.15 0.4 0.2 )
( 0.25 0.15 0.4 0.2 ))
(( 0.25 0.15 0.4 0.2 )
( 0.25 0.15 0.4 0.2 ))))))
(((((( 0.25 0.15 0.4 0.2 )
( 0.25 0.15 0.4 0.2 ))
(( 0.25 0.15 0.4 0.2 )
( 0.25 0.15 0.4 0.2 )))
((( 0.15 0.4 0.2 0.25 )
( 0.15 0.4 0.2 0.25 ))
(( 0.15 0.4 0.2 0.25 )
( 0.15 0.4 0.2 0.25 ))))
(((( 0.15 0.4 0.2 0.25 )
( 0.15 0.4 0.2 0.25 ))
(( 0.2 0.25 0.15 0.4 )
( 0.2 0.25 0.15 0.4 )))
((( 0.2 0.25 0.15 0.4 )
( 0.2 0.25 0.15 0.4 ))
(( 0.2 0.25 0.15 0.4 )
( 0.2 0.25 0.15 0.4 )))))
((((( 0.2 0.25 0.15 0.4 )
( 0.2 0.25 0.15 0.4 ))
(( 0.25 0.15 0.4 0.2 )
( 0.25 0.15 0.4 0.2 )))
((( 0.25 0.15 0.4 0.2 )
( 0.25 0.15 0.4 0.2 ))
(( 0.25 0.15 0.4 0.2 )
( 0.25 0.15 0.4 0.2 ))))
(((( 0.25 0.15 0.4 0.2 )
( 0.25 0.15 0.4 0.2 ))
(( 0.25 0.15 0.4 0.2 )
( 0.25 0.15 0.4 0.2 )))
((( 0.25 0.15 0.4 0.2 )
( 0.25 0.15 0.4 0.2 ))
(( 0.25 0.15 0.4 0.2 )
( 0.25 0.15 0.4 0.2 )))))))
((((((( 0.25 0.15 0.4 0.2 )
( 0.25 0.15 0.4 0.2 ))
(( 0.2 0.25 0.15 0.4 )
( 0.2 0.25 0.15 0.4 )))
((( 0.2 0.25 0.15 0.4 )
( 0.2 0.25 0.15 0.4 ))
(( 0.2 0.25 0.15 0.4 )
( 0.2 0.25 0.15 0.4 ))))
(((( 0.15 0.4 0.2 0.25 )
( 0.15 0.4 0.2 0.25 ))
(( 0.15 0.4 0.2 0.25 )
( 0.15 0.4 0.2 0.25 )))
((( 0.15 0.4 0.2 0.25 )
( 0.15 0.4 0.2 0.25 ))
(( 0.15 0.4 0.2 0.25 )
( 0.15 0.4 0.2 0.25 )))))
((((( 0.15 0.4 0.2 0.25 )
( 0.15 0.4 0.2 0.25 ))
(( 0.15 0.4 0.2 0.25 )
( 0.15 0.4 0.2 0.25 )))
((( 0.15 0.4 0.2 0.25 )
( 0.2 0.25 0.15 0.4 ))
(( 0.2 0.25 0.15 0.4 )
( 0.2 0.25 0.15 0.4 ))))
(((( 0.2 0.25 0.15 0.4 )
( 0.2 0.25 0.15 0.4 ))
(( 0.2 0.25 0.15 0.4 )
( 0.2 0.25 0.15 0.4 )))
((( 0.2 0.25 0.15 0.4 )
( 0.25 0.15 0.4 0.2 ))
(( 0.25 0.15 0.4 0.2 )
( 0.25 0.15 0.4 0.2 ))))))
(((((( 0.25 0.15 0.4 0.2 )
( 0.25 0.15 0.4 0.2 ))
(( 0.25 0.15 0.4 0.2 )
( 0.25 0.15 0.4 0.2 )))
((( 0.25 0.15 0.4 0.2 )
( 0.25 0.15 0.4 0.2 ))
(( 0.25 0.15 0.4 0.2 )
( 0.25 0.15 0.4 0.2 ))))
(((( 0.25 0.15 0.4 0.2 )
( 0.25 0.15 0.4 0.2 ))
(( 0.2 0.25 0.15 0.4 )
( 0.2 0.25 0.15 0.4 )))
((( 0.2 0.25 0.15 0.4 )
( 0.2 0.25 0.15 0.4 ))
(( 0.2 0.25 0.15 0.4 )
( 0.2 0.25 0.15 0.4 )))))
((((( 0.2 0.25 0.15 0.4 )
( 0.2 0.25 0.15 0.4 ))
(( 0.25 0.15 0.4 0.2 )
( 0.25 0.15 0.4 0.2 )))
((( 0.25 0.15 0.4 0.2 )
( 0.25 0.15 0.4 0.2 ))
(( 0.25 0.15 0.4 0.2 )
( 0.25 0.15 0.4 0.2 ))))
(((( 0.25 0.15 0.4 0.2 )
( 0.25 0.15 0.4 0.2 ))
(( 0.25 0.15 0.4 0.2 )
( 0.25 0.15 0.4 0.2 )))
((( 0.25 0.15 0.4 0.2 )
( 0.15 0.4 0.2 0.25 ))
(( 0.15 0.4 0.2 0.25 )
( 0.15 0.4 0.2 0.25 ))))))))
(((((((( 0.40000007 0.20000003 0.25 0.14999999 )
( 0.25 0.15 0.4 0.2 ))
(( 0.25 0.15 0.4 0.2 )
( 0.25 0.15 0.4 0.2 )))
((( 0.25 0.15 0.4 0.2 )
( 0.25 0.15 0.4 0.2 ))
(( 0.25 0.15 0.4 0.2 )
( 0.25 0.15 0.4 0.2 ))))
(((( 0.25 0.15 0.4 0.2 )
( 0.25 0.15 0.4 0.2 ))
(( 0.25 0.15 0.4 0.2 )
( 0.25 0.15 0.4 0.2 )))
((( 0.25 0.15 0.4 0.2 )
( 0.25 0.15 0.4 0.2 ))
(( 0.15 0.4 0.2 0.25 )
( 0.15 0.4 0.2 0.25 )))))
((((( 0.15 0.4 0.2 0.25 )
( 0.15 0.4 0.2 0.25 ))
(( 0.15 0.4 0.2 0.25 )
( 0.15 0.4 0.2 0.25 )))
((( 0.2 0.25 0.15 0.4 )
( 0.2 0.25 0.15 0.4 ))
(( 0.2 0.25 0.15 0.4 )
( 0.2 0.25 0.15 0.4 ))))
(((( 0.2 0.25 0.15 0.4 )
( 0.2 0.25 0.15 0.4 ))
(( 0.2 0.25 0.15 0.4 )
( 0.2 0.25 0.15 0.4 )))
((( 0.25 0.15 0.4 0.2 )
( 0.25 0.15 0.4 0.2 ))
(( 0.25 0.15 0.4 0.2 )
( 0.25 0.15 0.4 0.2 ))))))
(((((( 0.25 0.15 0.4 0.2 )
( 0.25 0.15 0.4 0.2 ))
(( 0.25 0.15 0.4 0.2 )
( 0.25 0.15 0.4 0.2 )))
((( 0.25 0.15 0.4 0.2 )
( 0.25 0.15 0.4 0.2 ))
(( 0.25 0.15 0.4 0.2 )
( 0.25 0.15 0.4 0.2 ))))
(((( 0.25 0.15 0.4 0.2 )
( 0.25 0.15 0.4 0.2 ))
(( 0.25 0.15 0.4 0.2 )
( 0.25 0.15 0.4 0.2 )))
((( 0.25 0.15 0.4 0.2 )
( 0.25 0.15 0.4 0.2 ))
(( 0.25 0.15 0.4 0.2 )
( 0.25 0.15 0.4 0.2 )))))
((((( 0.25 0.15 0.4 0.2 )
( 0.25 0.15 0.4 0.2 ))
(( 0.25 0.15 0.4 0.2 )
( 0.25 0.15 0.4 0.2 )))
((( 0.25 0.15 0.4 0.2 )
( 0.25 0.15 0.4 0.2 ))
(( 0.15 0.4 0.2 0.25 )
( 0.15 0.4 0.2 0.25 ))))
(((( 0.15 0.4 0.2 0.25 )
( 0.15 0.4 0.2 0.25 ))
(( 0.15 0.4 0.2 0.25 )
( 0.15 0.4 0.2 0.25 )))
((( 0.15 0.4 0.2 0.25 )
( 0.15 0.4 0.2 0.25 ))
(( 0.15 0.4 0.2 0.25 )
( 0.15 0.4 0.2 0.25 )))))))
((((((( 0.15 0.4 0.2 0.25 )
( 0.15 0.4 0.2 0.25 ))
(( 0.15 0.4 0.2 0.25 )
( 0.15 0.4 0.2 0.25 )))
((( 0.15 0.4 0.2 0.25 )
( 0.15 0.4 0.2 0.25 ))
(( 0.15 0.4 0.2 0.25 )
( 0.15 0.4 0.2 0.25 ))))
(((( 0.15 0.4 0.2 0.25 )
( 0.15 0.4 0.2 0.25 ))
(( 0.15 0.4 0.2 0.25 )
( 0.15 0.4 0.2 0.25 )))
((( 0.15 0.4 0.2 0.25 )
( 0.15 0.4 0.2 0.25 ))
(( 0.15 0.4 0.2 0.25 )
( 0.15 0.4 0.2 0.25 )))))
((((( 0.15 0.4 0.2 0.25 )
( 0.15 0.4 0.2 0.25 ))
(( 0.15 0.4 0.2 0.25 )
( 0.15 0.4 0.2 0.25 )))
((( 0.2 0.25 0.15 0.4 )
( 0.2 0.25 0.15 0.4 ))
(( 0.2 0.25 0.15 0.4 )
( 0.2 0.25 0.15 0.4 ))))
(((( 0.2 0.25 0.15 0.4 )
( 0.2 0.25 0.15 0.4 ))
(( 0.2 0.25 0.15 0.4 )
( 0.2 0.25 0.15 0.4 )))
((( 0.25 0.15 0.4 0.2 )
( 0.25 0.15 0.4 0.2 ))
(( 0.25 0.15 0.4 0.2 )
( 0.25 0.15 0.4 0.2 ))))))
(((((( 0.25 0.15 0.4 0.2 )
( 0.25 0.15 0.4 0.2 ))
(( 0.25 0.15 0.4 0.2 )
( 0.25 0.15 0.4 0.2 )))
((( 0.25 0.15 0.4 0.2 )
( 0.25 0.15 0.4 0.2 ))
(( 0.25 0.15 0.4 0.2 )
( 0.25 0.15 0.4 0.2 ))))
(((( 0.25 0.15 0.4 0.2 )
( 0.2 0.25 0.15 0.4 ))
(( 0.2 0.25 0.15 0.4 )
( 0.2 0.25 0.15 0.4 )))
((( 0.2 0.25 0.15 0.4 )
( 0.2 0.25 0.15 0.4 ))
(( 0.2 0.25 0.15 0.4 )
( 0.2 0.25 0.15 0.4 )))))
((((( 0.25 0.15 0.4 0.2 )
( 0.25 0.15 0.4 0.2 ))
(( 0.25 0.15 0.4 0.2 )
( 0.25 0.15 0.4 0.2 )))
((( 0.25 0.15 0.4 0.2 )
( 0.25 0.15 0.4 0.2 ))
(( 0.25 0.15 0.4 0.2 )
( 0.25 0.15 0.4 0.2 ))))
(((( 0.25 0.15 0.4 0.2 )
( 0.25 0.15 0.4 0.2 ))
(( 0.25 0.15 0.4 0.2 )
( 0.25 0.15 0.4 0.2 )))
((( 0.25 0.15 0.4 0.2 )
( 0.2 0.25 0.15 0.4 ))
(( 0.2 0.25 0.15 0.4 )
( 0.2 0.25 0.15 0.4 ))))))))
(((((((( 0.2 0.25 0.15 0.4 )
( 0.2 0.25 0.15 0.4 ))
(( 0.2 0.25 0.15 0.4 )
( 0.2 0.25 0.15 0.4 )))
((( 0.25 0.15 0.4 0.2 )
( 0.25 0.15 0.4 0.2 ))
(( 0.25 0.15 0.4 0.2 )
( 0.25 0.15 0.4 0.2 ))))
(((( 0.25 0.15 0.4 0.2 )
( 0.25 0.15 0.4 0.2 ))
(( 0.25 0.15 0.4 0.2 )
( 0.25 0.15 0.4 0.2 )))
((( 0.25 0.15 0.4 0.2 )
( 0.25 0.15 0.4 0.2 ))
(( 0.25 0.15 0.4 0.2 )
( 0.25 0.15 0.4 0.2 )))))
((((( 0.25 0.15 0.4 0.2 )
( 0.2 0.25 0.15 0.4 ))
(( 0.2 0.25 0.15 0.4 )
( 0.2 0.25 0.15 0.4 )))
((( 0.2 0.25 0.15 0.4 )
( 0.2 0.25 0.15 0.4 ))
(( 0.2 0.25 0.15 0.4 )
( 0.2 0.25 0.15 0.4 ))))
(((( 0.2 0.25 0.15 0.4 )
( 0.25 0.15 0.4 0.2 ))
(( 0.25 0.15 0.4 0.2 )
( 0.25 0.15 0.4 0.2 )))
((( 0.25 0.15 0.4 0.2 )
( 0.25 0.15 0.4 0.2 ))
(( 0.25 0.15 0.4 0.2 )
( 0.25 0.15 0.4 0.2 ))))))
(((((( 0.25 0.15 0.4 0.2 )
( 0.25 0.15 0.4 0.2 ))
(( 0.25 0.15 0.4 0.2 )
( 0.25 0.15 0.4 0.2 )))
((( 0.25 0.15 0.4 0.2 )
( 0.15 0.4 0.2 0.25 ))
(( 0.15 0.4 0.2 0.25 )
( 0.15 0.4 0.2 0.25 ))))
(((( 0.2 0.25 0.15 0.4 )
( 0.2 0.25 0.15 0.4 ))
(( 0.2 0.25 0.15 0.4 )
( 0.2 0.25 0.15 0.4 )))
((( 0.2 0.25 0.15 0.4 )
( 0.2 0.25 0.15 0.4 ))
(( 0.2 0.25 0.15 0.4 )
( 0.2 0.25 0.15 0.4 )))))
((((( 0.2 0.25 0.15 0.4 )
( 0.2 0.25 0.15 0.4 ))
(( 0.2 0.25 0.15 0.4 )
( 0.2 0.25 0.15 0.4 )))
((( 0.2 0.25 0.15 0.4 )
( 0.2 0.25 0.15 0.4 ))
(( 0.2 0.25 0.15 0.4 )
( 0.2 0.25 0.15 0.4 ))))
(((( 0.15 0.4 0.2 0.25 )
( 0.15 0.4 0.2 0.25 ))
(( 0.15 0.4 0.2 0.25 )
( 0.15 0.4 0.2 0.25 )))
((( 0.2 0.25 0.15 0.4 )
( 0.2 0.25 0.15 0.4 ))
(( 0.2 0.25 0.15 0.4 )
( 0.2 0.25 0.15 0.4 )))))))
((((((( 0.2 0.25 0.15 0.4 )
( 0.2 0.25 0.15 0.4 ))
(( 0.2 0.25 0.15 0.4 )
( 0.2 0.25 0.15 0.4 )))
((( 0.25 0.15 0.4 0.2 )
( 0.25 0.15 0.4 0.2 ))
(( 0.25 0.15 0.4 0.2 )
( 0.25 0.15 0.4 0.2 ))))
(((( 0.25 0.15 0.4 0.2 )
( 0.25 0.15 0.4 0.2 ))
(( 0.25 0.15 0.4 0.2 )
( 0.25 0.15 0.4 0.2 )))
((( 0.25 0.15 0.4 0.2 )
( 0.25 0.15 0.4 0.2 ))
(( 0.25 0.15 0.4 0.2 )
( 0.25 0.15 0.4 0.2 )))))
((((( 0.25 0.15 0.4 0.2 )
( 0.15 0.4 0.2 0.25 ))
(( 0.15 0.4 0.2 0.25 )
( 0.15 0.4 0.2 0.25 )))
((( 0.2 0.25 0.15 0.4 )
( 0.2 0.25 0.15 0.4 ))
(( 0.2 0.25 0.15 0.4 )
( 0.2 0.25 0.15 0.4 ))))
(((( 0.2 0.25 0.15 0.4 )
( 0.2 0.25 0.15 0.4 ))
(( 0.25 0.15 0.4 0.2 )
( 0.25 0.15 0.4 0.2 )))
((( 0.25 0.15 0.4 0.2 )
( 0.25 0.15 0.4 0.2 ))
(( 0.25 0.15 0.4 0.2 )
( 0.25 0.15 0.4 0.2 ))))))
(((((( 0.25 0.15 0.4 0.2 )
( 0.25 0.15 0.4 0.2 ))
(( 0.25 0.15 0.4 0.2 )
( 0.25 0.15 0.4 0.2 )))
((( 0.25 0.15 0.4 0.2 )
( 0.25 0.15 0.4 0.2 ))
(( 0.25 0.15 0.4 0.2 )
( 0.15 0.4 0.2 0.25 ))))
(((( 0.15 0.4 0.2 0.25 )
( 0.15 0.4 0.2 0.25 ))
(( 0.2 0.25 0.15 0.4 )
( 0.2 0.25 0.15 0.4 )))
((( 0.2 0.25 0.15 0.4 )
( 0.2 0.25 0.15 0.4 ))
(( 0.2 0.25 0.15 0.4 )
( 0.2 0.25 0.15 0.4 )))))
((((( 0.25 0.15 0.4 0.2 )
( 0.25 0.15 0.4 0.2 ))
(( 0.25 0.15 0.4 0.2 )
( 0.25 0.15 0.4 0.2 )))
((( 0.25 0.15 0.4 0.2 )
( 0.25 0.15 0.4 0.2 ))
(( 0.25 0.15 0.4 0.2 )
( 0.25 0.15 0.4 0.2 ))))
(((( 0.25 0.15 0.4 0.2 )
( 0.25 0.15 0.4 0.2 ))
(( 0.25 0.15 0.4 0.2 )
( 0.25 0.15 0.4 0.2 )))
((( 0.25 0.15 0.4 0.2 )
( 0.15 0.4 0.2 0.25 ))
(( 0.15 0.4 0.2 0.25 )
( 0.15 0.4 0.2 0.25 ))))))))
(((((((( 0.40000007 0.20000003 0.25 0.14999999 )
( 0.15 0.4 0.2 0.25 ))
(( 0.15 0.4 0.2 0.25 )
( 0.15 0.4 0.2 0.25 )))
((( 0.15 0.4 0.2 0.25 )
( 0.15 0.4 0.2 0.25 ))
(( 0.15 0.4 0.2 0.25 )
( 0.15 0.4 0.2 0.25 ))))
(((( 0.15 0.4 0.2 0.25 )
( 0.15 0.4 0.2 0.25 ))
(( 0.15 0.4 0.2 0.25 )
( 0.15 0.4 0.2 0.25 )))
((( 0.15 0.4 0.2 0.25 )
( 0.15 0.4 0.2 0.25 ))
(( 0.15 0.4 0.2 0.25 )
( 0.15 0.4 0.2 0.25 )))))
((((( 0.15 0.4 0.2 0.25 )
( 0.15 0.4 0.2 0.25 ))
(( 0.2 0.25 0.15 0.4 )
( 0.2 0.25 0.15 0.4 )))
((( 0.2 0.25 0.15 0.4 )
( 0.2 0.25 0.15 0.4 ))
(( 0.2 0.25 0.15 0.4 )
( 0.2 0.25 0.15 0.4 ))))
(((( 0.2 0.25 0.15 0.4 )
( 0.2 0.25 0.15 0.4 ))
(( 0.25 0.15 0.4 0.2 )
( 0.25 0.15 0.4 0.2 )))
((( 0.25 0.15 0.4 0.2 )
( 0.25 0.15 0.4 0.2 ))
(( 0.25 0.15 0.4 0.2 )
( 0.25 0.15 0.4 0.2 ))))))
(((((( 0.25 0.15 0.4 0.2 )
( 0.25 0.15 0.4 0.2 ))
(( 0.25 0.15 0.4 0.2 )
( 0.25 0.15 0.4 0.2 )))
((( 0.25 0.15 0.4 0.2 )
( 0.15 0.4 0.2 0.25 ))
(( 0.15 0.4 0.2 0.25 )
( 0.15 0.4 0.2 0.25 ))))
(((( 0.2 0.25 0.15 0.4 )
( 0.2 0.25 0.15 0.4 ))
(( 0.2 0.25 0.15 0.4 )
( 0.2 0.25 0.15 0.4 )))
((( 0.2 0.25 0.15 0.4 )
( 0.2 0.25 0.15 0.4 ))
(( 0.2 0.25 0.15 0.4 )
( 0.2 0.25 0.15 0.4 )))))
((((( 0.15 0.4 0.2 0.25 )
( 0.15 0.4 0.2 0.25 ))
(( 0.15 0.4 0.2 0.25 )
( 0.15 0.4 0.2 0.25 )))
((( 0.15 0.4 0.2 0.25 )
( 0.15 0.4 0.2 0.25 ))
(( 0.15 0.4 0.2 0.25 )
( 0.15 0.4 0.2 0.25 ))))
(((( 0.15 0.4 0.2 0.25 )
( 0.15 0.4 0.2 0.25 ))
(( 0.15 0.4 0.2 0.25 )
( 0.15 0.4 0.2 0.25 )))
((( 0.15 0.4 0.2 0.25 )
( 0.15 0.4 0.2 0.25 ))
(( 0.2 0.25 0.15 0.4 )
( 0.2 0.25 0.15 0.4 )))))))
((((((( 0.2 0.25 0.15 0.4 )
( 0.2 0.25 0.15 0.4 ))
(( 0.2 0.25 0.15 0.4 )
( 0.2 0.25 0.15 0.4 )))
((( 0.2 0.25 0.15 0.4 )
( 0.2 0.25 0.15 0.4 ))
(( 0.25 0.15 0.4 0.2 )
( 0.25 0.15 0.4 0.2 ))))
(((( 0.25 0.15 0.4 0.2 )
( 0.25 0.15 0.4 0.2 ))
(( 0.25 0.15 0.4 0.2 )
( 0.25 0.15 0.4 0.2 )))
((( 0.25 0.15 0.4 0.2 )
( 0.25 0.15 0.4 0.2 ))
(( 0.25 0.15 0.4 0.2 )
( 0.25 0.15 0.4 0.2 )))))
((((( 0.25 0.15 0.4 0.2 )
( 0.25 0.15 0.4 0.2 ))
(( 0.25 0.15 0.4 0.2 )
( 0.25 0.15 0.4 0.2 )))
((( 0.25 0.15 0.4 0.2 )
( 0.25 0.15 0.4 0.2 ))
(( 0.25 0.15 0.4 0.2 )
( 0.25 0.15 0.4 0.2 ))))
(((( 0.25 0.15 0.4 0.2 )
( 0.25 0.15 0.4 0.2 ))
(( 0.25 0.15 0.4 0.2 )
( 0.25 0.15 0.4 0.2 )))
((( 0.25 0.15 0.4 0.2 )
( 0.25 0.15 0.4 0.2 ))
(( 0.25 0.15 0.4 0.2 )
( 0.25 0.15 0.4 0.2 ))))))
(((((( 0.15 0.4 0.2 0.25 )
( 0.15 0.4 0.2 0.25 ))
(( 0.15 0.4 0.2 0.25 )
( 0.15 0.4 0.2 0.25 )))
((( 0.15 0.4 0.2 0.25 )
( 0.15 0.4 0.2 0.25 ))
(( 0.15 0.4 0.2 0.25 )
( 0.2 0.25 0.15 0.4 ))))
(((( 0.2 0.25 0.15 0.4 )
( 0.2 0.25 0.15 0.4 ))
(( 0.2 0.25 0.15 0.4 )
( 0.2 0.25 0.15 0.4 )))
((( 0.2 0.25 0.15 0.4 )
( 0.2 0.25 0.15 0.4 ))
(( 0.2 0.25 0.15 0.4 )
( 0.15 0.4 0.2 0.25 )))))
((((( 0.15 0.4 0.2 0.25 )
( 0.15 0.4 0.2 0.25 ))
(( 0.15 0.4 0.2 0.25 )
( 0.15 0.4 0.2 0.25 )))
((( 0.15 0.4 0.2 0.25 )
( 0.15 0.4 0.2 0.25 ))
(( 0.15 0.4 0.2 0.25 )
( 0.15 0.4 0.2 0.25 ))))
(((( 0.15 0.4 0.2 0.25 )
( 0.15 0.4 0.2 0.25 ))
(( 0.15 0.4 0.2 0.25 )
( 0.15 0.4 0.2 0.25 )))
((( 0.2 0.25 0.15 0.4 )
( 0.2 0.25 0.15 0.4 ))
(( 0.2 0.25 0.15 0.4 )
( 0.2 0.25 0.15 0.4 ))))))))
(((((((( 0.2 0.25 0.15 0.4 )
( 0.2 0.25 0.15 0.4 ))
(( 0.2 0.25 0.15 0.4 )
( 0.2 0.25 0.15 0.4 )))
((( 0.25 0.15 0.4 0.2 )
( 0.25 0.15 0.4 0.2 ))
(( 0.25 0.15 0.4 0.2 )
( 0.25 0.15 0.4 0.2 ))))
(((( 0.25 0.15 0.4 0.2 )
( 0.25 0.15 0.4 0.2 ))
(( 0.25 0.15 0.4 0.2 )
( 0.25 0.15 0.4 0.2 )))
((( 0.25 0.15 0.4 0.2 )
( 0.25 0.15 0.4 0.2 ))
(( 0.25 0.15 0.4 0.2 )
( 0.25 0.15 0.4 0.2 )))))
((((( 0.25 0.15 0.4 0.2 )
( 0.2 0.25 0.15 0.4 ))
(( 0.2 0.25 0.15 0.4 )
( 0.2 0.25 0.15 0.4 )))
((( 0.2 0.25 0.15 0.4 )
( 0.2 0.25 0.15 0.4 ))
(( 0.2 0.25 0.15 0.4 )
( 0.2 0.25 0.15 0.4 ))))
(((( 0.15 0.4 0.2 0.25 )
( 0.15 0.4 0.2 0.25 ))
(( 0.15 0.4 0.2 0.25 )
( 0.15 0.4 0.2 0.25 )))
((( 0.15 0.4 0.2 0.25 )
( 0.15 0.4 0.2 0.25 ))
(( 0.15 0.4 0.2 0.25 )
( 0.15 0.4 0.2 0.25 ))))))
(((((( 0.15 0.4 0.2 0.25 )
( 0.15 0.4 0.2 0.25 ))
(( 0.15 0.4 0.2 0.25 )
( 0.15 0.4 0.2 0.25 )))
((( 0.2 0.25 0.15 0.4 )
( 0.2 0.25 0.15 0.4 ))
(( 0.2 0.25 0.15 0.4 )
( 0.2 0.25 0.15 0.4 ))))
(((( 0.2 0.25 0.15 0.4 )
( 0.2 0.25 0.15 0.4 ))
(( 0.2 0.25 0.15 0.4 )
( 0.2 0.25 0.15 0.4 )))
((( 0.2 0.25 0.15 0.4 )
( 0.2 0.25 0.15 0.4 ))
(( 0.2 0.25 0.15 0.4 )
( 0.2 0.25 0.15 0.4 )))))
((((( 0.2 0.25 0.15 0.4 )
( 0.2 0.25 0.15 0.4 ))
(( 0.2 0.25 0.15 0.4 )
( 0.15 0.4 0.2 0.25 )))
((( 0.15 0.4 0.2 0.25 )
( 0.15 0.4 0.2 0.25 ))
(( 0.2 0.25 0.15 0.4 )
( 0.2 0.25 0.15 0.4 ))))
(((( 0.2 0.25 0.15 0.4 )
( 0.2 0.25 0.15 0.4 ))
(( 0.2 0.25 0.15 0.4 )
( 0.2 0.25 0.15 0.4 )))
((( 0.2 0.25 0.15 0.4 )
( 0.2 0.25 0.15 0.4 ))
(( 0.2 0.25 0.15 0.4 )
( 0.2 0.25 0.15 0.4 )))))))
((((((( 0.2 0.25 0.15 0.4 )
( 0.2 0.25 0.15 0.4 ))
(( 0.2 0.25 0.15 0.4 )
( 0.2 0.25 0.15 0.4 )))
((( 0.2 0.25 0.15 0.4 )
( 0.2 0.25 0.15 0.4 ))
(( 0.25 0.15 0.4 0.2 )
( 0.25 0.15 0.4 0.2 ))))
(((( 0.25 0.15 0.4 0.2 )
( 0.25 0.15 0.4 0.2 ))
(( 0.25 0.15 0.4 0.2 )
( 0.25 0.15 0.4 0.2 )))
((( 0.25 0.15 0.4 0.2 )
( 0.25 0.15 0.4 0.2 ))
(( 0.25 0.15 0.4 0.2 )
( 0.25 0.15 0.4 0.2 )))))
((((( 0.25 0.15 0.4 0.2 )
( 0.25 0.15 0.4 0.2 ))
(( 0.25 0.15 0.4 0.2 )
( 0.2 0.25 0.15 0.4 )))
((( 0.2 0.25 0.15 0.4 )
( 0.2 0.25 0.15 0.4 ))
(( 0.2 0.25 0.15 0.4 )
( 0.2 0.25 0.15 0.4 ))))
(((( 0.2 0.25 0.15 0.4 )
( 0.2 0.25 0.15 0.4 ))
(( 0.2 0.25 0.15 0.4 )
( 0.25 0.15 0.4 0.2 )))
((( 0.25 0.15 0.4 0.2 )
( 0.25 0.15 0.4 0.2 ))
(( 0.25 0.15 0.4 0.2 )
( 0.25 0.15 0.4 0.2 ))))))
(((((( 0.25 0.15 0.4 0.2 )
( 0.25 0.15 0.4 0.2 ))
(( 0.25 0.15 0.4 0.2 )
( 0.25 0.15 0.4 0.2 )))
((( 0.25 0.15 0.4 0.2 )
( 0.25 0.15 0.4 0.2 ))
(( 0.25 0.15 0.4 0.2 )
( 0.25 0.15 0.4 0.2 ))))
(((( 0.2 0.25 0.15 0.4 )
( 0.2 0.25 0.15 0.4 ))
(( 0.2 0.25 0.15 0.4 )
( 0.2 0.25 0.15 0.4 )))
((( 0.2 0.25 0.15 0.4 )
( 0.2 0.25 0.15 0.4 ))
(( 0.2 0.25 0.15 0.4 )
( 0.2 0.25 0.15 0.4 )))))
((((( 0.25 0.15 0.4 0.2 )
( 0.25 0.15 0.4 0.2 ))
(( 0.25 0.15 0.4 0.2 )
( 0.25 0.15 0.4 0.2 )))
((( 0.25 0.15 0.4 0.2 )
( 0.25 0.15 0.4 0.2 ))
(( 0.25 0.15 0.4 0.2 )
( 0.25 0.15 0.4 0.2 ))))
(((( 0.25 0.15 0.4 0.2 )
( 0.25 0.15 0.4 0.2 ))
(( 0.25 0.15 0.4 0.2 )
( 0.25 0.15 0.4 0.2 )))
((( 0.25 0.15 0.4 0.2 )
( 0.2 0.25 0.15 0.4 ))
(( 0.2 0.25 0.15 0.4 )
( 0.2 0.25 0.15 0.4 ))))))))
(((((((( 0.2 0.25 0.15 0.4 )
( 0.2 0.25 0.15 0.4 ))
(( 0.2 0.25 0.15 0.4 )
( 0.2 0.25 0.15 0.4 )))
((( 0.2 0.25 0.15 0.4 )
( 0.15 0.4 0.2 0.25 ))
(( 0.15 0.4 0.2 0.25 )
( 0.15 0.4 0.2 0.25 ))))
(((( 0.15 0.4 0.2 0.25 )
( 0.15 0.4 0.2 0.25 ))
(( 0.15 0.4 0.2 0.25 )
( 0.15 0.4 0.2 0.25 )))
((( 0.2 0.25 0.15 0.4 )
( 0.2 0.25 0.15 0.4 ))
(( 0.2 0.25 0.15 0.4 )
( 0.2 0.25 0.15 0.4 )))))
((((( 0.2 0.25 0.15 0.4 )
( 0.2 0.25 0.15 0.4 ))
(( 0.2 0.25 0.15 0.4 )
( 0.2 0.25 0.15 0.4 )))
((( 0.2 0.25 0.15 0.4 )
( 0.2 0.25 0.15 0.4 ))
(( 0.2 0.25 0.15 0.4 )
( 0.2 0.25 0.15 0.4 ))))
(((( 0.2 0.25 0.15 0.4 )
( 0.2 0.25 0.15 0.4 ))
(( 0.2 0.25 0.15 0.4 )
( 0.2 0.25 0.15 0.4 )))
((( 0.15 0.4 0.2 0.25 )
( 0.15 0.4 0.2 0.25 ))
(( 0.15 0.4 0.2 0.25 )
( 0.15 0.4 0.2 0.25 ))))))
(((((( 0.2 0.25 0.15 0.4 )
( 0.2 0.25 0.15 0.4 ))
(( 0.2 0.25 0.15 0.4 )
( 0.2 0.25 0.15 0.4 )))
((( 0.2 0.25 0.15 0.4 )
( 0.2 0.25 0.15 0.4 ))
(( 0.2 0.25 0.15 0.4 )
( 0.2 0.25 0.15 0.4 ))))
(((( 0.2 0.25 0.15 0.4 )
( 0.2 0.25 0.15 0.4 ))
(( 0.2 0.25 0.15 0.4 )
( 0.2 0.25 0.15 0.4 )))
((( 0.2 0.25 0.15 0.4 )
( 0.2 0.25 0.15 0.4 ))
(( 0.2 0.25 0.15 0.4 )
( 0.2 0.25 0.15 0.4 )))))
((((( 0.15 0.4 0.2 0.25 )
( 0.15 0.4 0.2 0.25 ))
(( 0.15 0.4 0.2 0.25 )
( 0.15 0.4 0.2 0.25 )))
((( 0.2 0.25 0.15 0.4 )
( 0.2 0.25 0.15 0.4 ))
(( 0.2 0.25 0.15 0.4 )
( 0.2 0.25 0.15 0.4 ))))
(((( 0.2 0.25 0.15 0.4 )
( 0.2 0.25 0.15 0.4 ))
(( 0.2 0.25 0.15 0.4 )
( 0.2 0.25 0.15 0.4 )))
((( 0.2 0.25 0.15 0.4 )
( 0.2 0.25 0.15 0.4 ))
(( 0.2 0.25 0.15 0.4 )
( 0.2 0.25 0.15 0.4 )))))))
((((((( 0.2 0.25 0.15 0.4 )
( 0.2 0.25 0.15 0.4 ))
(( 0.2 0.25 0.15 0.4 )
( 0.2 0.25 0.15 0.4 )))
((( 0.25 0.15 0.4 0.2 )
( 0.25 0.15 0.4 0.2 ))
(( 0.25 0.15 0.4 0.2 )
( 0.25 0.15 0.4 0.2 ))))
(((( 0.25 0.15 0.4 0.2 )
( 0.25 0.15 0.4 0.2 ))
(( 0.25 0.15 0.4 0.2 )
( 0.25 0.15 0.4 0.2 )))
((( 0.25 0.15 0.4 0.2 )
( 0.25 0.15 0.4 0.2 ))
(( 0.25 0.15 0.4 0.2 )
( 0.25 0.15 0.4 0.2 )))))
((((( 0.25 0.15 0.4 0.2 )
( 0.2 0.25 0.15 0.4 ))
(( 0.2 0.25 0.15 0.4 )
( 0.2 0.25 0.15 0.4 )))
((( 0.2 0.25 0.15 0.4 )
( 0.2 0.25 0.15 0.4 ))
(( 0.2 0.25 0.15 0.4 )
( 0.2 0.25 0.15 0.4 ))))
(((( 0.2 0.25 0.15 0.4 )
( 0.15 0.4 0.2 0.25 ))
(( 0.15 0.4 0.2 0.25 )
( 0.15 0.4 0.2 0.25 )))
((( 0.15 0.4 0.2 0.25 )
( 0.15 0.4 0.2 0.25 ))
(( 0.2 0.25 0.15 0.4 )
( 0.2 0.25 0.15 0.4 ))))))
(((((( 0.2 0.25 0.15 0.4 )
( 0.2 0.25 0.15 0.4 ))
(( 0.2 0.25 0.15 0.4 )
( 0.2 0.25 0.15 0.4 )))
((( 0.2 0.25 0.15 0.4 )
( 0.2 0.25 0.15 0.4 ))
(( 0.2 0.25 0.15 0.4 )
( 0.2 0.25 0.15 0.4 ))))
(((( 0.2 0.25 0.15 0.4 )
( 0.2 0.25 0.15 0.4 ))
(( 0.2 0.25 0.15 0.4 )
( 0.2 0.25 0.15 0.4 )))
((( 0.2 0.25 0.15 0.4 )
( 0.2 0.25 0.15 0.4 ))
(( 0.25 0.15 0.4 0.2 )
( 0.25 0.15 0.4 0.2 )))))
((((( 0.25 0.15 0.4 0.2 )
( 0.25 0.15 0.4 0.2 ))
(( 0.25 0.15 0.4 0.2 )
( 0.25 0.15 0.4 0.2 )))
((( 0.25 0.15 0.4 0.2 )
( 0.25 0.15 0.4 0.2 ))
(( 0.25 0.15 0.4 0.2 )
( 0.25 0.15 0.4 0.2 ))))
(((( 0.25 0.15 0.4 0.2 )
( 0.25 0.15 0.4 0.2 ))
(( 0.25 0.15 0.4 0.2 )
( 0.2 0.25 0.15 0.4 )))
((( 0.2 0.25 0.15 0.4 )
( 0.2 0.25 0.15 0.4 ))
(( 0.2 0.25 0.15 0.4 )
( 0.2 0.25 0.15 0.4 ))))))))
(((((((( 0.2 0.25 0.15 0.4 )
( 0.2 0.25 0.15 0.4 ))
(( 0.2 0.25 0.15 0.4 )
( 0.15 0.4 0.2 0.25 )))
((( 0.15 0.4 0.2 0.25 )
( 0.15 0.4 0.2 0.25 ))
(( 0.15 0.4 0.2 0.25 )
( 0.15 0.4 0.2 0.25 ))))
(((( 0.2 0.25 0.15 0.4 )
( 0.2 0.25 0.15 0.4 ))
(( 0.2 0.25 0.15 0.4 )
( 0.2 0.25 0.15 0.4 )))
((( 0.2 0.25 0.15 0.4 )
( 0.2 0.25 0.15 0.4 ))
(( 0.2 0.25 0.15 0.4 )
( 0.2 0.25 0.15 0.4 )))))
((((( 0.2 0.25 0.15 0.4 )
( 0.2 0.25 0.15 0.4 ))
(( 0.2 0.25 0.15 0.4 )
( 0.2 0.25 0.15 0.4 )))
((( 0.2 0.25 0.15 0.4 )
( 0.2 0.25 0.15 0.4 ))
(( 0.2 0.25 0.15 0.4 )
( 0.2 0.25 0.15 0.4 ))))
(((( 0.25 0.15 0.4 0.2 )
( 0.25 0.15 0.4 0.2 ))
(( 0.25 0.15 0.4 0.2 )
( 0.25 0.15 0.4 0.2 )))
((( 0.25 0.15 0.4 0.2 )
( 0.25 0.15 0.4 0.2 ))
(( 0.2 0.25 0.15 0.4 )
( 0.2 0.25 0.15 0.4 ))))))
(((((( 0.2 0.25 0.15 0.4 )
( 0.2 0.25 0.15 0.4 ))
(( 0.2 0.25 0.15 0.4 )
( 0.2 0.25 0.15 0.4 )))
((( 0.2 0.25 0.15 0.4 )
( 0.2 0.25 0.15 0.4 ))
(( 0.2 0.25 0.15 0.4 )
( 0.2 0.25 0.15 0.4 ))))
(((( 0.2 0.25 0.15 0.4 )
( 0.2 0.25 0.15 0.4 ))
(( 0.2 0.25 0.15 0.4 )
( 0.2 0.25 0.15 0.4 )))
((( 0.2 0.25 0.15 0.4 )
( 0.25 0.15 0.4 0.2 ))
(( 0.25 0.15 0.4 0.2 )
( 0.25 0.15 0.4 0.2 )))))
((((( 0.25 0.15 0.4 0.2 )
( 0.25 0.15 0.4 0.2 ))
(( 0.25 0.15 0.4 0.2 )
( 0.2 0.25 0.15 0.4 )))
((( 0.2 0.25 0.15 0.4 )
( 0.2 0.25 0.15 0.4 ))
(( 0.2 0.25 0.15 0.4 )
( 0.2 0.25 0.15 0.4 ))))
(((( 0.2 0.25 0.15 0.4 )
( 0.2 0.25 0.15 0.4 ))
(( 0.2 0.25 0.15 0.4 )
( 0.2 0.25 0.15 0.4 )))
((( 0.2 0.25 0.15 0.4 )
( 0.2 0.25 0.15 0.4 ))
(( 0.2 0.25 0.15 0.4 )
( 0.2 0.25 0.15 0.4 )))))))
((((((( 0.2 0.25 0.15 0.4 )
( 0.2 0.25 0.15 0.4 ))
(( 0.25 0.15 0.4 0.2 )
( 0.25 0.15 0.4 0.2 )))
((( 0.25 0.15 0.4 0.2 )
( 0.25 0.15 0.4 0.2 ))
(( 0.25 0.15 0.4 0.2 )
( 0.25 0.15 0.4 0.2 ))))
(((( 0.2 0.25 0.15 0.4 )
( 0.2 0.25 0.15 0.4 ))
(( 0.2 0.25 0.15 0.4 )
( 0.2 0.25 0.15 0.4 )))
((( 0.2 0.25 0.15 0.4 )
( 0.2 0.25 0.15 0.4 ))
(( 0.2 0.25 0.15 0.4 )
( 0.2 0.25 0.15 0.4 )))))
((((( 0.2 0.25 0.15 0.4 )
( 0.2 0.25 0.15 0.4 ))
(( 0.2 0.25 0.15 0.4 )
( 0.2 0.25 0.15 0.4 )))
((( 0.2 0.25 0.15 0.4 )
( 0.2 0.25 0.15 0.4 ))
(( 0.2 0.25 0.15 0.4 )
( 0.25 0.15 0.4 0.2 ))))
(((( 0.25 0.15 0.4 0.2 )
( 0.25 0.15 0.4 0.2 ))
(( 0.25 0.15 0.4 0.2 )
( 0.25 0.15 0.4 0.2 )))
((( 0.25 0.15 0.4 0.2 )
( 0.2 0.25 0.15 0.4 ))
(( 0.2 0.25 0.15 0.4 )
( 0.2 0.25 0.15 0.4 ))))))
(((((( 0.2 0.25 0.15 0.4 )
( 0.2 0.25 0.15 0.4 ))
(( 0.2 0.25 0.15 0.4 )
( 0.2 0.25 0.15 0.4 )))
((( 0.2 0.25 0.15 0.4 )
( 0.2 0.25 0.15 0.4 ))
(( 0.2 0.25 0.15 0.4 )
( 0.2 0.25 0.15 0.4 ))))
(((( 0.2 0.25 0.15 0.4 )
( 0.2 0.25 0.15 0.4 ))
(( 0.2 0.25 0.15 0.4 )
( 0.2 0.25 0.15 0.4 )))
((( 0.4 0.2 0.25 0.15 )
( 0.4 0.2 0.25 0.15 ))
(( 0.4 0.2 0.25 0.15 )
( 0.4 0.2 0.25 0.15 )))))
((((( 0.4 0.2 0.25 0.15 )
( 0.2 0.25 0.15 0.4 ))
(( 0.2 0.25 0.15 0.4 )
( 0.2 0.25 0.15 0.4 )))
((( 0.2 0.25 0.15 0.4 )
( 0.2 0.25 0.15 0.4 ))
(( 0.2 0.25 0.15 0.4 )
( 0.2 0.25 0.15 0.4 ))))
(((( 0.2 0.25 0.15 0.4 )
( 0.2 0.25 0.15 0.4 ))
(( 0.2 0.25 0.15 0.4 )
( 0.2 0.25 0.15 0.4 )))
((( 0.2 0.25 0.15 0.4 )
( 0.2 0.25 0.15 0.4 ))
(( 0.2 0.25 0.15 0.4 )
( 0.15 0.4 0.2 0.25 ))))))))
(((((((( 0.15 0.4 0.2 0.25 )
( 0.15 0.4 0.2 0.25 ))
(( 0.4 0.2 0.25 0.15 )
( 0.15 0.4 0.2 0.25 )))
((( 0.15 0.4 0.2 0.25 )
( 0.15 0.4 0.2 0.25 ))
(( 0.2 0.25 0.15 0.4 )
( 0.2 0.25 0.15 0.4 ))))
(((( 0.2 0.25 0.15 0.4 )
( 0.2 0.25 0.15 0.4 ))
(( 0.2 0.25 0.15 0.4 )
( 0.2 0.25 0.15 0.4 )))
((( 0.2 0.25 0.15 0.4 )
( 0.2 0.25 0.15 0.4 ))
(( 0.2 0.25 0.15 0.4 )
( 0.2 0.25 0.15 0.4 )))))
((((( 0.2 0.25 0.15 0.4 )
( 0.2 0.25 0.15 0.4 ))
(( 0.2 0.25 0.15 0.4 )
( 0.2 0.25 0.15 0.4 )))
((( 0.2 0.25 0.15 0.4 )
( 0.2 0.25 0.15 0.4 ))
(( 0.4 0.2 0.25 0.15 )
( 0.4 0.2 0.25 0.15 ))))
(((( 0.4 0.2 0.25 0.15 )
( 0.4 0.2 0.25 0.15 ))
(( 0.4 0.2 0.25 0.15 )
( 0.2 0.25 0.15 0.4 )))
((( 0.2 0.25 0.15 0.4 )
( 0.2 0.25 0.15 0.4 ))
(( 0.2 0.25 0.15 0.4 )
( 0.2 0.25 0.15 0.4 ))))))
(((((( 0.2 0.25 0.15 0.4 )
( 0.2 0.25 0.15 0.4 ))
(( 0.2 0.25 0.15 0.4 )
( 0.2 0.25 0.15 0.4 )))
((( 0.2 0.25 0.15 0.4 )
( 0.2 0.25 0.15 0.4 ))
(( 0.2 0.25 0.15 0.4 )
( 0.2 0.25 0.15 0.4 ))))
(((( 0.2 0.25 0.15 0.4 )
( 0.2 0.25 0.15 0.4 ))
(( 0.2 0.25 0.15 0.4 )
( 0.4 0.2 0.25 0.15 )))
((( 0.4 0.2 0.25 0.15 )
( 0.4 0.2 0.25 0.15 ))
(( 0.4 0.2 0.25 0.15 )
( 0.4 0.2 0.25 0.15 )))))
((((( 0.4 0.2 0.25 0.15 )
( 0.4 0.2 0.25 0.15 ))
(( 0.4 0.2 0.25 0.15 )
( 0.4 0.2 0.25 0.15 )))
((( 0.15 0.4 0.2 0.25 )
( 0.15 0.4 0.2 0.25 ))
(( 0.15 0.4 0.2 0.25 )
( 0.15 0.4 0.2 0.25 ))))
(((( 0.4 0.2 0.25 0.15 )
( 0.4 0.2 0.25 0.15 ))
(( 0.4 0.2 0.25 0.15 )
( 0.4 0.2 0.25 0.15 )))
((( 0.4 0.2 0.25 0.15 )
( 0.4 0.2 0.25 0.15 ))
(( 0.4 0.2 0.25 0.15 )
( 0.4 0.2 0.25 0.15 )))))))
((((((( 0.4 0.2 0.25 0.15 )
( 0.4 0.2 0.25 0.15 ))
(( 0.4 0.2 0.25 0.15 )
( 0.4 0.2 0.25 0.15 )))
((( 0.4 0.2 0.25 0.15 )
( 0.25 0.15 0.4 0.2 ))
(( 0.25 0.15 0.4 0.2 )
( 0.25 0.15 0.4 0.2 ))))
(((( 0.25 0.15 0.4 0.2 )
( 0.25 0.15 0.4 0.2 ))
(( 0.25 0.15 0.4 0.2 )
( 0.4 0.2 0.25 0.15 )))
((( 0.4 0.2 0.25 0.15 )
( 0.4 0.2 0.25 0.15 ))
(( 0.25 0.15 0.4 0.2 )
( 0.25 0.15 0.4 0.2 )))))
((((( 0.25 0.15 0.4 0.2 )
( 0.25 0.15 0.4 0.2 ))
(( 0.25 0.15 0.4 0.2 )
( 0.25 0.15 0.4 0.2 )))
((( 0.4 0.2 0.25 0.15 )
( 0.4 0.2 0.25 0.15 ))
(( 0.4 0.2 0.25 0.15 )
( 0.4 0.2 0.25 0.15 ))))
(((( 0.4 0.2 0.25 0.15 )
( 0.4 0.2 0.25 0.15 ))
(( 0.4 0.2 0.25 0.15 )
( 0.4 0.2 0.25 0.15 )))
((( 0.2 0.25 0.15 0.4 )
( 0.2 0.25 0.15 0.4 ))
(( 0.2 0.25 0.15 0.4 )
( 0.2 0.25 0.15 0.4 ))))))
(((((( 0.2 0.25 0.15 0.4 )
( 0.2 0.25 0.15 0.4 ))
(( 0.2 0.25 0.15 0.4 )
( 0.2 0.25 0.15 0.4 )))
((( 0.2 0.25 0.15 0.4 )
( 0.2 0.25 0.15 0.4 ))
(( 0.2 0.25 0.15 0.4 )
( 0.2 0.25 0.15 0.4 ))))
(((( 0.2 0.25 0.15 0.4 )
( 0.2 0.25 0.15 0.4 ))
(( 0.2 0.25 0.15 0.4 )
( 0.2 0.25 0.15 0.4 )))
((( 0.15 0.4 0.2 0.25 )
( 0.15 0.4 0.2 0.25 ))
(( 0.15 0.4 0.2 0.25 )
( 0.2 0.25 0.15 0.4 )))))
((((( 0.2 0.25 0.15 0.4 )
( 0.2 0.25 0.15 0.4 ))
(( 0.2 0.25 0.15 0.4 )
( 0.2 0.25 0.15 0.4 )))
((( 0.2 0.25 0.15 0.4 )
( 0.2 0.25 0.15 0.4 ))
(( 0.2 0.25 0.15 0.4 )
( 0.2 0.25 0.15 0.4 ))))
(((( 0.2 0.25 0.15 0.4 )
( 0.2 0.25 0.15 0.4 ))
(( 0.2 0.25 0.15 0.4 )
( 0.2 0.25 0.15 0.4 )))
((( 0.2 0.25 0.15 0.4 )
( 0.2 0.25 0.15 0.4 ))
(( 0.2 0.25 0.15 0.4 )
( 0.4 0.2 0.25 0.15 ))))))))
(((((((( 0.40000007 0.20000003 0.25 0.14999999 )
( 0.25 0.15 0.4 0.2 ))
(( 0.25 0.15 0.4 0.2 )
( 0.25 0.15 0.4 0.2 )))
((( 0.25 0.15 0.4 0.2 )
( 0.25 0.15 0.4 0.2 ))
(( 0.25 0.15 0.4 0.2 )
( 0.2 0.25 0.15 0.4 ))))
(((( 0.2 0.25 0.15 0.4 )
( 0.2 0.25 0.15 0.4 ))
(( 0.2 0.25 0.15 0.4 )
( 0.2 0.25 0.15 0.4 )))
((( 0.2 0.25 0.15 0.4 )
( 0.2 0.25 0.15 0.4 ))
(( 0.2 0.25 0.15 0.4 )
( 0.2 0.25 0.15 0.4 )))))
((((( 0.2 0.25 0.15 0.4 )
( 0.2 0.25 0.15 0.4 ))
(( 0.2 0.25 0.15 0.4 )
( 0.2 0.25 0.15 0.4 )))
((( 0.2 0.25 0.15 0.4 )
( 0.2 0.25 0.15 0.4 ))
(( 0.2 0.25 0.15 0.4 )
( 0.2 0.25 0.15 0.4 ))))
(((( 0.2 0.25 0.15 0.4 )
( 0.2 0.25 0.15 0.4 ))
(( 0.2 0.25 0.15 0.4 )
( 0.2 0.25 0.15 0.4 )))
((( 0.2 0.25 0.15 0.4 )
( 0.2 0.25 0.15 0.4 ))
(( 0.2 0.25 0.15 0.4 )
( 0.2 0.25 0.15 0.4 ))))))
(((((( 0.2 0.25 0.15 0.4 )
( 0.2 0.25 0.15 0.4 ))
(( 0.2 0.25 0.15 0.4 )
( 0.2 0.25 0.15 0.4 )))
((( 0.25 0.15 0.4 0.2 )
( 0.25 0.15 0.4 0.2 ))
(( 0.25 0.15 0.4 0.2 )
( 0.25 0.15 0.4 0.2 ))))
(((( 0.25 0.15 0.4 0.2 )
( 0.25 0.15 0.4 0.2 ))
(( 0.25 0.15 0.4 0.2 )
( 0.25 0.15 0.4 0.2 )))
((( 0.25 0.15 0.4 0.2 )
( 0.25 0.15 0.4 0.2 ))
(( 0.2 0.25 0.15 0.4 )
( 0.2 0.25 0.15 0.4 )))))
((((( 0.2 0.25 0.15 0.4 )
( 0.2 0.25 0.15 0.4 ))
(( 0.2 0.25 0.15 0.4 )
( 0.2 0.25 0.15 0.4 )))
((( 0.2 0.25 0.15 0.4 )
( 0.2 0.25 0.15 0.4 ))
(( 0.2 0.25 0.15 0.4 )
( 0.2 0.25 0.15 0.4 ))))
(((( 0.2 0.25 0.15 0.4 )
( 0.2 0.25 0.15 0.4 ))
(( 0.2 0.25 0.15 0.4 )
( 0.2 0.25 0.15 0.4 )))
((( 0.2 0.25 0.15 0.4 )
( 0.2 0.25 0.15 0.4 ))
(( 0.4 0.2 0.25 0.15 )
( 0.4 0.2 0.25 0.15 )))))))
((((((( 0.4 0.2 0.25 0.15 )
( 0.4 0.2 0.25 0.15 ))
(( 0.4 0.2 0.25 0.15 )
( 0.4 0.2 0.25 0.15 )))
((( 0.2 0.25 0.15 0.4 )
( 0.2 0.25 0.15 0.4 ))
(( 0.2 0.25 0.15 0.4 )
( 0.2 0.25 0.15 0.4 ))))
(((( 0.2 0.25 0.15 0.4 )
( 0.2 0.25 0.15 0.4 ))
(( 0.2 0.25 0.15 0.4 )
( 0.2 0.25 0.15 0.4 )))
((( 0.2 0.25 0.15 0.4 )
( 0.2 0.25 0.15 0.4 ))
(( 0.2 0.25 0.15 0.4 )
( 0.2 0.25 0.15 0.4 )))))
((((( 0.2 0.25 0.15 0.4 )
( 0.2 0.25 0.15 0.4 ))
(( 0.2 0.25 0.15 0.4 )
( 0.2 0.25 0.15 0.4 )))
((( 0.25 0.15 0.4 0.2 )
( 0.25 0.15 0.4 0.2 ))
(( 0.25 0.15 0.4 0.2 )
( 0.25 0.15 0.4 0.2 ))))
(((( 0.25 0.15 0.4 0.2 )
( 0.25 0.15 0.4 0.2 ))
(( 0.25 0.15 0.4 0.2 )
( 0.25 0.15 0.4 0.2 )))
((( 0.25 0.15 0.4 0.2 )
( 0.25 0.15 0.4 0.2 ))
(( 0.25 0.15 0.4 0.2 )
( 0.25 0.15 0.4 0.2 ))))))
(((((( 0.4 0.2 0.25 0.15 )
( 0.4 0.2 0.25 0.15 ))
(( 0.4 0.2 0.25 0.15 )
( 0.4 0.2 0.25 0.15 )))
((( 0.2 0.25 0.15 0.4 )
( 0.2 0.25 0.15 0.4 ))
(( 0.2 0.25 0.15 0.4 )
( 0.2 0.25 0.15 0.4 ))))
(((( 0.2 0.25 0.15 0.4 )
( 0.2 0.25 0.15 0.4 ))
(( 0.2 0.25 0.15 0.4 )
( 0.2 0.25 0.15 0.4 )))
((( 0.2 0.25 0.15 0.4 )
( 0.2 0.25 0.15 0.4 ))
(( 0.2 0.25 0.15 0.4 )
( 0.2 0.25 0.15 0.4 )))))
((((( 0.2 0.25 0.15 0.4 )
( 0.2 0.25 0.15 0.4 ))
(( 0.2 0.25 0.15 0.4 )
( 0.2 0.25 0.15 0.4 )))
((( 0.25 0.15 0.4 0.2 )
( 0.25 0.15 0.4 0.2 ))
(( 0.25 0.15 0.4 0.2 )
( 0.4 0.2 0.25 0.15 ))))
(((( 0.4 0.2 0.25 0.15 )
( 0.25 0.15 0.4 0.2 ))
(( 0.25 0.15 0.4 0.2 )
( 0.25 0.15 0.4 0.2 )))
((( 0.25 0.15 0.4 0.2 )
( 0.25 0.15 0.4 0.2 ))
(( 0.25 0.15 0.4 0.2 )
( 0.25 0.15 0.4 0.2 ))))))))
(((((((( 0.25 0.15 0.4 0.2 )
( 0.4 0.2 0.25 0.15 ))
(( 0.4 0.2 0.25 0.15 )
( 0.2 0.25 0.15 0.4 )))
((( 0.2 0.25 0.15 0.4 )
( 0.2 0.25 0.15 0.4 ))
(( 0.2 0.25 0.15 0.4 )
( 0.2 0.25 0.15 0.4 ))))
(((( 0.2 0.25 0.15 0.4 )
( 0.2 0.25 0.15 0.4 ))
(( 0.2 0.25 0.15 0.4 )
( 0.2 0.25 0.15 0.4 )))
((( 0.2 0.25 0.15 0.4 )
( 0.2 0.25 0.15 0.4 ))
(( 0.2 0.25 0.15 0.4 )
( 0.2 0.25 0.15 0.4 )))))
((((( 0.2 0.25 0.15 0.4 )
( 0.2 0.25 0.15 0.4 ))
(( 0.25 0.15 0.4 0.2 )
( 0.25 0.15 0.4 0.2 )))
((( 0.25 0.15 0.4 0.2 )
( 0.4 0.2 0.25 0.15 ))
(( 0.4 0.2 0.25 0.15 )
( 0.2 0.25 0.15 0.4 ))))
(((( 0.2 0.25 0.15 0.4 )
( 0.2 0.25 0.15 0.4 ))
(( 0.2 0.25 0.15 0.4 )
( 0.2 0.25 0.15 0.4 )))
((( 0.2 0.25 0.15 0.4 )
( 0.2 0.25 0.15 0.4 ))
(( 0.2 0.25 0.15 0.4 )
( 0.2 0.25 0.15 0.4 ))))))
(((((( 0.2 0.25 0.15 0.4 )
( 0.2 0.25 0.15 0.4 ))
(( 0.2 0.25 0.15 0.4 )
( 0.2 0.25 0.15 0.4 )))
((( 0.2 0.25 0.15 0.4 )
( 0.2 0.25 0.15 0.4 ))
(( 0.2 0.25 0.15 0.4 )
( 0.4 0.2 0.25 0.15 ))))
(((( 0.4 0.2 0.25 0.15 )
( 0.4 0.2 0.25 0.15 ))
(( 0.4 0.2 0.25 0.15 )
( 0.4 0.2 0.25 0.15 )))
((( 0.4 0.2 0.25 0.15 )
( 0.4 0.2 0.25 0.15 ))
(( 0.4 0.2 0.25 0.15 )
( 0.4 0.2 0.25 0.15 )))))
((((( 0.4 0.2 0.25 0.15 )
( 0.4 0.2 0.25 0.15 ))
(( 0.4 0.2 0.25 0.15 )
( 0.2 0.25 0.15 0.4 )))
((( 0.2 0.25 0.15 0.4 )
( 0.2 0.25 0.15 0.4 ))
(( 0.2 0.25 0.15 0.4 )
( 0.2 0.25 0.15 0.4 ))))
(((( 0.2 0.25 0.15 0.4 )
( 0.2 0.25 0.15 0.4 ))
(( 0.2 0.25 0.15 0.4 )
( 0.2 0.25 0.15 0.4 )))
((( 0.2 0.25 0.15 0.4 )
( 0.2 0.25 0.15 0.4 ))
(( 0.2 0.25 0.15 0.4 )
( 0.2 0.25 0.15 0.4 )))))))
((((((( 0.2 0.25 0.15 0.4 )
( 0.2 0.25 0.15 0.4 ))
(( 0.2 0.25 0.15 0.4 )
( 0.15 0.4 0.2 0.25 )))
((( 0.15 0.4 0.2 0.25 )
( 0.15 0.4 0.2 0.25 ))
(( 0.4 0.2 0.25 0.15 )
( 0.4 0.2 0.25 0.15 ))))
(((( 0.4 0.2 0.25 0.15 )
( 0.4 0.2 0.25 0.15 ))
(( 0.4 0.2 0.25 0.15 )
( 0.4 0.2 0.25 0.15 )))
((( 0.4 0.2 0.25 0.15 )
( 0.15 0.4 0.2 0.25 ))
(( 0.15 0.4 0.2 0.25 )
( 0.15 0.4 0.2 0.25 )))))
((((( 0.4 0.2 0.25 0.15 )
( 0.4 0.2 0.25 0.15 ))
(( 0.4 0.2 0.25 0.15 )
( 0.4 0.2 0.25 0.15 )))
((( 0.2 0.25 0.15 0.4 )
( 0.2 0.25 0.15 0.4 ))
(( 0.2 0.25 0.15 0.4 )
( 0.2 0.25 0.15 0.4 ))))
(((( 0.2 0.25 0.15 0.4 )
( 0.2 0.25 0.15 0.4 ))
(( 0.2 0.25 0.15 0.4 )
( 0.2 0.25 0.15 0.4 )))
((( 0.2 0.25 0.15 0.4 )
( 0.2 0.25 0.15 0.4 ))
(( 0.2 0.25 0.15 0.4 )
( 0.2 0.25 0.15 0.4 ))))))
(((((( 0.2 0.25 0.15 0.4 )
( 0.2 0.25 0.15 0.4 ))
(( 0.2 0.25 0.15 0.4 )
( 0.2 0.25 0.15 0.4 )))
((( 0.15 0.4 0.2 0.25 )
( 0.15 0.4 0.2 0.25 ))
(( 0.15 0.4 0.2 0.25 )
( 0.15 0.4 0.2 0.25 ))))
(((( 0.15 0.4 0.2 0.25 )
( 0.15 0.4 0.2 0.25 ))
(( 0.15 0.4 0.2 0.25 )
( 0.15 0.4 0.2 0.25 )))
((( 0.15 0.4 0.2 0.25 )
( 0.15 0.4 0.2 0.25 ))
(( 0.15 0.4 0.2 0.25 )
( 0.15 0.4 0.2 0.25 )))))
((((( 0.15 0.4 0.2 0.25 )
( 0.15 0.4 0.2 0.25 ))
(( 0.15 0.4 0.2 0.25 )
( 0.15 0.4 0.2 0.25 )))
((( 0.15 0.4 0.2 0.25 )
( 0.15 0.4 0.2 0.25 ))
(( 0.15 0.4 0.2 0.25 )
( 0.15 0.4 0.2 0.25 ))))
(((( 0.15 0.4 0.2 0.25 )
( 0.15 0.4 0.2 0.25 ))
(( 0.15 0.4 0.2 0.25 )
( 0.15 0.4 0.2 0.25 )))
((( 0.4 0.2 0.25 0.15 )
( 0.4 0.2 0.25 0.15 ))
(( 0.15 0.4 0.2 0.25 )
( 0.15 0.4 0.2 0.25 ))))))))
(((((((( 0.15 0.4 0.2 0.25 )
( 0.15 0.4 0.2 0.25 ))
(( 0.15 0.4 0.2 0.25 )
( 0.15 0.4 0.2 0.25 )))
((( 0.4 0.2 0.25 0.15 )
( 0.4 0.2 0.25 0.15 ))
(( 0.4 0.2 0.25 0.15 )
( 0.4 0.2 0.25 0.15 ))))
(((( 0.2 0.25 0.15 0.4 )
( 0.2 0.25 0.15 0.4 ))
(( 0.2 0.25 0.15 0.4 )
( 0.2 0.25 0.15 0.4 )))
((( 0.2 0.25 0.15 0.4 )
( 0.2 0.25 0.15 0.4 ))
(( 0.2 0.25 0.15 0.4 )
( 0.2 0.25 0.15 0.4 )))))
((((( 0.2 0.25 0.15 0.4 )
( 0.2 0.25 0.15 0.4 ))
(( 0.2 0.25 0.15 0.4 )
( 0.2 0.25 0.15 0.4 )))
((( 0.2 0.25 0.15 0.4 )
( 0.2 0.25 0.15 0.4 ))
(( 0.2 0.25 0.15 0.4 )
( 0.2 0.25 0.15 0.4 ))))
(((( 0.15 0.4 0.2 0.25 )
( 0.15 0.4 0.2 0.25 ))
(( 0.15 0.4 0.2 0.25 )
( 0.15 0.4 0.2 0.25 )))
((( 0.2 0.25 0.15 0.4 )
( 0.2 0.25 0.15 0.4 ))
(( 0.2 0.25 0.15 0.4 )
( 0.2 0.25 0.15 0.4 ))))))
(((((( 0.2 0.25 0.15 0.4 )
( 0.2 0.25 0.15 0.4 ))
(( 0.2 0.25 0.15 0.4 )
( 0.2 0.25 0.15 0.4 )))
((( 0.2 0.25 0.15 0.4 )
( 0.2 0.25 0.15 0.4 ))
(( 0.2 0.25 0.15 0.4 )
( 0.2 0.25 0.15 0.4 ))))
(((( 0.2 0.25 0.15 0.4 )
( 0.2 0.25 0.15 0.4 ))
(( 0.2 0.25 0.15 0.4 )
( 0.2 0.25 0.15 0.4 )))
((( 0.4 0.2 0.25 0.15 )
( 0.4 0.2 0.25 0.15 ))
(( 0.4 0.2 0.25 0.15 )
( 0.4 0.2 0.25 0.15 )))))
((((( 0.4 0.2 0.25 0.15 )
( 0.4 0.2 0.25 0.15 ))
(( 0.4 0.2 0.25 0.15 )
( 0.4 0.2 0.25 0.15 )))
((( 0.15 0.4 0.2 0.25 )
( 0.15 0.4 0.2 0.25 ))
(( 0.15 0.4 0.2 0.25 )
( 0.15 0.4 0.2 0.25 ))))
(((( 0.4 0.2 0.25 0.15 )
( 0.4 0.2 0.25 0.15 ))
(( 0.4 0.2 0.25 0.15 )
( 0.15 0.4 0.2 0.25 )))
((( 0.15 0.4 0.2 0.25 )
( 0.15 0.4 0.2 0.25 ))
(( 0.15 0.4 0.2 0.25 )
( 0.15 0.4 0.2 0.25 )))))))
((((((( 0.15 0.4 0.2 0.25 )
( 0.4 0.2 0.25 0.15 ))
(( 0.4 0.2 0.25 0.15 )
( 0.4 0.2 0.25 0.15 )))
((( 0.4 0.2 0.25 0.15 )
( 0.4 0.2 0.25 0.15 ))
(( 0.4 0.2 0.25 0.15 )
( 0.4 0.2 0.25 0.15 ))))
(((( 0.2 0.25 0.15 0.4 )
( 0.2 0.25 0.15 0.4 ))
(( 0.2 0.25 0.15 0.4 )
( 0.2 0.25 0.15 0.4 )))
((( 0.2 0.25 0.15 0.4 )
( 0.2 0.25 0.15 0.4 ))
(( 0.2 0.25 0.15 0.4 )
( 0.2 0.25 0.15 0.4 )))))
((((( 0.2 0.25 0.15 0.4 )
( 0.2 0.25 0.15 0.4 ))
(( 0.2 0.25 0.15 0.4 )
( 0.2 0.25 0.15 0.4 )))
((( 0.2 0.25 0.15 0.4 )
( 0.2 0.25 0.15 0.4 ))
(( 0.2 0.25 0.15 0.4 )
( 0.2 0.25 0.15 0.4 ))))
(((( 0.15 0.4 0.2 0.25 )
( 0.15 0.4 0.2 0.25 ))
(( 0.15 0.4 0.2 0.25 )
( 0.15 0.4 0.2 0.25 )))
((( 0.15 0.4 0.2 0.25 )
( 0.15 0.4 0.2 0.25 ))
(( 0.15 0.4 0.2 0.25 )
( 0.15 0.4 0.2 0.25 ))))))
(((((( 0.15 0.4 0.2 0.25 )
( 0.15 0.4 0.2 0.25 ))
(( 0.4 0.2 0.25 0.15 )
( 0.4 0.2 0.25 0.15 )))
((( 0.4 0.2 0.25 0.15 )
( 0.4 0.2 0.25 0.15 ))
(( 0.4 0.2 0.25 0.15 )
( 0.4 0.2 0.25 0.15 ))))
(((( 0.4 0.2 0.25 0.15 )
( 0.4 0.2 0.25 0.15 ))
(( 0.4 0.2 0.25 0.15 )
( 0.4 0.2 0.25 0.15 )))
((( 0.4 0.2 0.25 0.15 )
( 0.4 0.2 0.25 0.15 ))
(( 0.4 0.2 0.25 0.15 )
( 0.4 0.2 0.25 0.15 )))))
((((( 0.2 0.25 0.15 0.4 )
( 0.2 0.25 0.15 0.4 ))
(( 0.2 0.25 0.15 0.4 )
( 0.2 0.25 0.15 0.4 )))
((( 0.2 0.25 0.15 0.4 )
( 0.2 0.25 0.15 0.4 ))
(( 0.2 0.25 0.15 0.4 )
( 0.2 0.25 0.15 0.4 ))))
(((( 0.2 0.25 0.15 0.4 )
( 0.2 0.25 0.15 0.4 ))
(( 0.2 0.25 0.15 0.4 )
( 0.2 0.25 0.15 0.4 )))
((( 0.2 0.25 0.15 0.4 )
( 0.2 0.25 0.15 0.4 ))
(( 0.2 0.25 0.15 0.4 )
( 0.2 0.25 0.15 0.4 ))))))))
(((((((( 0.40000007 0.20000003 0.25 0.14999999 )
( 0.4 0.2 0.25 0.15 ))
(( 0.4 0.2 0.25 0.15 )
( 0.4 0.2 0.25 0.15 )))
((( 0.4 0.2 0.25 0.15 )
( 0.4 0.2 0.25 0.15 ))
(( 0.15 0.4 0.2 0.25 )
( 0.15 0.4 0.2 0.25 ))))
(((( 0.15 0.4 0.2 0.25 )
( 0.15 0.4 0.2 0.25 ))
(( 0.15 0.4 0.2 0.25 )
( 0.15 0.4 0.2 0.25 )))
((( 0.15 0.4 0.2 0.25 )
( 0.15 0.4 0.2 0.25 ))
(( 0.15 0.4 0.2 0.25 )
( 0.15 0.4 0.2 0.25 )))))
((((( 0.4 0.2 0.25 0.15 )
( 0.4 0.2 0.25 0.15 ))
(( 0.4 0.2 0.25 0.15 )
( 0.4 0.2 0.25 0.15 )))
((( 0.4 0.2 0.25 0.15 )
( 0.4 0.2 0.25 0.15 ))
(( 0.4 0.2 0.25 0.15 )
( 0.4 0.2 0.25 0.15 ))))
(((( 0.2 0.25 0.15 0.4 )
( 0.2 0.25 0.15 0.4 ))
(( 0.2 0.25 0.15 0.4 )
( 0.2 0.25 0.15 0.4 )))
((( 0.2 0.25 0.15 0.4 )
( 0.2 0.25 0.15 0.4 ))
(( 0.2 0.25 0.15 0.4 )
( 0.2 0.25 0.15 0.4 ))))))
(((((( 0.2 0.25 0.15 0.4 )
( 0.2 0.25 0.15 0.4 ))
(( 0.2 0.25 0.15 0.4 )
( 0.2 0.25 0.15 0.4 )))
((( 0.2 0.25 0.15 0.4 )
( 0.2 0.25 0.15 0.4 ))
(( 0.2 0.25 0.15 0.4 )
( 0.2 0.25 0.15 0.4 ))))
(((( 0.15 0.4 0.2 0.25 )
( 0.15 0.4 0.2 0.25 ))
(( 0.15 0.4 0.2 0.25 )
( 0.4 0.2 0.25 0.15 )))
((( 0.4 0.2 0.25 0.15 )
( 0.15 0.4 0.2 0.25 ))
(( 0.15 0.4 0.2 0.25 )
( 0.15 0.4 0.2 0.25 )))))
((((( 0.15 0.4 0.2 0.25 )
( 0.4 0.2 0.25 0.15 ))
(( 0.15 0.4 0.2 0.25 )
( 0.15 0.4 0.2 0.25 )))
((( 0.15 0.4 0.2 0.25 )
( 0.15 0.4 0.2 0.25 ))
(( 0.15 0.4 0.2 0.25 )
( 0.15 0.4 0.2 0.25 ))))
(((( 0.15 0.4 0.2 0.25 )
( 0.15 0.4 0.2 0.25 ))
(( 0.15 0.4 0.2 0.25 )
( 0.4 0.2 0.25 0.15 )))
((( 0.4 0.2 0.25 0.15 )
( 0.4 0.2 0.25 0.15 ))
(( 0.4 0.2 0.25 0.15 )
( 0.4 0.2 0.25 0.15 )))))))
((((((( 0.4 0.2 0.25 0.15 )
( 0.4 0.2 0.25 0.15 ))
(( 0.4 0.2 0.25 0.15 )
( 0.4 0.2 0.25 0.15 )))
((( 0.4 0.2 0.25 0.15 )
( 0.4 0.2 0.25 0.15 ))
(( 0.4 0.2 0.25 0.15 )
( 0.4 0.2 0.25 0.15 ))))
(((( 0.15 0.4 0.2 0.25 )
( 0.15 0.4 0.2 0.25 ))
(( 0.15 0.4 0.2 0.25 )
( 0.15 0.4 0.2 0.25 )))
((( 0.15 0.4 0.2 0.25 )
( 0.15 0.4 0.2 0.25 ))
(( 0.15 0.4 0.2 0.25 )
( 0.15 0.4 0.2 0.25 )))))
((((( 0.4 0.2 0.25 0.15 )
( 0.4 0.2 0.25 0.15 ))
(( 0.4 0.2 0.25 0.15 )
( 0.4 0.2 0.25 0.15 )))
((( 0.4 0.2 0.25 0.15 )
( 0.4 0.2 0.25 0.15 ))
(( 0.4 0.2 0.25 0.15 )
( 0.4 0.2 0.25 0.15 ))))
(((( 0.15 0.4 0.2 0.25 )
( 0.15 0.4 0.2 0.25 ))
(( 0.15 0.4 0.2 0.25 )
( 0.15 0.4 0.2 0.25 )))
((( 0.15 0.4 0.2 0.25 )
( 0.15 0.4 0.2 0.25 ))
(( 0.15 0.4 0.2 0.25 )
( 0.15 0.4 0.2 0.25 ))))))
(((((( 0.15 0.4 0.2 0.25 )
( 0.15 0.4 0.2 0.25 ))
(( 0.15 0.4 0.2 0.25 )
( 0.15 0.4 0.2 0.25 )))
((( 0.4 0.2 0.25 0.15 )
( 0.4 0.2 0.25 0.15 ))
(( 0.4 0.2 0.25 0.15 )
( 0.4 0.2 0.25 0.15 ))))
(((( 0.4 0.2 0.25 0.15 )
( 0.4 0.2 0.25 0.15 ))
(( 0.4 0.2 0.25 0.15 )
( 0.4 0.2 0.25 0.15 )))
((( 0.2 0.25 0.15 0.4 )
( 0.2 0.25 0.15 0.4 ))
(( 0.2 0.25 0.15 0.4 )
( 0.2 0.25 0.15 0.4 )))))
((((( 0.2 0.25 0.15 0.4 )
( 0.2 0.25 0.15 0.4 ))
(( 0.2 0.25 0.15 0.4 )
( 0.2 0.25 0.15 0.4 )))
((( 0.2 0.25 0.15 0.4 )
( 0.2 0.25 0.15 0.4 ))
(( 0.2 0.25 0.15 0.4 )
( 0.2 0.25 0.15 0.4 ))))
(((( 0.2 0.25 0.15 0.4 )
( 0.2 0.25 0.15 0.4 ))
(( 0.2 0.25 0.15 0.4 )
( 0.2 0.25 0.15 0.4 )))
((( 0.15 0.4 0.2 0.25 )
( 0.15 0.4 0.2 0.25 ))
(( 0.15 0.4 0.2 0.25 )
( 0.15 0.4 0.2 0.25 ))))))))
(((((((( 0.40000007 0.20000003 0.25 0.14999999 )
( 0.2 0.25 0.15 0.4 ))
(( 0.2 0.25 0.15 0.4 )
( 0.2 0.25 0.15 0.4 )))
((( 0.2 0.25 0.15 0.4 )
( 0.2 0.25 0.15 0.4 ))
(( 0.2 0.25 0.15 0.4 )
( 0.2 0.25 0.15 0.4 ))))
(((( 0.2 0.25 0.15 0.4 )
( 0.2 0.25 0.15 0.4 ))
(( 0.2 0.25 0.15 0.4 )
( 0.2 0.25 0.15 0.4 )))
((( 0.2 0.25 0.15 0.4 )
( 0.2 0.25 0.15 0.4 ))
(( 0.2 0.25 0.15 0.4 )
( 0.2 0.25 0.15 0.4 )))))
((((( 0.2 0.25 0.15 0.4 )
( 0.2 0.25 0.15 0.4 ))
(( 0.2 0.25 0.15 0.4 )
( 0.2 0.25 0.15 0.4 )))
((( 0.2 0.25 0.15 0.4 )
( 0.2 0.25 0.15 0.4 ))
(( 0.2 0.25 0.15 0.4 )
( 0.2 0.25 0.15 0.4 ))))
(((( 0.2 0.25 0.15 0.4 )
( 0.2 0.25 0.15 0.4 ))
(( 0.2 0.25 0.15 0.4 )
( 0.2 0.25 0.15 0.4 )))
((( 0.2 0.25 0.15 0.4 )
( 0.2 0.25 0.15 0.4 ))
(( 0.2 0.25 0.15 0.4 )
( 0.2 0.25 0.15 0.4 ))))))
(((((( 0.2 0.25 0.15 0.4 )
( 0.4 0.2 0.25 0.15 ))
(( 0.4 0.2 0.25 0.15 )
( 0.4 0.2 0.25 0.15 )))
((( 0.4 0.2 0.25 0.15 )
( 0.4 0.2 0.25 0.15 ))
(( 0.4 0.2 0.25 0.15 )
( 0.4 0.2 0.25 0.15 ))))
(((( 0.4 0.2 0.25 0.15 )
( 0.2 0.25 0.15 0.4 ))
(( 0.2 0.25 0.15 0.4 )
( 0.2 0.25 0.15 0.4 )))
((( 0.2 0.25 0.15 0.4 )
( 0.2 0.25 0.15 0.4 ))
(( 0.2 0.25 0.15 0.4 )
( 0.2 0.25 0.15 0.4 )))))
((((( 0.2 0.25 0.15 0.4 )
( 0.2 0.25 0.15 0.4 ))
(( 0.2 0.25 0.15 0.4 )
( 0.2 0.25 0.15 0.4 )))
((( 0.2 0.25 0.15 0.4 )
( 0.2 0.25 0.15 0.4 ))
(( 0.2 0.25 0.15 0.4 )
( 0.2 0.25 0.15 0.4 ))))
(((( 0.2 0.25 0.15 0.4 )
( 0.15 0.4 0.2 0.25 ))
(( 0.15 0.4 0.2 0.25 )
( 0.15 0.4 0.2 0.25 )))
((( 0.4 0.2 0.25 0.15 )
( 0.4 0.2 0.25 0.15 ))
(( 0.4 0.2 0.25 0.15 )
( 0.4 0.2 0.25 0.15 )))))))
((((((( 0.4 0.2 0.25 0.15 )
( 0.4 0.2 0.25 0.15 ))
(( 0.4 0.2 0.25 0.15 )
( 0.4 0.2 0.25 0.15 )))
((( 0.15 0.4 0.2 0.25 )
( 0.15 0.4 0.2 0.25 ))
(( 0.15 0.4 0.2 0.25 )
( 0.15 0.4 0.2 0.25 ))))
(((( 0.15 0.4 0.2 0.25 )
( 0.15 0.4 0.2 0.25 ))
(( 0.15 0.4 0.2 0.25 )
( 0.15 0.4 0.2 0.25 )))
((( 0.15 0.4 0.2 0.25 )
( 0.15 0.4 0.2 0.25 ))
(( 0.15 0.4 0.2 0.25 )
( 0.15 0.4 0.2 0.25 )))))
((((( 0.2 0.25 0.15 0.4 )
( 0.2 0.25 0.15 0.4 ))
(( 0.2 0.25 0.15 0.4 )
( 0.2 0.25 0.15 0.4 )))
((( 0.2 0.25 0.15 0.4 )
( 0.2 0.25 0.15 0.4 ))
(( 0.2 0.25 0.15 0.4 )
( 0.2 0.25 0.15 0.4 ))))
(((( 0.2 0.25 0.15 0.4 )
( 0.2 0.25 0.15 0.4 ))
(( 0.2 0.25 0.15 0.4 )
( 0.2 0.25 0.15 0.4 )))
((( 0.2 0.25 0.15 0.4 )
( 0.2 0.25 0.15 0.4 ))
(( 0.2 0.25 0.15 0.4 )
( 0.2 0.25 0.15 0.4 ))))))
(((((( 0.15 0.4 0.2 0.25 )
( 0.15 0.4 0.2 0.25 ))
(( 0.15 0.4 0.2 0.25 )
( 0.15 0.4 0.2 0.25 )))
((( 0.15 0.4 0.2 0.25 )
( 0.15 0.4 0.2 0.25 ))
(( 0.15 0.4 0.2 0.25 )
( 0.15 0.4 0.2 0.25 ))))
(((( 0.4 0.2 0.25 0.15 )
( 0.4 0.2 0.25 0.15 ))
(( 0.4 0.2 0.25 0.15 )
( 0.4 0.2 0.25 0.15 )))
((( 0.4 0.2 0.25 0.15 )
( 0.4 0.2 0.25 0.15 ))
(( 0.4 0.2 0.25 0.15 )
( 0.4 0.2 0.25 0.15 )))))
((((( 0.15 0.4 0.2 0.25 )
( 0.15 0.4 0.2 0.25 ))
(( 0.15 0.4 0.2 0.25 )
( 0.15 0.4 0.2 0.25 )))
((( 0.15 0.4 0.2 0.25 )
( 0.15 0.4 0.2 0.25 ))
(( 0.15 0.4 0.2 0.25 )
( 0.15 0.4 0.2 0.25 ))))
(((( 0.15 0.4 0.2 0.25 )
( 0.15 0.4 0.2 0.25 ))
(( 0.15 0.4 0.2 0.25 )
( 0.15 0.4 0.2 0.25 )))
((( 0.15 0.4 0.2 0.25 )
( 0.15 0.4 0.2 0.25 ))
(( 0.15 0.4 0.2 0.25 )
( 0.15 0.4 0.2 0.25 ))))))))
(((((((( 0.40000007 0.20000003 0.25 0.14999999 )
( 0.2 0.25 0.15 0.4 ))
(( 0.2 0.25 0.15 0.4 )
( 0.2 0.25 0.15 0.4 )))
((( 0.2 0.25 0.15 0.4 )
( 0.2 0.25 0.15 0.4 ))
(( 0.2 0.25 0.15 0.4 )
( 0.2 0.25 0.15 0.4 ))))
(((( 0.2 0.25 0.15 0.4 )
( 0.2 0.25 0.15 0.4 ))
(( 0.2 0.25 0.15 0.4 )
( 0.2 0.25 0.15 0.4 )))
((( 0.2 0.25 0.15 0.4 )
( 0.2 0.25 0.15 0.4 ))
(( 0.2 0.25 0.15 0.4 )
( 0.2 0.25 0.15 0.4 )))))
((((( 0.2 0.25 0.15 0.4 )
( 0.4 0.2 0.25 0.15 ))
(( 0.4 0.2 0.25 0.15 )
( 0.4 0.2 0.25 0.15 )))
((( 0.4 0.2 0.25 0.15 )
( 0.4 0.2 0.25 0.15 ))
(( 0.4 0.2 0.25 0.15 )
( 0.4 0.2 0.25 0.15 ))))
(((( 0.4 0.2 0.25 0.15 )
( 0.2 0.25 0.15 0.4 ))
(( 0.2 0.25 0.15 0.4 )
( 0.2 0.25 0.15 0.4 )))
((( 0.2 0.25 0.15 0.4 )
( 0.2 0.25 0.15 0.4 ))
(( 0.2 0.25 0.15 0.4 )
( 0.2 0.25 0.15 0.4 ))))))
(((((( 0.2 0.25 0.15 0.4 )
( 0.2 0.25 0.15 0.4 ))
(( 0.2 0.25 0.15 0.4 )
( 0.2 0.25 0.15 0.4 )))
((( 0.2 0.25 0.15 0.4 )
( 0.2 0.25 0.15 0.4 ))
(( 0.2 0.25 0.15 0.4 )
( 0.2 0.25 0.15 0.4 ))))
(((( 0.2 0.25 0.15 0.4 )
( 0.4 0.2 0.25 0.15 ))
(( 0.4 0.2 0.25 0.15 )
( 0.4 0.2 0.25 0.15 )))
((( 0.4 0.2 0.25 0.15 )
( 0.4 0.2 0.25 0.15 ))
(( 0.15 0.4 0.2 0.25 )
( 0.15 0.4 0.2 0.25 )))))
((((( 0.15 0.4 0.2 0.25 )
( 0.15 0.4 0.2 0.25 ))
(( 0.15 0.4 0.2 0.25 )
( 0.15 0.4 0.2 0.25 )))
((( 0.15 0.4 0.2 0.25 )
( 0.15 0.4 0.2 0.25 ))
(( 0.15 0.4 0.2 0.25 )
( 0.15 0.4 0.2 0.25 ))))
(((( 0.4 0.2 0.25 0.15 )
( 0.4 0.2 0.25 0.15 ))
(( 0.4 0.2 0.25 0.15 )
( 0.4 0.2 0.25 0.15 )))
((( 0.4 0.2 0.25 0.15 )
( 0.4 0.2 0.25 0.15 ))
(( 0.4 0.2 0.25 0.15 )
( 0.4 0.2 0.25 0.15 )))))))
((((((( 0.2 0.25 0.15 0.4 )
( 0.2 0.25 0.15 0.4 ))
(( 0.2 0.25 0.15 0.4 )
( 0.2 0.25 0.15 0.4 )))
((( 0.2 0.25 0.15 0.4 )
( 0.2 0.25 0.15 0.4 ))
(( 0.2 0.25 0.15 0.4 )
( 0.2 0.25 0.15 0.4 ))))
(((( 0.2 0.25 0.15 0.4 )
( 0.2 0.25 0.15 0.4 ))
(( 0.2 0.25 0.15 0.4 )
( 0.2 0.25 0.15 0.4 )))
((( 0.2 0.25 0.15 0.4 )
( 0.2 0.25 0.15 0.4 ))
(( 0.2 0.25 0.15 0.4 )
( 0.2 0.25 0.15 0.4 )))))
((((( 0.4 0.2 0.25 0.15 )
( 0.4 0.2 0.25 0.15 ))
(( 0.4 0.2 0.25 0.15 )
( 0.4 0.2 0.25 0.15 )))
((( 0.4 0.2 0.25 0.15 )
( 0.4 0.2 0.25 0.15 ))
(( 0.4 0.2 0.25 0.15 )
( 0.4 0.2 0.25 0.15 ))))
(((( 0.15 0.4 0.2 0.25 )
( 0.15 0.4 0.2 0.25 ))
(( 0.15 0.4 0.2 0.25 )
( 0.15 0.4 0.2 0.25 )))
((( 0.15 0.4 0.2 0.25 )
( 0.15 0.4 0.2 0.25 ))
(( 0.15 0.4 0.2 0.25 )
( 0.15 0.4 0.2 0.25 ))))))
(((((( 0.15 0.4 0.2 0.25 )
( 0.15 0.4 0.2 0.25 ))
(( 0.15 0.4 0.2 0.25 )
( 0.4 0.2 0.25 0.15 )))
((( 0.4 0.2 0.25 0.15 )
( 0.4 0.2 0.25 0.15 ))
(( 0.4 0.2 0.25 0.15 )
( 0.4 0.2 0.25 0.15 ))))
(((( 0.4 0.2 0.25 0.15 )
( 0.4 0.2 0.25 0.15 ))
(( 0.4 0.2 0.25 0.15 )
( 0.15 0.4 0.2 0.25 )))
((( 0.15 0.4 0.2 0.25 )
( 0.15 0.4 0.2 0.25 ))
(( 0.15 0.4 0.2 0.25 )
( 0.15 0.4 0.2 0.25 )))))
((((( 0.15 0.4 0.2 0.25 )
( 0.15 0.4 0.2 0.25 ))
(( 0.15 0.4 0.2 0.25 )
( 0.15 0.4 0.2 0.25 )))
((( 0.4 0.2 0.25 0.15 )
( 0.4 0.2 0.25 0.15 ))
(( 0.4 0.2 0.25 0.15 )
( 0.4 0.2 0.25 0.15 ))))
(((( 0.4 0.2 0.25 0.15 )
( 0.4 0.2 0.25 0.15 ))
(( 0.4 0.2 0.25 0.15 )
( 0.4 0.2 0.25 0.15 )))
((( 0.4 0.2 0.25 0.15 )
( 0.4 0.2 0.25 0.15 ))
(( 0.4 0.2 0.25 0.15 )
( 0.4 0.2 0.25 0.15 )))))))));
}

potential (ranije_bolesti)
{
 data = ( 1.0 0.0 0.0 0.0 0.0 0.0 0.0 0.0 0.0 0.0 0.0 0.0 0.0 0.0 );
}

