net
{
     node_size = (0 0);
     name = "New BN";
     tree = "(C1,C2,C3,C4,C5,C6,C7,C8)";
     UnBBayes_Color_Probabilistic_Description = "-256";
     UnBBayes_Color_Probabilistic_Explanation = "-16711936";
}

node Smoking
{
     label = "C1";
     position = (68 82);
     states = ("Yes" "No");
}

node Alcohol
{
     label = "C2";
     position = (255 54);
     states = ("Yes" "No");
}

node Employed
{
     label = "C3";
     position = (441 51);
     states = ("Employed" "Unemployed");
}

node working_condition
{
     label = "C4";
     position = (566 64);
     states = ("easy" "difficult");
}

node living_place
{
     label = "C5";
     position = (736 52);
     states = ("city" "village");
}

node living_object
{
     label = "C6";
     position = (926 56);
     states = ("flat" "house");
}

node pet
{
     label = "C7";
     position = (1056 54);
     states = ("Yes" "No");
}

node solution
{
     label = "C8";
     position = (237 466);
     states = ("rtg_pluca" "ct_pluca" "ultrazvuk" "krvna_slika");
}

node ranije_bolesti
{
     label = "C1";
     position = (1175 60);
     states = ("acute_bronchitis" "acute_sinusitis" "alergy" "chronic_sinusitis" "common_cold" "copd" "lung_cancer" "pleural_efusion" "pneumonia" "pneumothorax" "smoking_addiction" "otitis_media" "seasonal_allergies" "flu" "none");
}

potential (Smoking)
{
 data = ( 0.15 0.85 );
}

potential (Alcohol)
{
 data = ( 0.25 0.75 );
}

potential (Employed)
{
 data = ( 0.5 0.5 );
}

potential (working_condition)
{
 data = ( 0.5 0.5 );
}

potential (living_place)
{
 data = ( 0.55 0.45 );
}

potential (living_object)
{
 data = ( 0.5 0.5 );
}

potential (pet)
{
 data = ( 0.5 0.5 );
}

potential (solution | ranije_bolesti pet living_object living_place Employed working_condition Alcohol Smoking)
{
 data = ((((((((( 0.29642862 0.23928574 0.22500002 0.23928574 )
( 0.23928574 0.25714287 0.21785717 0.28571433 ))
(( 0.24285717 0.2464286 0.21428575 0.29642862 )
( 0.20714286 0.27500004 0.2071429 0.31071427 )))
((( 0.2357143 0.23928574 0.26428574 0.26071432 )
( 0.23214288 0.25000003 0.26785716 0.25000003 ))
(( 0.21071431 0.2714286 0.2464286 0.27142859 )
( 0.20714287 0.27857146 0.22857144 0.2857143 ))))
(((( 0.19642858 0.2714286 0.21785715 0.3142857 )
( 0.19642858 0.2714286 0.21785715 0.3142857 ))
(( 0.19642858 0.2714286 0.21785715 0.3142857 )
( 0.19642858 0.2714286 0.21785715 0.3142857 )))
((( 0.20000002 0.26071432 0.21428572 0.32500002 )
( 0.20000002 0.26071432 0.21428572 0.32500002 ))
(( 0.19285716 0.27857146 0.2 0.32857147 )
( 0.19285716 0.27857146 0.2 0.32857147 )))))
((((( 0.21071433 0.26428574 0.20357144 0.32142857 )
( 0.21785717 0.27500004 0.175 0.3321429 ))
(( 0.22500002 0.25714287 0.18928573 0.32857147 )
( 0.22500002 0.25714287 0.18928573 0.32857147 )))
((( 0.2321429 0.23571429 0.18214287 0.35000005 )
( 0.24285717 0.23928571 0.17142858 0.3464286 ))
(( 0.25714287 0.2357143 0.17857145 0.32857147 )
( 0.24285719 0.23928571 0.17142858 0.3464286 ))))
(((( 0.22500002 0.25714287 0.18928574 0.32857147 )
( 0.21428573 0.25357145 0.20000002 0.33214286 ))
(( 0.21785715 0.2464286 0.21785715 0.31785718 )
( 0.20357145 0.25000003 0.21071431 0.3357143 )))
((( 0.21071431 0.23571432 0.2464286 0.30714288 )
( 0.21071431 0.23571432 0.2464286 0.30714288 ))
(( 0.20714287 0.24285719 0.22857144 0.32142857 )
( 0.20714287 0.24285719 0.22857144 0.32142857 ))))))
(((((( 0.21071431 0.2321429 0.22500001 0.33214283 )
( 0.22500002 0.22857144 0.23214288 0.3142857 ))
(( 0.22500002 0.22857144 0.23214288 0.3142857 )
( 0.22500002 0.22857144 0.23214288 0.3142857 )))
((( 0.22500001 0.22857144 0.23214288 0.3142857 )
( 0.21071431 0.26428574 0.20357144 0.32142857 ))
(( 0.21071431 0.26428574 0.20357144 0.32142857 )
( 0.22500002 0.2607143 0.2107143 0.30357143 ))))
(((( 0.22857144 0.25 0.20714287 0.31428573 )
( 0.22857144 0.25 0.20714287 0.31428573 ))
(( 0.23214288 0.23928572 0.20357144 0.32500002 )
( 0.26428574 0.22142859 0.21428575 0.3 )))
((( 0.27857146 0.21785715 0.2214286 0.2821429 )
( 0.26428574 0.22500002 0.23571432 0.27500004 ))
(( 0.24285717 0.2464286 0.21428575 0.2964286 )
( 0.24285717 0.2464286 0.21428575 0.2964286 )))))
((((( 0.23571432 0.26785716 0.2214286 0.275 )
( 0.25357145 0.25357145 0.22500002 0.26785716 ))
(( 0.23928574 0.26071432 0.23928574 0.2607143 )
( 0.21785717 0.2821429 0.21785715 0.28214288 )))
((( 0.18571432 0.3 0.20714286 0.30714288 )
( 0.18571432 0.3 0.20714286 0.30714288 ))
(( 0.18214288 0.30714288 0.18928573 0.3214286 )
( 0.18214288 0.30714288 0.18928573 0.3214286 ))))
(((( 0.2321429 0.27500004 0.20357144 0.28928572 )
( 0.22857146 0.2857143 0.20714286 0.27857143 ))
(( 0.22857146 0.2857143 0.20714286 0.27857143 )
( 0.22857146 0.2857143 0.20714286 0.27857143 )))
((( 0.25000003 0.2607143 0.20714287 0.28214288 )
( 0.25000003 0.2607143 0.20714287 0.28214288 ))
(( 0.26785716 0.2464286 0.21071433 0.275 )
( 0.26785716 0.2464286 0.21071433 0.275 )))))))
((((((( 0.25357145 0.25000003 0.20357145 0.29285717 )
( 0.2714286 0.2357143 0.20714287 0.2857143 ))
(( 0.2714286 0.2357143 0.20714287 0.2857143 )
( 0.26785716 0.2464286 0.21071433 0.27500004 )))
((( 0.24285717 0.25000003 0.23571432 0.27142859 )
( 0.23214288 0.24642861 0.24642861 0.275 ))
(( 0.25714287 0.2178572 0.28571433 0.23928572 )
( 0.25714287 0.2178572 0.28571433 0.23928572 ))))
(((( 0.21785715 0.25357148 0.26071432 0.26785716 )
( 0.21785715 0.25357148 0.26071432 0.26785716 ))
(( 0.21785715 0.25357148 0.26071432 0.26785716 )
( 0.22857143 0.2571429 0.25000003 0.26428574 )))
((( 0.22857143 0.2571429 0.25000003 0.26428574 )
( 0.21071431 0.2714286 0.2464286 0.2714286 ))
(( 0.20000002 0.26785716 0.25714287 0.27500004 )
( 0.20000002 0.26785716 0.25714287 0.27500004 )))))
((((( 0.25357145 0.22500004 0.26785716 0.25357145 )
( 0.24285717 0.25000003 0.2357143 0.27142859 ))
(( 0.24285717 0.25000003 0.2357143 0.27142859 )
( 0.23928574 0.25714287 0.21785715 0.2857143 )))
((( 0.2464286 0.2357143 0.21071431 0.3071429 )
( 0.25000003 0.22500001 0.20714287 0.31785718 ))
(( 0.25000003 0.22500001 0.20714287 0.31785718 )
( 0.25357145 0.21785715 0.22500004 0.30357146 ))))
(((( 0.21428573 0.25714287 0.2214286 0.30714288 )
( 0.21071431 0.26785716 0.22500002 0.2964286 ))
(( 0.21428573 0.26071432 0.24285717 0.28214288 )
( 0.21785715 0.25357145 0.26071432 0.26785716 )))
((( 0.20714286 0.25000003 0.27142859 0.27142859 )
( 0.20714286 0.25000003 0.27142859 0.2714286 ))
(( 0.21071431 0.23928574 0.26785716 0.2821429 )
( 0.21071431 0.23928574 0.26785716 0.2821429 ))))))
(((((( 0.21071431 0.2714286 0.2464286 0.2714286 )
( 0.21071431 0.2714286 0.2464286 0.2714286 ))
(( 0.22857144 0.25714287 0.25000003 0.26428574 )
( 0.24642858 0.24285719 0.25357145 0.25714287 )))
((( 0.24642858 0.24285717 0.25357145 0.25714287 )
( 0.24642858 0.24285717 0.25357145 0.25714287 ))
(( 0.24642858 0.24285717 0.25357145 0.25714287 )
( 0.24285714 0.25000003 0.2357143 0.27142859 ))))
(((( 0.25714287 0.24285714 0.2214286 0.27857146 )
( 0.25357145 0.25 0.20357145 0.29285717 ))
(( 0.25357145 0.24642856 0.18214287 0.31785718 )
( 0.2357143 0.2607143 0.17857145 0.32500002 )))
((( 0.23214288 0.27142856 0.18214288 0.31428576 )
( 0.23214288 0.27142856 0.18214288 0.31428576 ))
(( 0.2357143 0.2642857 0.20000003 0.3 )
( 0.23571432 0.2642857 0.20000003 0.3 )))))
((((( 0.21428572 0.26071432 0.24285717 0.28214288 )
( 0.20000002 0.26428574 0.2357143 0.29999998 ))
(( 0.20357145 0.25714287 0.25357145 0.28571433 )
( 0.20357145 0.25714287 0.25357145 0.28571433 )))
((( 0.22500001 0.23571432 0.27500004 0.26428574 )
( 0.22500001 0.23571432 0.27500004 0.26428574 ))
(( 0.22500001 0.23571432 0.27500004 0.26428574 )
( 0.23571429 0.23928574 0.26428574 0.26071432 ))))
(((( 0.23571429 0.23928574 0.26428574 0.26071432 )
( 0.22500001 0.23571432 0.27500004 0.26428574 ))
(( 0.22500001 0.23571432 0.27500004 0.26428574 )
( 0.22142859 0.24285717 0.25714287 0.27857146 )))
((( 0.23928572 0.22857144 0.26071432 0.2714286 )
( 0.21785717 0.27857143 0.19642858 0.30714288 ))
(( 0.20000003 0.29285717 0.19285716 0.31428576 )
( 0.21071431 0.3 0.20357145 0.28571433 ))))))))
(((((((( 0.29642862 0.23928574 0.22500002 0.23928574 )
( 0.23928574 0.25714287 0.21785717 0.28571433 ))
(( 0.24285717 0.2464286 0.21428575 0.29642862 )
( 0.20714286 0.27500004 0.2071429 0.31071427 )))
((( 0.2357143 0.23928574 0.26428574 0.26071432 )
( 0.23214288 0.25000003 0.26785716 0.25000003 ))
(( 0.21071431 0.2714286 0.2464286 0.27142859 )
( 0.20714287 0.27857146 0.22857144 0.2857143 ))))
(((( 0.19642858 0.2714286 0.21785715 0.3142857 )
( 0.19642858 0.2714286 0.21785715 0.3142857 ))
(( 0.19642858 0.2714286 0.21785715 0.3142857 )
( 0.19642858 0.2714286 0.21785715 0.3142857 )))
((( 0.20000002 0.26071432 0.21428572 0.32500002 )
( 0.20000002 0.26071432 0.21428572 0.32500002 ))
(( 0.19285716 0.27857146 0.2 0.32857147 )
( 0.19285716 0.27857146 0.2 0.32857147 )))))
((((( 0.21071433 0.26428574 0.20357144 0.32142857 )
( 0.21785717 0.27500004 0.175 0.3321429 ))
(( 0.22500002 0.25714287 0.18928573 0.32857147 )
( 0.22500002 0.25714287 0.18928573 0.32857147 )))
((( 0.2321429 0.23571429 0.18214287 0.35000005 )
( 0.24285717 0.23928571 0.17142858 0.3464286 ))
(( 0.25714287 0.2357143 0.17857145 0.32857147 )
( 0.24285719 0.23928571 0.17142858 0.3464286 ))))
(((( 0.22500002 0.25714287 0.18928574 0.32857147 )
( 0.21428573 0.25357145 0.20000002 0.33214286 ))
(( 0.21785715 0.2464286 0.21785715 0.31785718 )
( 0.20357145 0.25000003 0.21071431 0.3357143 )))
((( 0.21071431 0.23571432 0.2464286 0.30714288 )
( 0.21071431 0.23571432 0.2464286 0.30714288 ))
(( 0.20714287 0.24285719 0.22857144 0.32142857 )
( 0.20714287 0.24285719 0.22857144 0.32142857 ))))))
(((((( 0.21071431 0.2321429 0.22500001 0.33214283 )
( 0.22500002 0.22857144 0.23214288 0.3142857 ))
(( 0.22500002 0.22857144 0.23214288 0.3142857 )
( 0.22500002 0.22857144 0.23214288 0.3142857 )))
((( 0.22500001 0.22857144 0.23214288 0.3142857 )
( 0.21071431 0.26428574 0.20357144 0.32142857 ))
(( 0.21071431 0.26428574 0.20357144 0.32142857 )
( 0.22500002 0.2607143 0.2107143 0.30357143 ))))
(((( 0.22857144 0.25 0.20714287 0.31428573 )
( 0.22857144 0.25 0.20714287 0.31428573 ))
(( 0.23214288 0.23928572 0.20357144 0.32500002 )
( 0.26428574 0.22142859 0.21428575 0.3 )))
((( 0.27857146 0.21785715 0.2214286 0.2821429 )
( 0.26428574 0.22500002 0.23571432 0.27500004 ))
(( 0.24285717 0.2464286 0.21428575 0.2964286 )
( 0.24285717 0.2464286 0.21428575 0.2964286 )))))
((((( 0.23571432 0.26785716 0.2214286 0.275 )
( 0.25357145 0.25357145 0.22500002 0.26785716 ))
(( 0.23928574 0.26071432 0.23928574 0.2607143 )
( 0.21785717 0.2821429 0.21785715 0.28214288 )))
((( 0.18571432 0.3 0.20714286 0.30714288 )
( 0.18571432 0.3 0.20714286 0.30714288 ))
(( 0.18214288 0.30714288 0.18928573 0.3214286 )
( 0.18214288 0.30714288 0.18928573 0.3214286 ))))
(((( 0.2321429 0.27500004 0.20357144 0.28928572 )
( 0.22857146 0.2857143 0.20714286 0.27857143 ))
(( 0.22857146 0.2857143 0.20714286 0.27857143 )
( 0.22857146 0.2857143 0.20714286 0.27857143 )))
((( 0.25000003 0.2607143 0.20714287 0.28214288 )
( 0.25000003 0.2607143 0.20714287 0.28214288 ))
(( 0.26785716 0.2464286 0.21071433 0.275 )
( 0.26785716 0.2464286 0.21071433 0.275 )))))))
((((((( 0.25357145 0.25000003 0.20357145 0.29285717 )
( 0.2714286 0.2357143 0.20714287 0.2857143 ))
(( 0.2714286 0.2357143 0.20714287 0.2857143 )
( 0.26785716 0.2464286 0.21071433 0.27500004 )))
((( 0.24285717 0.25000003 0.23571432 0.27142859 )
( 0.23214288 0.24642861 0.24642861 0.275 ))
(( 0.25714287 0.2178572 0.28571433 0.23928572 )
( 0.25714287 0.2178572 0.28571433 0.23928572 ))))
(((( 0.21785715 0.25357148 0.26071432 0.26785716 )
( 0.21785715 0.25357148 0.26071432 0.26785716 ))
(( 0.21785715 0.25357148 0.26071432 0.26785716 )
( 0.22857143 0.2571429 0.25000003 0.26428574 )))
((( 0.22857143 0.2571429 0.25000003 0.26428574 )
( 0.21071431 0.2714286 0.2464286 0.2714286 ))
(( 0.20000002 0.26785716 0.25714287 0.27500004 )
( 0.20000002 0.26785716 0.25714287 0.27500004 )))))
((((( 0.25357145 0.22500004 0.26785716 0.25357145 )
( 0.24285717 0.25000003 0.2357143 0.27142859 ))
(( 0.24285717 0.25000003 0.2357143 0.27142859 )
( 0.23928574 0.25714287 0.21785715 0.2857143 )))
((( 0.2464286 0.2357143 0.21071431 0.3071429 )
( 0.25000003 0.22500001 0.20714287 0.31785718 ))
(( 0.25000003 0.22500001 0.20714287 0.31785718 )
( 0.25357145 0.21785715 0.22500004 0.30357146 ))))
(((( 0.21428573 0.25714287 0.2214286 0.30714288 )
( 0.21071431 0.26785716 0.22500002 0.2964286 ))
(( 0.21428573 0.26071432 0.24285717 0.28214288 )
( 0.21785715 0.25357145 0.26071432 0.26785716 )))
((( 0.20714286 0.25000003 0.27142859 0.27142859 )
( 0.20714286 0.25000003 0.27142859 0.2714286 ))
(( 0.21071431 0.23928574 0.26785716 0.2821429 )
( 0.21071431 0.23928574 0.26785716 0.2821429 ))))))
(((((( 0.21071431 0.2714286 0.2464286 0.2714286 )
( 0.21071431 0.2714286 0.2464286 0.2714286 ))
(( 0.22857144 0.25714287 0.25000003 0.26428574 )
( 0.24642858 0.24285719 0.25357145 0.25714287 )))
((( 0.24642858 0.24285717 0.25357145 0.25714287 )
( 0.24642858 0.24285717 0.25357145 0.25714287 ))
(( 0.24642858 0.24285717 0.25357145 0.25714287 )
( 0.24285714 0.25000003 0.2357143 0.27142859 ))))
(((( 0.25714287 0.24285714 0.2214286 0.27857146 )
( 0.25357145 0.25 0.20357145 0.29285717 ))
(( 0.25357145 0.24642856 0.18214287 0.31785718 )
( 0.2357143 0.2607143 0.17857145 0.32500002 )))
((( 0.23214288 0.27142856 0.18214288 0.31428576 )
( 0.23214288 0.27142856 0.18214288 0.31428576 ))
(( 0.2357143 0.2642857 0.20000003 0.3 )
( 0.23571432 0.2642857 0.20000003 0.3 )))))
((((( 0.21428572 0.26071432 0.24285717 0.28214288 )
( 0.20000002 0.26428574 0.2357143 0.29999998 ))
(( 0.20357145 0.25714287 0.25357145 0.28571433 )
( 0.20357145 0.25714287 0.25357145 0.28571433 )))
((( 0.22500001 0.23571432 0.27500004 0.26428574 )
( 0.22500001 0.23571432 0.27500004 0.26428574 ))
(( 0.22500001 0.23571432 0.27500004 0.26428574 )
( 0.23571429 0.23928574 0.26428574 0.26071432 ))))
(((( 0.23571429 0.23928574 0.26428574 0.26071432 )
( 0.22500001 0.23571432 0.27500004 0.26428574 ))
(( 0.22500001 0.23571432 0.27500004 0.26428574 )
( 0.22142859 0.24285717 0.25714287 0.27857146 )))
((( 0.23928572 0.22857144 0.26071432 0.2714286 )
( 0.21785717 0.27857143 0.19642858 0.30714288 ))
(( 0.20000003 0.29285717 0.19285716 0.31428576 )
( 0.21071431 0.3 0.20357145 0.28571433 ))))))))
(((((((( 0.29642862 0.23928574 0.22500002 0.23928574 )
( 0.23928574 0.25714287 0.21785717 0.28571433 ))
(( 0.24285717 0.2464286 0.21428575 0.29642862 )
( 0.20714286 0.27500004 0.2071429 0.31071427 )))
((( 0.2357143 0.23928574 0.26428574 0.26071432 )
( 0.23214288 0.25000003 0.26785716 0.25000003 ))
(( 0.21071431 0.2714286 0.2464286 0.27142859 )
( 0.20714287 0.27857146 0.22857144 0.2857143 ))))
(((( 0.19642858 0.2714286 0.21785715 0.3142857 )
( 0.19642858 0.2714286 0.21785715 0.3142857 ))
(( 0.19642858 0.2714286 0.21785715 0.3142857 )
( 0.19642858 0.2714286 0.21785715 0.3142857 )))
((( 0.20000002 0.26071432 0.21428572 0.32500002 )
( 0.20000002 0.26071432 0.21428572 0.32500002 ))
(( 0.19285716 0.27857146 0.2 0.32857147 )
( 0.19285716 0.27857146 0.2 0.32857147 )))))
((((( 0.21071433 0.26428574 0.20357144 0.32142857 )
( 0.21785717 0.27500004 0.175 0.3321429 ))
(( 0.22500002 0.25714287 0.18928573 0.32857147 )
( 0.22500002 0.25714287 0.18928573 0.32857147 )))
((( 0.2321429 0.23571429 0.18214287 0.35000005 )
( 0.24285717 0.23928571 0.17142858 0.3464286 ))
(( 0.25714287 0.2357143 0.17857145 0.32857147 )
( 0.24285719 0.23928571 0.17142858 0.3464286 ))))
(((( 0.22500002 0.25714287 0.18928574 0.32857147 )
( 0.21428573 0.25357145 0.20000002 0.33214286 ))
(( 0.21785715 0.2464286 0.21785715 0.31785718 )
( 0.20357145 0.25000003 0.21071431 0.3357143 )))
((( 0.21071431 0.23571432 0.2464286 0.30714288 )
( 0.21071431 0.23571432 0.2464286 0.30714288 ))
(( 0.20714287 0.24285719 0.22857144 0.32142857 )
( 0.20714287 0.24285719 0.22857144 0.32142857 ))))))
(((((( 0.21071431 0.2321429 0.22500001 0.33214283 )
( 0.22500002 0.22857144 0.23214288 0.3142857 ))
(( 0.22500002 0.22857144 0.23214288 0.3142857 )
( 0.22500002 0.22857144 0.23214288 0.3142857 )))
((( 0.22500001 0.22857144 0.23214288 0.3142857 )
( 0.21071431 0.26428574 0.20357144 0.32142857 ))
(( 0.21071431 0.26428574 0.20357144 0.32142857 )
( 0.22500002 0.2607143 0.2107143 0.30357143 ))))
(((( 0.22857144 0.25 0.20714287 0.31428573 )
( 0.22857144 0.25 0.20714287 0.31428573 ))
(( 0.23214288 0.23928572 0.20357144 0.32500002 )
( 0.26428574 0.22142859 0.21428575 0.3 )))
((( 0.27857146 0.21785715 0.2214286 0.2821429 )
( 0.26428574 0.22500002 0.23571432 0.27500004 ))
(( 0.24285717 0.2464286 0.21428575 0.2964286 )
( 0.24285717 0.2464286 0.21428575 0.2964286 )))))
((((( 0.23571432 0.26785716 0.2214286 0.275 )
( 0.25357145 0.25357145 0.22500002 0.26785716 ))
(( 0.23928574 0.26071432 0.23928574 0.2607143 )
( 0.21785717 0.2821429 0.21785715 0.28214288 )))
((( 0.18571432 0.3 0.20714286 0.30714288 )
( 0.18571432 0.3 0.20714286 0.30714288 ))
(( 0.18214288 0.30714288 0.18928573 0.3214286 )
( 0.18214288 0.30714288 0.18928573 0.3214286 ))))
(((( 0.2321429 0.27500004 0.20357144 0.28928572 )
( 0.22857146 0.2857143 0.20714286 0.27857143 ))
(( 0.22857146 0.2857143 0.20714286 0.27857143 )
( 0.22857146 0.2857143 0.20714286 0.27857143 )))
((( 0.25000003 0.2607143 0.20714287 0.28214288 )
( 0.25000003 0.2607143 0.20714287 0.28214288 ))
(( 0.26785716 0.2464286 0.21071433 0.275 )
( 0.26785716 0.2464286 0.21071433 0.275 )))))))
((((((( 0.25357145 0.25000003 0.20357145 0.29285717 )
( 0.2714286 0.2357143 0.20714287 0.2857143 ))
(( 0.2714286 0.2357143 0.20714287 0.2857143 )
( 0.26785716 0.2464286 0.21071433 0.27500004 )))
((( 0.24285717 0.25000003 0.23571432 0.27142859 )
( 0.23214288 0.24642861 0.24642861 0.275 ))
(( 0.25714287 0.2178572 0.28571433 0.23928572 )
( 0.25714287 0.2178572 0.28571433 0.23928572 ))))
(((( 0.21785715 0.25357148 0.26071432 0.26785716 )
( 0.21785715 0.25357148 0.26071432 0.26785716 ))
(( 0.21785715 0.25357148 0.26071432 0.26785716 )
( 0.22857143 0.2571429 0.25000003 0.26428574 )))
((( 0.22857143 0.2571429 0.25000003 0.26428574 )
( 0.21071431 0.2714286 0.2464286 0.2714286 ))
(( 0.20000002 0.26785716 0.25714287 0.27500004 )
( 0.20000002 0.26785716 0.25714287 0.27500004 )))))
((((( 0.25357145 0.22500004 0.26785716 0.25357145 )
( 0.24285717 0.25000003 0.2357143 0.27142859 ))
(( 0.24285717 0.25000003 0.2357143 0.27142859 )
( 0.23928574 0.25714287 0.21785715 0.2857143 )))
((( 0.2464286 0.2357143 0.21071431 0.3071429 )
( 0.25000003 0.22500001 0.20714287 0.31785718 ))
(( 0.25000003 0.22500001 0.20714287 0.31785718 )
( 0.25357145 0.21785715 0.22500004 0.30357146 ))))
(((( 0.21428573 0.25714287 0.2214286 0.30714288 )
( 0.21071431 0.26785716 0.22500002 0.2964286 ))
(( 0.21428573 0.26071432 0.24285717 0.28214288 )
( 0.21785715 0.25357145 0.26071432 0.26785716 )))
((( 0.20714286 0.25000003 0.27142859 0.27142859 )
( 0.20714286 0.25000003 0.27142859 0.2714286 ))
(( 0.21071431 0.23928574 0.26785716 0.2821429 )
( 0.21071431 0.23928574 0.26785716 0.2821429 ))))))
(((((( 0.21071431 0.2714286 0.2464286 0.2714286 )
( 0.21071431 0.2714286 0.2464286 0.2714286 ))
(( 0.22857144 0.25714287 0.25000003 0.26428574 )
( 0.24642858 0.24285719 0.25357145 0.25714287 )))
((( 0.24642858 0.24285717 0.25357145 0.25714287 )
( 0.24642858 0.24285717 0.25357145 0.25714287 ))
(( 0.24642858 0.24285717 0.25357145 0.25714287 )
( 0.24285714 0.25000003 0.2357143 0.27142859 ))))
(((( 0.25714287 0.24285714 0.2214286 0.27857146 )
( 0.25357145 0.25 0.20357145 0.29285717 ))
(( 0.25357145 0.24642856 0.18214287 0.31785718 )
( 0.2357143 0.2607143 0.17857145 0.32500002 )))
((( 0.23214288 0.27142856 0.18214288 0.31428576 )
( 0.23214288 0.27142856 0.18214288 0.31428576 ))
(( 0.2357143 0.2642857 0.20000003 0.3 )
( 0.23571432 0.2642857 0.20000003 0.3 )))))
((((( 0.21428572 0.26071432 0.24285717 0.28214288 )
( 0.20000002 0.26428574 0.2357143 0.29999998 ))
(( 0.20357145 0.25714287 0.25357145 0.28571433 )
( 0.20357145 0.25714287 0.25357145 0.28571433 )))
((( 0.22500001 0.23571432 0.27500004 0.26428574 )
( 0.22500001 0.23571432 0.27500004 0.26428574 ))
(( 0.22500001 0.23571432 0.27500004 0.26428574 )
( 0.23571429 0.23928574 0.26428574 0.26071432 ))))
(((( 0.23571429 0.23928574 0.26428574 0.26071432 )
( 0.22500001 0.23571432 0.27500004 0.26428574 ))
(( 0.22500001 0.23571432 0.27500004 0.26428574 )
( 0.22142859 0.24285717 0.25714287 0.27857146 )))
((( 0.23928572 0.22857144 0.26071432 0.2714286 )
( 0.21785717 0.27857143 0.19642858 0.30714288 ))
(( 0.20000003 0.29285717 0.19285716 0.31428576 )
( 0.21071431 0.3 0.20357145 0.28571433 ))))))))
(((((((( 0.29642862 0.23928574 0.22500002 0.23928574 )
( 0.23928574 0.25714287 0.21785717 0.28571433 ))
(( 0.24285717 0.2464286 0.21428575 0.29642862 )
( 0.20714286 0.27500004 0.2071429 0.31071427 )))
((( 0.2357143 0.23928574 0.26428574 0.26071432 )
( 0.23214288 0.25000003 0.26785716 0.25000003 ))
(( 0.21071431 0.2714286 0.2464286 0.27142859 )
( 0.20714287 0.27857146 0.22857144 0.2857143 ))))
(((( 0.19642858 0.2714286 0.21785715 0.3142857 )
( 0.19642858 0.2714286 0.21785715 0.3142857 ))
(( 0.19642858 0.2714286 0.21785715 0.3142857 )
( 0.19642858 0.2714286 0.21785715 0.3142857 )))
((( 0.20000002 0.26071432 0.21428572 0.32500002 )
( 0.20000002 0.26071432 0.21428572 0.32500002 ))
(( 0.19285716 0.27857146 0.2 0.32857147 )
( 0.19285716 0.27857146 0.2 0.32857147 )))))
((((( 0.21071433 0.26428574 0.20357144 0.32142857 )
( 0.21785717 0.27500004 0.175 0.3321429 ))
(( 0.22500002 0.25714287 0.18928573 0.32857147 )
( 0.22500002 0.25714287 0.18928573 0.32857147 )))
((( 0.2321429 0.23571429 0.18214287 0.35000005 )
( 0.24285717 0.23928571 0.17142858 0.3464286 ))
(( 0.25714287 0.2357143 0.17857145 0.32857147 )
( 0.24285719 0.23928571 0.17142858 0.3464286 ))))
(((( 0.22500002 0.25714287 0.18928574 0.32857147 )
( 0.21428573 0.25357145 0.20000002 0.33214286 ))
(( 0.21785715 0.2464286 0.21785715 0.31785718 )
( 0.20357145 0.25000003 0.21071431 0.3357143 )))
((( 0.21071431 0.23571432 0.2464286 0.30714288 )
( 0.21071431 0.23571432 0.2464286 0.30714288 ))
(( 0.20714287 0.24285719 0.22857144 0.32142857 )
( 0.20714287 0.24285719 0.22857144 0.32142857 ))))))
(((((( 0.21071431 0.2321429 0.22500001 0.33214283 )
( 0.22500002 0.22857144 0.23214288 0.3142857 ))
(( 0.22500002 0.22857144 0.23214288 0.3142857 )
( 0.22500002 0.22857144 0.23214288 0.3142857 )))
((( 0.22500001 0.22857144 0.23214288 0.3142857 )
( 0.21071431 0.26428574 0.20357144 0.32142857 ))
(( 0.21071431 0.26428574 0.20357144 0.32142857 )
( 0.22500002 0.2607143 0.2107143 0.30357143 ))))
(((( 0.22857144 0.25 0.20714287 0.31428573 )
( 0.22857144 0.25 0.20714287 0.31428573 ))
(( 0.23214288 0.23928572 0.20357144 0.32500002 )
( 0.26428574 0.22142859 0.21428575 0.3 )))
((( 0.27857146 0.21785715 0.2214286 0.2821429 )
( 0.26428574 0.22500002 0.23571432 0.27500004 ))
(( 0.24285717 0.2464286 0.21428575 0.2964286 )
( 0.24285717 0.2464286 0.21428575 0.2964286 )))))
((((( 0.23571432 0.26785716 0.2214286 0.275 )
( 0.25357145 0.25357145 0.22500002 0.26785716 ))
(( 0.23928574 0.26071432 0.23928574 0.2607143 )
( 0.21785717 0.2821429 0.21785715 0.28214288 )))
((( 0.18571432 0.3 0.20714286 0.30714288 )
( 0.18571432 0.3 0.20714286 0.30714288 ))
(( 0.18214288 0.30714288 0.18928573 0.3214286 )
( 0.18214288 0.30714288 0.18928573 0.3214286 ))))
(((( 0.2321429 0.27500004 0.20357144 0.28928572 )
( 0.22857146 0.2857143 0.20714286 0.27857143 ))
(( 0.22857146 0.2857143 0.20714286 0.27857143 )
( 0.22857146 0.2857143 0.20714286 0.27857143 )))
((( 0.25000003 0.2607143 0.20714287 0.28214288 )
( 0.25000003 0.2607143 0.20714287 0.28214288 ))
(( 0.26785716 0.2464286 0.21071433 0.275 )
( 0.26785716 0.2464286 0.21071433 0.275 )))))))
((((((( 0.25357145 0.25000003 0.20357145 0.29285717 )
( 0.2714286 0.2357143 0.20714287 0.2857143 ))
(( 0.2714286 0.2357143 0.20714287 0.2857143 )
( 0.26785716 0.2464286 0.21071433 0.27500004 )))
((( 0.24285717 0.25000003 0.23571432 0.27142859 )
( 0.23214288 0.24642861 0.24642861 0.275 ))
(( 0.25714287 0.2178572 0.28571433 0.23928572 )
( 0.25714287 0.2178572 0.28571433 0.23928572 ))))
(((( 0.21785715 0.25357148 0.26071432 0.26785716 )
( 0.21785715 0.25357148 0.26071432 0.26785716 ))
(( 0.21785715 0.25357148 0.26071432 0.26785716 )
( 0.22857143 0.2571429 0.25000003 0.26428574 )))
((( 0.22857143 0.2571429 0.25000003 0.26428574 )
( 0.21071431 0.2714286 0.2464286 0.2714286 ))
(( 0.20000002 0.26785716 0.25714287 0.27500004 )
( 0.20000002 0.26785716 0.25714287 0.27500004 )))))
((((( 0.25357145 0.22500004 0.26785716 0.25357145 )
( 0.24285717 0.25000003 0.2357143 0.27142859 ))
(( 0.24285717 0.25000003 0.2357143 0.27142859 )
( 0.23928574 0.25714287 0.21785715 0.2857143 )))
((( 0.2464286 0.2357143 0.21071431 0.3071429 )
( 0.25000003 0.22500001 0.20714287 0.31785718 ))
(( 0.25000003 0.22500001 0.20714287 0.31785718 )
( 0.25357145 0.21785715 0.22500004 0.30357146 ))))
(((( 0.21428573 0.25714287 0.2214286 0.30714288 )
( 0.21071431 0.26785716 0.22500002 0.2964286 ))
(( 0.21428573 0.26071432 0.24285717 0.28214288 )
( 0.21785715 0.25357145 0.26071432 0.26785716 )))
((( 0.20714286 0.25000003 0.27142859 0.27142859 )
( 0.20714286 0.25000003 0.27142859 0.2714286 ))
(( 0.21071431 0.23928574 0.26785716 0.2821429 )
( 0.21071431 0.23928574 0.26785716 0.2821429 ))))))
(((((( 0.21071431 0.2714286 0.2464286 0.2714286 )
( 0.21071431 0.2714286 0.2464286 0.2714286 ))
(( 0.22857144 0.25714287 0.25000003 0.26428574 )
( 0.24642858 0.24285719 0.25357145 0.25714287 )))
((( 0.24642858 0.24285717 0.25357145 0.25714287 )
( 0.24642858 0.24285717 0.25357145 0.25714287 ))
(( 0.24642858 0.24285717 0.25357145 0.25714287 )
( 0.24285714 0.25000003 0.2357143 0.27142859 ))))
(((( 0.25714287 0.24285714 0.2214286 0.27857146 )
( 0.25357145 0.25 0.20357145 0.29285717 ))
(( 0.25357145 0.24642856 0.18214287 0.31785718 )
( 0.2357143 0.2607143 0.17857145 0.32500002 )))
((( 0.23214288 0.27142856 0.18214288 0.31428576 )
( 0.23214288 0.27142856 0.18214288 0.31428576 ))
(( 0.2357143 0.2642857 0.20000003 0.3 )
( 0.23571432 0.2642857 0.20000003 0.3 )))))
((((( 0.21428572 0.26071432 0.24285717 0.28214288 )
( 0.20000002 0.26428574 0.2357143 0.29999998 ))
(( 0.20357145 0.25714287 0.25357145 0.28571433 )
( 0.20357145 0.25714287 0.25357145 0.28571433 )))
((( 0.22500001 0.23571432 0.27500004 0.26428574 )
( 0.22500001 0.23571432 0.27500004 0.26428574 ))
(( 0.22500001 0.23571432 0.27500004 0.26428574 )
( 0.23571429 0.23928574 0.26428574 0.26071432 ))))
(((( 0.23571429 0.23928574 0.26428574 0.26071432 )
( 0.22500001 0.23571432 0.27500004 0.26428574 ))
(( 0.22500001 0.23571432 0.27500004 0.26428574 )
( 0.22142859 0.24285717 0.25714287 0.27857146 )))
((( 0.23928572 0.22857144 0.26071432 0.2714286 )
( 0.21785717 0.27857143 0.19642858 0.30714288 ))
(( 0.20000003 0.29285717 0.19285716 0.31428576 )
( 0.21071431 0.3 0.20357145 0.28571433 ))))))))
(((((((( 0.29642862 0.23928574 0.22500002 0.23928574 )
( 0.23928574 0.25714287 0.21785717 0.28571433 ))
(( 0.24285717 0.2464286 0.21428575 0.29642862 )
( 0.20714286 0.27500004 0.2071429 0.31071427 )))
((( 0.2357143 0.23928574 0.26428574 0.26071432 )
( 0.23214288 0.25000003 0.26785716 0.25000003 ))
(( 0.21071431 0.2714286 0.2464286 0.27142859 )
( 0.20714287 0.27857146 0.22857144 0.2857143 ))))
(((( 0.19642858 0.2714286 0.21785715 0.3142857 )
( 0.19642858 0.2714286 0.21785715 0.3142857 ))
(( 0.19642858 0.2714286 0.21785715 0.3142857 )
( 0.19642858 0.2714286 0.21785715 0.3142857 )))
((( 0.20000002 0.26071432 0.21428572 0.32500002 )
( 0.20000002 0.26071432 0.21428572 0.32500002 ))
(( 0.19285716 0.27857146 0.2 0.32857147 )
( 0.19285716 0.27857146 0.2 0.32857147 )))))
((((( 0.21071433 0.26428574 0.20357144 0.32142857 )
( 0.21785717 0.27500004 0.175 0.3321429 ))
(( 0.22500002 0.25714287 0.18928573 0.32857147 )
( 0.22500002 0.25714287 0.18928573 0.32857147 )))
((( 0.2321429 0.23571429 0.18214287 0.35000005 )
( 0.24285717 0.23928571 0.17142858 0.3464286 ))
(( 0.25714287 0.2357143 0.17857145 0.32857147 )
( 0.24285719 0.23928571 0.17142858 0.3464286 ))))
(((( 0.22500002 0.25714287 0.18928574 0.32857147 )
( 0.21428573 0.25357145 0.20000002 0.33214286 ))
(( 0.21785715 0.2464286 0.21785715 0.31785718 )
( 0.20357145 0.25000003 0.21071431 0.3357143 )))
((( 0.21071431 0.23571432 0.2464286 0.30714288 )
( 0.21071431 0.23571432 0.2464286 0.30714288 ))
(( 0.20714287 0.24285719 0.22857144 0.32142857 )
( 0.20714287 0.24285719 0.22857144 0.32142857 ))))))
(((((( 0.21071431 0.2321429 0.22500001 0.33214283 )
( 0.22500002 0.22857144 0.23214288 0.3142857 ))
(( 0.22500002 0.22857144 0.23214288 0.3142857 )
( 0.22500002 0.22857144 0.23214288 0.3142857 )))
((( 0.22500001 0.22857144 0.23214288 0.3142857 )
( 0.21071431 0.26428574 0.20357144 0.32142857 ))
(( 0.21071431 0.26428574 0.20357144 0.32142857 )
( 0.22500002 0.2607143 0.2107143 0.30357143 ))))
(((( 0.22857144 0.25 0.20714287 0.31428573 )
( 0.22857144 0.25 0.20714287 0.31428573 ))
(( 0.23214288 0.23928572 0.20357144 0.32500002 )
( 0.26428574 0.22142859 0.21428575 0.3 )))
((( 0.27857146 0.21785715 0.2214286 0.2821429 )
( 0.26428574 0.22500002 0.23571432 0.27500004 ))
(( 0.24285717 0.2464286 0.21428575 0.2964286 )
( 0.24285717 0.2464286 0.21428575 0.2964286 )))))
((((( 0.23571432 0.26785716 0.2214286 0.275 )
( 0.25357145 0.25357145 0.22500002 0.26785716 ))
(( 0.23928574 0.26071432 0.23928574 0.2607143 )
( 0.21785717 0.2821429 0.21785715 0.28214288 )))
((( 0.18571432 0.3 0.20714286 0.30714288 )
( 0.18571432 0.3 0.20714286 0.30714288 ))
(( 0.18214288 0.30714288 0.18928573 0.3214286 )
( 0.18214288 0.30714288 0.18928573 0.3214286 ))))
(((( 0.2321429 0.27500004 0.20357144 0.28928572 )
( 0.22857146 0.2857143 0.20714286 0.27857143 ))
(( 0.22857146 0.2857143 0.20714286 0.27857143 )
( 0.22857146 0.2857143 0.20714286 0.27857143 )))
((( 0.25000003 0.2607143 0.20714287 0.28214288 )
( 0.25000003 0.2607143 0.20714287 0.28214288 ))
(( 0.26785716 0.2464286 0.21071433 0.275 )
( 0.26785716 0.2464286 0.21071433 0.275 )))))))
((((((( 0.25357145 0.25000003 0.20357145 0.29285717 )
( 0.2714286 0.2357143 0.20714287 0.2857143 ))
(( 0.2714286 0.2357143 0.20714287 0.2857143 )
( 0.26785716 0.2464286 0.21071433 0.27500004 )))
((( 0.24285717 0.25000003 0.23571432 0.27142859 )
( 0.23214288 0.24642861 0.24642861 0.275 ))
(( 0.25714287 0.2178572 0.28571433 0.23928572 )
( 0.25714287 0.2178572 0.28571433 0.23928572 ))))
(((( 0.21785715 0.25357148 0.26071432 0.26785716 )
( 0.21785715 0.25357148 0.26071432 0.26785716 ))
(( 0.21785715 0.25357148 0.26071432 0.26785716 )
( 0.22857143 0.2571429 0.25000003 0.26428574 )))
((( 0.22857143 0.2571429 0.25000003 0.26428574 )
( 0.21071431 0.2714286 0.2464286 0.2714286 ))
(( 0.20000002 0.26785716 0.25714287 0.27500004 )
( 0.20000002 0.26785716 0.25714287 0.27500004 )))))
((((( 0.25357145 0.22500004 0.26785716 0.25357145 )
( 0.24285717 0.25000003 0.2357143 0.27142859 ))
(( 0.24285717 0.25000003 0.2357143 0.27142859 )
( 0.23928574 0.25714287 0.21785715 0.2857143 )))
((( 0.2464286 0.2357143 0.21071431 0.3071429 )
( 0.25000003 0.22500001 0.20714287 0.31785718 ))
(( 0.25000003 0.22500001 0.20714287 0.31785718 )
( 0.25357145 0.21785715 0.22500004 0.30357146 ))))
(((( 0.21428573 0.25714287 0.2214286 0.30714288 )
( 0.21071431 0.26785716 0.22500002 0.2964286 ))
(( 0.21428573 0.26071432 0.24285717 0.28214288 )
( 0.21785715 0.25357145 0.26071432 0.26785716 )))
((( 0.20714286 0.25000003 0.27142859 0.27142859 )
( 0.20714286 0.25000003 0.27142859 0.2714286 ))
(( 0.21071431 0.23928574 0.26785716 0.2821429 )
( 0.21071431 0.23928574 0.26785716 0.2821429 ))))))
(((((( 0.21071431 0.2714286 0.2464286 0.2714286 )
( 0.21071431 0.2714286 0.2464286 0.2714286 ))
(( 0.22857144 0.25714287 0.25000003 0.26428574 )
( 0.24642858 0.24285719 0.25357145 0.25714287 )))
((( 0.24642858 0.24285717 0.25357145 0.25714287 )
( 0.24642858 0.24285717 0.25357145 0.25714287 ))
(( 0.24642858 0.24285717 0.25357145 0.25714287 )
( 0.24285714 0.25000003 0.2357143 0.27142859 ))))
(((( 0.25714287 0.24285714 0.2214286 0.27857146 )
( 0.25357145 0.25 0.20357145 0.29285717 ))
(( 0.25357145 0.24642856 0.18214287 0.31785718 )
( 0.2357143 0.2607143 0.17857145 0.32500002 )))
((( 0.23214288 0.27142856 0.18214288 0.31428576 )
( 0.23214288 0.27142856 0.18214288 0.31428576 ))
(( 0.2357143 0.2642857 0.20000003 0.3 )
( 0.23571432 0.2642857 0.20000003 0.3 )))))
((((( 0.21428572 0.26071432 0.24285717 0.28214288 )
( 0.20000002 0.26428574 0.2357143 0.29999998 ))
(( 0.20357145 0.25714287 0.25357145 0.28571433 )
( 0.20357145 0.25714287 0.25357145 0.28571433 )))
((( 0.22500001 0.23571432 0.27500004 0.26428574 )
( 0.22500001 0.23571432 0.27500004 0.26428574 ))
(( 0.22500001 0.23571432 0.27500004 0.26428574 )
( 0.23571429 0.23928574 0.26428574 0.26071432 ))))
(((( 0.23571429 0.23928574 0.26428574 0.26071432 )
( 0.22500001 0.23571432 0.27500004 0.26428574 ))
(( 0.22500001 0.23571432 0.27500004 0.26428574 )
( 0.22142859 0.24285717 0.25714287 0.27857146 )))
((( 0.23928572 0.22857144 0.26071432 0.2714286 )
( 0.21785717 0.27857143 0.19642858 0.30714288 ))
(( 0.20000003 0.29285717 0.19285716 0.31428576 )
( 0.21071431 0.3 0.20357145 0.28571433 ))))))))
(((((((( 0.29642862 0.23928574 0.22500002 0.23928574 )
( 0.23928574 0.25714287 0.21785717 0.28571433 ))
(( 0.24285717 0.2464286 0.21428575 0.29642862 )
( 0.20714286 0.27500004 0.2071429 0.31071427 )))
((( 0.2357143 0.23928574 0.26428574 0.26071432 )
( 0.23214288 0.25000003 0.26785716 0.25000003 ))
(( 0.21071431 0.2714286 0.2464286 0.27142859 )
( 0.20714287 0.27857146 0.22857144 0.2857143 ))))
(((( 0.19642858 0.2714286 0.21785715 0.3142857 )
( 0.19642858 0.2714286 0.21785715 0.3142857 ))
(( 0.19642858 0.2714286 0.21785715 0.3142857 )
( 0.19642858 0.2714286 0.21785715 0.3142857 )))
((( 0.20000002 0.26071432 0.21428572 0.32500002 )
( 0.20000002 0.26071432 0.21428572 0.32500002 ))
(( 0.19285716 0.27857146 0.2 0.32857147 )
( 0.19285716 0.27857146 0.2 0.32857147 )))))
((((( 0.21071433 0.26428574 0.20357144 0.32142857 )
( 0.21785717 0.27500004 0.175 0.3321429 ))
(( 0.22500002 0.25714287 0.18928573 0.32857147 )
( 0.22500002 0.25714287 0.18928573 0.32857147 )))
((( 0.2321429 0.23571429 0.18214287 0.35000005 )
( 0.24285717 0.23928571 0.17142858 0.3464286 ))
(( 0.25714287 0.2357143 0.17857145 0.32857147 )
( 0.24285719 0.23928571 0.17142858 0.3464286 ))))
(((( 0.22500002 0.25714287 0.18928574 0.32857147 )
( 0.21428573 0.25357145 0.20000002 0.33214286 ))
(( 0.21785715 0.2464286 0.21785715 0.31785718 )
( 0.20357145 0.25000003 0.21071431 0.3357143 )))
((( 0.21071431 0.23571432 0.2464286 0.30714288 )
( 0.21071431 0.23571432 0.2464286 0.30714288 ))
(( 0.20714287 0.24285719 0.22857144 0.32142857 )
( 0.20714287 0.24285719 0.22857144 0.32142857 ))))))
(((((( 0.21071431 0.2321429 0.22500001 0.33214283 )
( 0.22500002 0.22857144 0.23214288 0.3142857 ))
(( 0.22500002 0.22857144 0.23214288 0.3142857 )
( 0.22500002 0.22857144 0.23214288 0.3142857 )))
((( 0.22500001 0.22857144 0.23214288 0.3142857 )
( 0.21071431 0.26428574 0.20357144 0.32142857 ))
(( 0.21071431 0.26428574 0.20357144 0.32142857 )
( 0.22500002 0.2607143 0.2107143 0.30357143 ))))
(((( 0.22857144 0.25 0.20714287 0.31428573 )
( 0.22857144 0.25 0.20714287 0.31428573 ))
(( 0.23214288 0.23928572 0.20357144 0.32500002 )
( 0.26428574 0.22142859 0.21428575 0.3 )))
((( 0.27857146 0.21785715 0.2214286 0.2821429 )
( 0.26428574 0.22500002 0.23571432 0.27500004 ))
(( 0.24285717 0.2464286 0.21428575 0.2964286 )
( 0.24285717 0.2464286 0.21428575 0.2964286 )))))
((((( 0.23571432 0.26785716 0.2214286 0.275 )
( 0.25357145 0.25357145 0.22500002 0.26785716 ))
(( 0.23928574 0.26071432 0.23928574 0.2607143 )
( 0.21785717 0.2821429 0.21785715 0.28214288 )))
((( 0.18571432 0.3 0.20714286 0.30714288 )
( 0.18571432 0.3 0.20714286 0.30714288 ))
(( 0.18214288 0.30714288 0.18928573 0.3214286 )
( 0.18214288 0.30714288 0.18928573 0.3214286 ))))
(((( 0.2321429 0.27500004 0.20357144 0.28928572 )
( 0.22857146 0.2857143 0.20714286 0.27857143 ))
(( 0.22857146 0.2857143 0.20714286 0.27857143 )
( 0.22857146 0.2857143 0.20714286 0.27857143 )))
((( 0.25000003 0.2607143 0.20714287 0.28214288 )
( 0.25000003 0.2607143 0.20714287 0.28214288 ))
(( 0.26785716 0.2464286 0.21071433 0.275 )
( 0.26785716 0.2464286 0.21071433 0.275 )))))))
((((((( 0.25357145 0.25000003 0.20357145 0.29285717 )
( 0.2714286 0.2357143 0.20714287 0.2857143 ))
(( 0.2714286 0.2357143 0.20714287 0.2857143 )
( 0.26785716 0.2464286 0.21071433 0.27500004 )))
((( 0.24285717 0.25000003 0.23571432 0.27142859 )
( 0.23214288 0.24642861 0.24642861 0.275 ))
(( 0.25714287 0.2178572 0.28571433 0.23928572 )
( 0.25714287 0.2178572 0.28571433 0.23928572 ))))
(((( 0.21785715 0.25357148 0.26071432 0.26785716 )
( 0.21785715 0.25357148 0.26071432 0.26785716 ))
(( 0.21785715 0.25357148 0.26071432 0.26785716 )
( 0.22857143 0.2571429 0.25000003 0.26428574 )))
((( 0.22857143 0.2571429 0.25000003 0.26428574 )
( 0.21071431 0.2714286 0.2464286 0.2714286 ))
(( 0.20000002 0.26785716 0.25714287 0.27500004 )
( 0.20000002 0.26785716 0.25714287 0.27500004 )))))
((((( 0.25357145 0.22500004 0.26785716 0.25357145 )
( 0.24285717 0.25000003 0.2357143 0.27142859 ))
(( 0.24285717 0.25000003 0.2357143 0.27142859 )
( 0.23928574 0.25714287 0.21785715 0.2857143 )))
((( 0.2464286 0.2357143 0.21071431 0.3071429 )
( 0.25000003 0.22500001 0.20714287 0.31785718 ))
(( 0.25000003 0.22500001 0.20714287 0.31785718 )
( 0.25357145 0.21785715 0.22500004 0.30357146 ))))
(((( 0.21428573 0.25714287 0.2214286 0.30714288 )
( 0.21071431 0.26785716 0.22500002 0.2964286 ))
(( 0.21428573 0.26071432 0.24285717 0.28214288 )
( 0.21785715 0.25357145 0.26071432 0.26785716 )))
((( 0.20714286 0.25000003 0.27142859 0.27142859 )
( 0.20714286 0.25000003 0.27142859 0.2714286 ))
(( 0.21071431 0.23928574 0.26785716 0.2821429 )
( 0.21071431 0.23928574 0.26785716 0.2821429 ))))))
(((((( 0.21071431 0.2714286 0.2464286 0.2714286 )
( 0.21071431 0.2714286 0.2464286 0.2714286 ))
(( 0.22857144 0.25714287 0.25000003 0.26428574 )
( 0.24642858 0.24285719 0.25357145 0.25714287 )))
((( 0.24642858 0.24285717 0.25357145 0.25714287 )
( 0.24642858 0.24285717 0.25357145 0.25714287 ))
(( 0.24642858 0.24285717 0.25357145 0.25714287 )
( 0.24285714 0.25000003 0.2357143 0.27142859 ))))
(((( 0.25714287 0.24285714 0.2214286 0.27857146 )
( 0.25357145 0.25 0.20357145 0.29285717 ))
(( 0.25357145 0.24642856 0.18214287 0.31785718 )
( 0.2357143 0.2607143 0.17857145 0.32500002 )))
((( 0.23214288 0.27142856 0.18214288 0.31428576 )
( 0.23214288 0.27142856 0.18214288 0.31428576 ))
(( 0.2357143 0.2642857 0.20000003 0.3 )
( 0.23571432 0.2642857 0.20000003 0.3 )))))
((((( 0.21428572 0.26071432 0.24285717 0.28214288 )
( 0.20000002 0.26428574 0.2357143 0.29999998 ))
(( 0.20357145 0.25714287 0.25357145 0.28571433 )
( 0.20357145 0.25714287 0.25357145 0.28571433 )))
((( 0.22500001 0.23571432 0.27500004 0.26428574 )
( 0.22500001 0.23571432 0.27500004 0.26428574 ))
(( 0.22500001 0.23571432 0.27500004 0.26428574 )
( 0.23571429 0.23928574 0.26428574 0.26071432 ))))
(((( 0.23571429 0.23928574 0.26428574 0.26071432 )
( 0.22500001 0.23571432 0.27500004 0.26428574 ))
(( 0.22500001 0.23571432 0.27500004 0.26428574 )
( 0.22142859 0.24285717 0.25714287 0.27857146 )))
((( 0.23928572 0.22857144 0.26071432 0.2714286 )
( 0.21785717 0.27857143 0.19642858 0.30714288 ))
(( 0.20000003 0.29285717 0.19285716 0.31428576 )
( 0.21071431 0.3 0.20357145 0.28571433 ))))))))
(((((((( 0.29642862 0.23928574 0.22500002 0.23928574 )
( 0.23928574 0.25714287 0.21785717 0.28571433 ))
(( 0.24285717 0.2464286 0.21428575 0.29642862 )
( 0.20714286 0.27500004 0.2071429 0.31071427 )))
((( 0.2357143 0.23928574 0.26428574 0.26071432 )
( 0.23214288 0.25000003 0.26785716 0.25000003 ))
(( 0.21071431 0.2714286 0.2464286 0.27142859 )
( 0.20714287 0.27857146 0.22857144 0.2857143 ))))
(((( 0.19642858 0.2714286 0.21785715 0.3142857 )
( 0.19642858 0.2714286 0.21785715 0.3142857 ))
(( 0.19642858 0.2714286 0.21785715 0.3142857 )
( 0.19642858 0.2714286 0.21785715 0.3142857 )))
((( 0.20000002 0.26071432 0.21428572 0.32500002 )
( 0.20000002 0.26071432 0.21428572 0.32500002 ))
(( 0.19285716 0.27857146 0.2 0.32857147 )
( 0.19285716 0.27857146 0.2 0.32857147 )))))
((((( 0.21071433 0.26428574 0.20357144 0.32142857 )
( 0.21785717 0.27500004 0.175 0.3321429 ))
(( 0.22500002 0.25714287 0.18928573 0.32857147 )
( 0.22500002 0.25714287 0.18928573 0.32857147 )))
((( 0.2321429 0.23571429 0.18214287 0.35000005 )
( 0.24285717 0.23928571 0.17142858 0.3464286 ))
(( 0.25714287 0.2357143 0.17857145 0.32857147 )
( 0.24285719 0.23928571 0.17142858 0.3464286 ))))
(((( 0.22500002 0.25714287 0.18928574 0.32857147 )
( 0.21428573 0.25357145 0.20000002 0.33214286 ))
(( 0.21785715 0.2464286 0.21785715 0.31785718 )
( 0.20357145 0.25000003 0.21071431 0.3357143 )))
((( 0.21071431 0.23571432 0.2464286 0.30714288 )
( 0.21071431 0.23571432 0.2464286 0.30714288 ))
(( 0.20714287 0.24285719 0.22857144 0.32142857 )
( 0.20714287 0.24285719 0.22857144 0.32142857 ))))))
(((((( 0.21071431 0.2321429 0.22500001 0.33214283 )
( 0.22500002 0.22857144 0.23214288 0.3142857 ))
(( 0.22500002 0.22857144 0.23214288 0.3142857 )
( 0.22500002 0.22857144 0.23214288 0.3142857 )))
((( 0.22500001 0.22857144 0.23214288 0.3142857 )
( 0.21071431 0.26428574 0.20357144 0.32142857 ))
(( 0.21071431 0.26428574 0.20357144 0.32142857 )
( 0.22500002 0.2607143 0.2107143 0.30357143 ))))
(((( 0.22857144 0.25 0.20714287 0.31428573 )
( 0.22857144 0.25 0.20714287 0.31428573 ))
(( 0.23214288 0.23928572 0.20357144 0.32500002 )
( 0.26428574 0.22142859 0.21428575 0.3 )))
((( 0.27857146 0.21785715 0.2214286 0.2821429 )
( 0.26428574 0.22500002 0.23571432 0.27500004 ))
(( 0.24285717 0.2464286 0.21428575 0.2964286 )
( 0.24285717 0.2464286 0.21428575 0.2964286 )))))
((((( 0.23571432 0.26785716 0.2214286 0.275 )
( 0.25357145 0.25357145 0.22500002 0.26785716 ))
(( 0.23928574 0.26071432 0.23928574 0.2607143 )
( 0.21785717 0.2821429 0.21785715 0.28214288 )))
((( 0.18571432 0.3 0.20714286 0.30714288 )
( 0.18571432 0.3 0.20714286 0.30714288 ))
(( 0.18214288 0.30714288 0.18928573 0.3214286 )
( 0.18214288 0.30714288 0.18928573 0.3214286 ))))
(((( 0.2321429 0.27500004 0.20357144 0.28928572 )
( 0.22857146 0.2857143 0.20714286 0.27857143 ))
(( 0.22857146 0.2857143 0.20714286 0.27857143 )
( 0.22857146 0.2857143 0.20714286 0.27857143 )))
((( 0.25000003 0.2607143 0.20714287 0.28214288 )
( 0.25000003 0.2607143 0.20714287 0.28214288 ))
(( 0.26785716 0.2464286 0.21071433 0.275 )
( 0.26785716 0.2464286 0.21071433 0.275 )))))))
((((((( 0.25357145 0.25000003 0.20357145 0.29285717 )
( 0.2714286 0.2357143 0.20714287 0.2857143 ))
(( 0.2714286 0.2357143 0.20714287 0.2857143 )
( 0.26785716 0.2464286 0.21071433 0.27500004 )))
((( 0.24285717 0.25000003 0.23571432 0.27142859 )
( 0.23214288 0.24642861 0.24642861 0.275 ))
(( 0.25714287 0.2178572 0.28571433 0.23928572 )
( 0.25714287 0.2178572 0.28571433 0.23928572 ))))
(((( 0.21785715 0.25357148 0.26071432 0.26785716 )
( 0.21785715 0.25357148 0.26071432 0.26785716 ))
(( 0.21785715 0.25357148 0.26071432 0.26785716 )
( 0.22857143 0.2571429 0.25000003 0.26428574 )))
((( 0.22857143 0.2571429 0.25000003 0.26428574 )
( 0.21071431 0.2714286 0.2464286 0.2714286 ))
(( 0.20000002 0.26785716 0.25714287 0.27500004 )
( 0.20000002 0.26785716 0.25714287 0.27500004 )))))
((((( 0.25357145 0.22500004 0.26785716 0.25357145 )
( 0.24285717 0.25000003 0.2357143 0.27142859 ))
(( 0.24285717 0.25000003 0.2357143 0.27142859 )
( 0.23928574 0.25714287 0.21785715 0.2857143 )))
((( 0.2464286 0.2357143 0.21071431 0.3071429 )
( 0.25000003 0.22500001 0.20714287 0.31785718 ))
(( 0.25000003 0.22500001 0.20714287 0.31785718 )
( 0.25357145 0.21785715 0.22500004 0.30357146 ))))
(((( 0.21428573 0.25714287 0.2214286 0.30714288 )
( 0.21071431 0.26785716 0.22500002 0.2964286 ))
(( 0.21428573 0.26071432 0.24285717 0.28214288 )
( 0.21785715 0.25357145 0.26071432 0.26785716 )))
((( 0.20714286 0.25000003 0.27142859 0.27142859 )
( 0.20714286 0.25000003 0.27142859 0.2714286 ))
(( 0.21071431 0.23928574 0.26785716 0.2821429 )
( 0.21071431 0.23928574 0.26785716 0.2821429 ))))))
(((((( 0.21071431 0.2714286 0.2464286 0.2714286 )
( 0.21071431 0.2714286 0.2464286 0.2714286 ))
(( 0.22857144 0.25714287 0.25000003 0.26428574 )
( 0.24642858 0.24285719 0.25357145 0.25714287 )))
((( 0.24642858 0.24285717 0.25357145 0.25714287 )
( 0.24642858 0.24285717 0.25357145 0.25714287 ))
(( 0.24642858 0.24285717 0.25357145 0.25714287 )
( 0.24285714 0.25000003 0.2357143 0.27142859 ))))
(((( 0.25714287 0.24285714 0.2214286 0.27857146 )
( 0.25357145 0.25 0.20357145 0.29285717 ))
(( 0.25357145 0.24642856 0.18214287 0.31785718 )
( 0.2357143 0.2607143 0.17857145 0.32500002 )))
((( 0.23214288 0.27142856 0.18214288 0.31428576 )
( 0.23214288 0.27142856 0.18214288 0.31428576 ))
(( 0.2357143 0.2642857 0.20000003 0.3 )
( 0.23571432 0.2642857 0.20000003 0.3 )))))
((((( 0.21428572 0.26071432 0.24285717 0.28214288 )
( 0.20000002 0.26428574 0.2357143 0.29999998 ))
(( 0.20357145 0.25714287 0.25357145 0.28571433 )
( 0.20357145 0.25714287 0.25357145 0.28571433 )))
((( 0.22500001 0.23571432 0.27500004 0.26428574 )
( 0.22500001 0.23571432 0.27500004 0.26428574 ))
(( 0.22500001 0.23571432 0.27500004 0.26428574 )
( 0.23571429 0.23928574 0.26428574 0.26071432 ))))
(((( 0.23571429 0.23928574 0.26428574 0.26071432 )
( 0.22500001 0.23571432 0.27500004 0.26428574 ))
(( 0.22500001 0.23571432 0.27500004 0.26428574 )
( 0.22142859 0.24285717 0.25714287 0.27857146 )))
((( 0.23928572 0.22857144 0.26071432 0.2714286 )
( 0.21785717 0.27857143 0.19642858 0.30714288 ))
(( 0.20000003 0.29285717 0.19285716 0.31428576 )
( 0.21071431 0.3 0.20357145 0.28571433 ))))))))
(((((((( 0.29642862 0.23928574 0.22500002 0.23928574 )
( 0.23928574 0.25714287 0.21785717 0.28571433 ))
(( 0.24285717 0.2464286 0.21428575 0.29642862 )
( 0.20714286 0.27500004 0.2071429 0.31071427 )))
((( 0.2357143 0.23928574 0.26428574 0.26071432 )
( 0.23214288 0.25000003 0.26785716 0.25000003 ))
(( 0.21071431 0.2714286 0.2464286 0.27142859 )
( 0.20714287 0.27857146 0.22857144 0.2857143 ))))
(((( 0.19642858 0.2714286 0.21785715 0.3142857 )
( 0.19642858 0.2714286 0.21785715 0.3142857 ))
(( 0.19642858 0.2714286 0.21785715 0.3142857 )
( 0.19642858 0.2714286 0.21785715 0.3142857 )))
((( 0.20000002 0.26071432 0.21428572 0.32500002 )
( 0.20000002 0.26071432 0.21428572 0.32500002 ))
(( 0.19285716 0.27857146 0.2 0.32857147 )
( 0.19285716 0.27857146 0.2 0.32857147 )))))
((((( 0.21071433 0.26428574 0.20357144 0.32142857 )
( 0.21785717 0.27500004 0.175 0.3321429 ))
(( 0.22500002 0.25714287 0.18928573 0.32857147 )
( 0.22500002 0.25714287 0.18928573 0.32857147 )))
((( 0.2321429 0.23571429 0.18214287 0.35000005 )
( 0.24285717 0.23928571 0.17142858 0.3464286 ))
(( 0.25714287 0.2357143 0.17857145 0.32857147 )
( 0.24285719 0.23928571 0.17142858 0.3464286 ))))
(((( 0.22500002 0.25714287 0.18928574 0.32857147 )
( 0.21428573 0.25357145 0.20000002 0.33214286 ))
(( 0.21785715 0.2464286 0.21785715 0.31785718 )
( 0.20357145 0.25000003 0.21071431 0.3357143 )))
((( 0.21071431 0.23571432 0.2464286 0.30714288 )
( 0.21071431 0.23571432 0.2464286 0.30714288 ))
(( 0.20714287 0.24285719 0.22857144 0.32142857 )
( 0.20714287 0.24285719 0.22857144 0.32142857 ))))))
(((((( 0.21071431 0.2321429 0.22500001 0.33214283 )
( 0.22500002 0.22857144 0.23214288 0.3142857 ))
(( 0.22500002 0.22857144 0.23214288 0.3142857 )
( 0.22500002 0.22857144 0.23214288 0.3142857 )))
((( 0.22500001 0.22857144 0.23214288 0.3142857 )
( 0.21071431 0.26428574 0.20357144 0.32142857 ))
(( 0.21071431 0.26428574 0.20357144 0.32142857 )
( 0.22500002 0.2607143 0.2107143 0.30357143 ))))
(((( 0.22857144 0.25 0.20714287 0.31428573 )
( 0.22857144 0.25 0.20714287 0.31428573 ))
(( 0.23214288 0.23928572 0.20357144 0.32500002 )
( 0.26428574 0.22142859 0.21428575 0.3 )))
((( 0.27857146 0.21785715 0.2214286 0.2821429 )
( 0.26428574 0.22500002 0.23571432 0.27500004 ))
(( 0.24285717 0.2464286 0.21428575 0.2964286 )
( 0.24285717 0.2464286 0.21428575 0.2964286 )))))
((((( 0.23571432 0.26785716 0.2214286 0.275 )
( 0.25357145 0.25357145 0.22500002 0.26785716 ))
(( 0.23928574 0.26071432 0.23928574 0.2607143 )
( 0.21785717 0.2821429 0.21785715 0.28214288 )))
((( 0.18571432 0.3 0.20714286 0.30714288 )
( 0.18571432 0.3 0.20714286 0.30714288 ))
(( 0.18214288 0.30714288 0.18928573 0.3214286 )
( 0.18214288 0.30714288 0.18928573 0.3214286 ))))
(((( 0.2321429 0.27500004 0.20357144 0.28928572 )
( 0.22857146 0.2857143 0.20714286 0.27857143 ))
(( 0.22857146 0.2857143 0.20714286 0.27857143 )
( 0.22857146 0.2857143 0.20714286 0.27857143 )))
((( 0.25000003 0.2607143 0.20714287 0.28214288 )
( 0.25000003 0.2607143 0.20714287 0.28214288 ))
(( 0.26785716 0.2464286 0.21071433 0.275 )
( 0.26785716 0.2464286 0.21071433 0.275 )))))))
((((((( 0.25357145 0.25000003 0.20357145 0.29285717 )
( 0.2714286 0.2357143 0.20714287 0.2857143 ))
(( 0.2714286 0.2357143 0.20714287 0.2857143 )
( 0.26785716 0.2464286 0.21071433 0.27500004 )))
((( 0.24285717 0.25000003 0.23571432 0.27142859 )
( 0.23214288 0.24642861 0.24642861 0.275 ))
(( 0.25714287 0.2178572 0.28571433 0.23928572 )
( 0.25714287 0.2178572 0.28571433 0.23928572 ))))
(((( 0.21785715 0.25357148 0.26071432 0.26785716 )
( 0.21785715 0.25357148 0.26071432 0.26785716 ))
(( 0.21785715 0.25357148 0.26071432 0.26785716 )
( 0.22857143 0.2571429 0.25000003 0.26428574 )))
((( 0.22857143 0.2571429 0.25000003 0.26428574 )
( 0.21071431 0.2714286 0.2464286 0.2714286 ))
(( 0.20000002 0.26785716 0.25714287 0.27500004 )
( 0.20000002 0.26785716 0.25714287 0.27500004 )))))
((((( 0.25357145 0.22500004 0.26785716 0.25357145 )
( 0.24285717 0.25000003 0.2357143 0.27142859 ))
(( 0.24285717 0.25000003 0.2357143 0.27142859 )
( 0.23928574 0.25714287 0.21785715 0.2857143 )))
((( 0.2464286 0.2357143 0.21071431 0.3071429 )
( 0.25000003 0.22500001 0.20714287 0.31785718 ))
(( 0.25000003 0.22500001 0.20714287 0.31785718 )
( 0.25357145 0.21785715 0.22500004 0.30357146 ))))
(((( 0.21428573 0.25714287 0.2214286 0.30714288 )
( 0.21071431 0.26785716 0.22500002 0.2964286 ))
(( 0.21428573 0.26071432 0.24285717 0.28214288 )
( 0.21785715 0.25357145 0.26071432 0.26785716 )))
((( 0.20714286 0.25000003 0.27142859 0.27142859 )
( 0.20714286 0.25000003 0.27142859 0.2714286 ))
(( 0.21071431 0.23928574 0.26785716 0.2821429 )
( 0.21071431 0.23928574 0.26785716 0.2821429 ))))))
(((((( 0.21071431 0.2714286 0.2464286 0.2714286 )
( 0.21071431 0.2714286 0.2464286 0.2714286 ))
(( 0.22857144 0.25714287 0.25000003 0.26428574 )
( 0.24642858 0.24285719 0.25357145 0.25714287 )))
((( 0.24642858 0.24285717 0.25357145 0.25714287 )
( 0.24642858 0.24285717 0.25357145 0.25714287 ))
(( 0.24642858 0.24285717 0.25357145 0.25714287 )
( 0.24285714 0.25000003 0.2357143 0.27142859 ))))
(((( 0.25714287 0.24285714 0.2214286 0.27857146 )
( 0.25357145 0.25 0.20357145 0.29285717 ))
(( 0.25357145 0.24642856 0.18214287 0.31785718 )
( 0.2357143 0.2607143 0.17857145 0.32500002 )))
((( 0.23214288 0.27142856 0.18214288 0.31428576 )
( 0.23214288 0.27142856 0.18214288 0.31428576 ))
(( 0.2357143 0.2642857 0.20000003 0.3 )
( 0.23571432 0.2642857 0.20000003 0.3 )))))
((((( 0.21428572 0.26071432 0.24285717 0.28214288 )
( 0.20000002 0.26428574 0.2357143 0.29999998 ))
(( 0.20357145 0.25714287 0.25357145 0.28571433 )
( 0.20357145 0.25714287 0.25357145 0.28571433 )))
((( 0.22500001 0.23571432 0.27500004 0.26428574 )
( 0.22500001 0.23571432 0.27500004 0.26428574 ))
(( 0.22500001 0.23571432 0.27500004 0.26428574 )
( 0.23571429 0.23928574 0.26428574 0.26071432 ))))
(((( 0.23571429 0.23928574 0.26428574 0.26071432 )
( 0.22500001 0.23571432 0.27500004 0.26428574 ))
(( 0.22500001 0.23571432 0.27500004 0.26428574 )
( 0.22142859 0.24285717 0.25714287 0.27857146 )))
((( 0.23928572 0.22857144 0.26071432 0.2714286 )
( 0.21785717 0.27857143 0.19642858 0.30714288 ))
(( 0.20000003 0.29285717 0.19285716 0.31428576 )
( 0.21071431 0.3 0.20357145 0.28571433 ))))))))
(((((((( 0.29642862 0.23928574 0.22500002 0.23928574 )
( 0.23928574 0.25714287 0.21785717 0.28571433 ))
(( 0.24285717 0.2464286 0.21428575 0.29642862 )
( 0.20714286 0.27500004 0.2071429 0.31071427 )))
((( 0.2357143 0.23928574 0.26428574 0.26071432 )
( 0.23214288 0.25000003 0.26785716 0.25000003 ))
(( 0.21071431 0.2714286 0.2464286 0.27142859 )
( 0.20714287 0.27857146 0.22857144 0.2857143 ))))
(((( 0.19642858 0.2714286 0.21785715 0.3142857 )
( 0.19642858 0.2714286 0.21785715 0.3142857 ))
(( 0.19642858 0.2714286 0.21785715 0.3142857 )
( 0.19642858 0.2714286 0.21785715 0.3142857 )))
((( 0.20000002 0.26071432 0.21428572 0.32500002 )
( 0.20000002 0.26071432 0.21428572 0.32500002 ))
(( 0.19285716 0.27857146 0.2 0.32857147 )
( 0.19285716 0.27857146 0.2 0.32857147 )))))
((((( 0.21071433 0.26428574 0.20357144 0.32142857 )
( 0.21785717 0.27500004 0.175 0.3321429 ))
(( 0.22500002 0.25714287 0.18928573 0.32857147 )
( 0.22500002 0.25714287 0.18928573 0.32857147 )))
((( 0.2321429 0.23571429 0.18214287 0.35000005 )
( 0.24285717 0.23928571 0.17142858 0.3464286 ))
(( 0.25714287 0.2357143 0.17857145 0.32857147 )
( 0.24285719 0.23928571 0.17142858 0.3464286 ))))
(((( 0.22500002 0.25714287 0.18928574 0.32857147 )
( 0.21428573 0.25357145 0.20000002 0.33214286 ))
(( 0.21785715 0.2464286 0.21785715 0.31785718 )
( 0.20357145 0.25000003 0.21071431 0.3357143 )))
((( 0.21071431 0.23571432 0.2464286 0.30714288 )
( 0.21071431 0.23571432 0.2464286 0.30714288 ))
(( 0.20714287 0.24285719 0.22857144 0.32142857 )
( 0.20714287 0.24285719 0.22857144 0.32142857 ))))))
(((((( 0.21071431 0.2321429 0.22500001 0.33214283 )
( 0.22500002 0.22857144 0.23214288 0.3142857 ))
(( 0.22500002 0.22857144 0.23214288 0.3142857 )
( 0.22500002 0.22857144 0.23214288 0.3142857 )))
((( 0.22500001 0.22857144 0.23214288 0.3142857 )
( 0.21071431 0.26428574 0.20357144 0.32142857 ))
(( 0.21071431 0.26428574 0.20357144 0.32142857 )
( 0.22500002 0.2607143 0.2107143 0.30357143 ))))
(((( 0.22857144 0.25 0.20714287 0.31428573 )
( 0.22857144 0.25 0.20714287 0.31428573 ))
(( 0.23214288 0.23928572 0.20357144 0.32500002 )
( 0.26428574 0.22142859 0.21428575 0.3 )))
((( 0.27857146 0.21785715 0.2214286 0.2821429 )
( 0.26428574 0.22500002 0.23571432 0.27500004 ))
(( 0.24285717 0.2464286 0.21428575 0.2964286 )
( 0.24285717 0.2464286 0.21428575 0.2964286 )))))
((((( 0.23571432 0.26785716 0.2214286 0.275 )
( 0.25357145 0.25357145 0.22500002 0.26785716 ))
(( 0.23928574 0.26071432 0.23928574 0.2607143 )
( 0.21785717 0.2821429 0.21785715 0.28214288 )))
((( 0.18571432 0.3 0.20714286 0.30714288 )
( 0.18571432 0.3 0.20714286 0.30714288 ))
(( 0.18214288 0.30714288 0.18928573 0.3214286 )
( 0.18214288 0.30714288 0.18928573 0.3214286 ))))
(((( 0.2321429 0.27500004 0.20357144 0.28928572 )
( 0.22857146 0.2857143 0.20714286 0.27857143 ))
(( 0.22857146 0.2857143 0.20714286 0.27857143 )
( 0.22857146 0.2857143 0.20714286 0.27857143 )))
((( 0.25000003 0.2607143 0.20714287 0.28214288 )
( 0.25000003 0.2607143 0.20714287 0.28214288 ))
(( 0.26785716 0.2464286 0.21071433 0.275 )
( 0.26785716 0.2464286 0.21071433 0.275 )))))))
((((((( 0.25357145 0.25000003 0.20357145 0.29285717 )
( 0.2714286 0.2357143 0.20714287 0.2857143 ))
(( 0.2714286 0.2357143 0.20714287 0.2857143 )
( 0.26785716 0.2464286 0.21071433 0.27500004 )))
((( 0.24285717 0.25000003 0.23571432 0.27142859 )
( 0.23214288 0.24642861 0.24642861 0.275 ))
(( 0.25714287 0.2178572 0.28571433 0.23928572 )
( 0.25714287 0.2178572 0.28571433 0.23928572 ))))
(((( 0.21785715 0.25357148 0.26071432 0.26785716 )
( 0.21785715 0.25357148 0.26071432 0.26785716 ))
(( 0.21785715 0.25357148 0.26071432 0.26785716 )
( 0.22857143 0.2571429 0.25000003 0.26428574 )))
((( 0.22857143 0.2571429 0.25000003 0.26428574 )
( 0.21071431 0.2714286 0.2464286 0.2714286 ))
(( 0.20000002 0.26785716 0.25714287 0.27500004 )
( 0.20000002 0.26785716 0.25714287 0.27500004 )))))
((((( 0.25357145 0.22500004 0.26785716 0.25357145 )
( 0.24285717 0.25000003 0.2357143 0.27142859 ))
(( 0.24285717 0.25000003 0.2357143 0.27142859 )
( 0.23928574 0.25714287 0.21785715 0.2857143 )))
((( 0.2464286 0.2357143 0.21071431 0.3071429 )
( 0.25000003 0.22500001 0.20714287 0.31785718 ))
(( 0.25000003 0.22500001 0.20714287 0.31785718 )
( 0.25357145 0.21785715 0.22500004 0.30357146 ))))
(((( 0.21428573 0.25714287 0.2214286 0.30714288 )
( 0.21071431 0.26785716 0.22500002 0.2964286 ))
(( 0.21428573 0.26071432 0.24285717 0.28214288 )
( 0.21785715 0.25357145 0.26071432 0.26785716 )))
((( 0.20714286 0.25000003 0.27142859 0.27142859 )
( 0.20714286 0.25000003 0.27142859 0.2714286 ))
(( 0.21071431 0.23928574 0.26785716 0.2821429 )
( 0.21071431 0.23928574 0.26785716 0.2821429 ))))))
(((((( 0.21071431 0.2714286 0.2464286 0.2714286 )
( 0.21071431 0.2714286 0.2464286 0.2714286 ))
(( 0.22857144 0.25714287 0.25000003 0.26428574 )
( 0.24642858 0.24285719 0.25357145 0.25714287 )))
((( 0.24642858 0.24285717 0.25357145 0.25714287 )
( 0.24642858 0.24285717 0.25357145 0.25714287 ))
(( 0.24642858 0.24285717 0.25357145 0.25714287 )
( 0.24285714 0.25000003 0.2357143 0.27142859 ))))
(((( 0.25714287 0.24285714 0.2214286 0.27857146 )
( 0.25357145 0.25 0.20357145 0.29285717 ))
(( 0.25357145 0.24642856 0.18214287 0.31785718 )
( 0.2357143 0.2607143 0.17857145 0.32500002 )))
((( 0.23214288 0.27142856 0.18214288 0.31428576 )
( 0.23214288 0.27142856 0.18214288 0.31428576 ))
(( 0.2357143 0.2642857 0.20000003 0.3 )
( 0.23571432 0.2642857 0.20000003 0.3 )))))
((((( 0.21428572 0.26071432 0.24285717 0.28214288 )
( 0.20000002 0.26428574 0.2357143 0.29999998 ))
(( 0.20357145 0.25714287 0.25357145 0.28571433 )
( 0.20357145 0.25714287 0.25357145 0.28571433 )))
((( 0.22500001 0.23571432 0.27500004 0.26428574 )
( 0.22500001 0.23571432 0.27500004 0.26428574 ))
(( 0.22500001 0.23571432 0.27500004 0.26428574 )
( 0.23571429 0.23928574 0.26428574 0.26071432 ))))
(((( 0.23571429 0.23928574 0.26428574 0.26071432 )
( 0.22500001 0.23571432 0.27500004 0.26428574 ))
(( 0.22500001 0.23571432 0.27500004 0.26428574 )
( 0.22142859 0.24285717 0.25714287 0.27857146 )))
((( 0.23928572 0.22857144 0.26071432 0.2714286 )
( 0.21785717 0.27857143 0.19642858 0.30714288 ))
(( 0.20000003 0.29285717 0.19285716 0.31428576 )
( 0.21071431 0.3 0.20357145 0.28571433 ))))))))
(((((((( 0.29642862 0.23928574 0.22500002 0.23928574 )
( 0.23928574 0.25714287 0.21785717 0.28571433 ))
(( 0.24285717 0.2464286 0.21428575 0.29642862 )
( 0.20714286 0.27500004 0.2071429 0.31071427 )))
((( 0.2357143 0.23928574 0.26428574 0.26071432 )
( 0.23214288 0.25000003 0.26785716 0.25000003 ))
(( 0.21071431 0.2714286 0.2464286 0.27142859 )
( 0.20714287 0.27857146 0.22857144 0.2857143 ))))
(((( 0.19642858 0.2714286 0.21785715 0.3142857 )
( 0.19642858 0.2714286 0.21785715 0.3142857 ))
(( 0.19642858 0.2714286 0.21785715 0.3142857 )
( 0.19642858 0.2714286 0.21785715 0.3142857 )))
((( 0.20000002 0.26071432 0.21428572 0.32500002 )
( 0.20000002 0.26071432 0.21428572 0.32500002 ))
(( 0.19285716 0.27857146 0.2 0.32857147 )
( 0.19285716 0.27857146 0.2 0.32857147 )))))
((((( 0.21071433 0.26428574 0.20357144 0.32142857 )
( 0.21785717 0.27500004 0.175 0.3321429 ))
(( 0.22500002 0.25714287 0.18928573 0.32857147 )
( 0.22500002 0.25714287 0.18928573 0.32857147 )))
((( 0.2321429 0.23571429 0.18214287 0.35000005 )
( 0.24285717 0.23928571 0.17142858 0.3464286 ))
(( 0.25714287 0.2357143 0.17857145 0.32857147 )
( 0.24285719 0.23928571 0.17142858 0.3464286 ))))
(((( 0.22500002 0.25714287 0.18928574 0.32857147 )
( 0.21428573 0.25357145 0.20000002 0.33214286 ))
(( 0.21785715 0.2464286 0.21785715 0.31785718 )
( 0.20357145 0.25000003 0.21071431 0.3357143 )))
((( 0.21071431 0.23571432 0.2464286 0.30714288 )
( 0.21071431 0.23571432 0.2464286 0.30714288 ))
(( 0.20714287 0.24285719 0.22857144 0.32142857 )
( 0.20714287 0.24285719 0.22857144 0.32142857 ))))))
(((((( 0.21071431 0.2321429 0.22500001 0.33214283 )
( 0.22500002 0.22857144 0.23214288 0.3142857 ))
(( 0.22500002 0.22857144 0.23214288 0.3142857 )
( 0.22500002 0.22857144 0.23214288 0.3142857 )))
((( 0.22500001 0.22857144 0.23214288 0.3142857 )
( 0.21071431 0.26428574 0.20357144 0.32142857 ))
(( 0.21071431 0.26428574 0.20357144 0.32142857 )
( 0.22500002 0.2607143 0.2107143 0.30357143 ))))
(((( 0.22857144 0.25 0.20714287 0.31428573 )
( 0.22857144 0.25 0.20714287 0.31428573 ))
(( 0.23214288 0.23928572 0.20357144 0.32500002 )
( 0.26428574 0.22142859 0.21428575 0.3 )))
((( 0.27857146 0.21785715 0.2214286 0.2821429 )
( 0.26428574 0.22500002 0.23571432 0.27500004 ))
(( 0.24285717 0.2464286 0.21428575 0.2964286 )
( 0.24285717 0.2464286 0.21428575 0.2964286 )))))
((((( 0.23571432 0.26785716 0.2214286 0.275 )
( 0.25357145 0.25357145 0.22500002 0.26785716 ))
(( 0.23928574 0.26071432 0.23928574 0.2607143 )
( 0.21785717 0.2821429 0.21785715 0.28214288 )))
((( 0.18571432 0.3 0.20714286 0.30714288 )
( 0.18571432 0.3 0.20714286 0.30714288 ))
(( 0.18214288 0.30714288 0.18928573 0.3214286 )
( 0.18214288 0.30714288 0.18928573 0.3214286 ))))
(((( 0.2321429 0.27500004 0.20357144 0.28928572 )
( 0.22857146 0.2857143 0.20714286 0.27857143 ))
(( 0.22857146 0.2857143 0.20714286 0.27857143 )
( 0.22857146 0.2857143 0.20714286 0.27857143 )))
((( 0.25000003 0.2607143 0.20714287 0.28214288 )
( 0.25000003 0.2607143 0.20714287 0.28214288 ))
(( 0.26785716 0.2464286 0.21071433 0.275 )
( 0.26785716 0.2464286 0.21071433 0.275 )))))))
((((((( 0.25357145 0.25000003 0.20357145 0.29285717 )
( 0.2714286 0.2357143 0.20714287 0.2857143 ))
(( 0.2714286 0.2357143 0.20714287 0.2857143 )
( 0.26785716 0.2464286 0.21071433 0.27500004 )))
((( 0.24285717 0.25000003 0.23571432 0.27142859 )
( 0.23214288 0.24642861 0.24642861 0.275 ))
(( 0.25714287 0.2178572 0.28571433 0.23928572 )
( 0.25714287 0.2178572 0.28571433 0.23928572 ))))
(((( 0.21785715 0.25357148 0.26071432 0.26785716 )
( 0.21785715 0.25357148 0.26071432 0.26785716 ))
(( 0.21785715 0.25357148 0.26071432 0.26785716 )
( 0.22857143 0.2571429 0.25000003 0.26428574 )))
((( 0.22857143 0.2571429 0.25000003 0.26428574 )
( 0.21071431 0.2714286 0.2464286 0.2714286 ))
(( 0.20000002 0.26785716 0.25714287 0.27500004 )
( 0.20000002 0.26785716 0.25714287 0.27500004 )))))
((((( 0.25357145 0.22500004 0.26785716 0.25357145 )
( 0.24285717 0.25000003 0.2357143 0.27142859 ))
(( 0.24285717 0.25000003 0.2357143 0.27142859 )
( 0.23928574 0.25714287 0.21785715 0.2857143 )))
((( 0.2464286 0.2357143 0.21071431 0.3071429 )
( 0.25000003 0.22500001 0.20714287 0.31785718 ))
(( 0.25000003 0.22500001 0.20714287 0.31785718 )
( 0.25357145 0.21785715 0.22500004 0.30357146 ))))
(((( 0.21428573 0.25714287 0.2214286 0.30714288 )
( 0.21071431 0.26785716 0.22500002 0.2964286 ))
(( 0.21428573 0.26071432 0.24285717 0.28214288 )
( 0.21785715 0.25357145 0.26071432 0.26785716 )))
((( 0.20714286 0.25000003 0.27142859 0.27142859 )
( 0.20714286 0.25000003 0.27142859 0.2714286 ))
(( 0.21071431 0.23928574 0.26785716 0.2821429 )
( 0.21071431 0.23928574 0.26785716 0.2821429 ))))))
(((((( 0.21071431 0.2714286 0.2464286 0.2714286 )
( 0.21071431 0.2714286 0.2464286 0.2714286 ))
(( 0.22857144 0.25714287 0.25000003 0.26428574 )
( 0.24642858 0.24285719 0.25357145 0.25714287 )))
((( 0.24642858 0.24285717 0.25357145 0.25714287 )
( 0.24642858 0.24285717 0.25357145 0.25714287 ))
(( 0.24642858 0.24285717 0.25357145 0.25714287 )
( 0.24285714 0.25000003 0.2357143 0.27142859 ))))
(((( 0.25714287 0.24285714 0.2214286 0.27857146 )
( 0.25357145 0.25 0.20357145 0.29285717 ))
(( 0.25357145 0.24642856 0.18214287 0.31785718 )
( 0.2357143 0.2607143 0.17857145 0.32500002 )))
((( 0.23214288 0.27142856 0.18214288 0.31428576 )
( 0.23214288 0.27142856 0.18214288 0.31428576 ))
(( 0.2357143 0.2642857 0.20000003 0.3 )
( 0.23571432 0.2642857 0.20000003 0.3 )))))
((((( 0.21428572 0.26071432 0.24285717 0.28214288 )
( 0.20000002 0.26428574 0.2357143 0.29999998 ))
(( 0.20357145 0.25714287 0.25357145 0.28571433 )
( 0.20357145 0.25714287 0.25357145 0.28571433 )))
((( 0.22500001 0.23571432 0.27500004 0.26428574 )
( 0.22500001 0.23571432 0.27500004 0.26428574 ))
(( 0.22500001 0.23571432 0.27500004 0.26428574 )
( 0.23571429 0.23928574 0.26428574 0.26071432 ))))
(((( 0.23571429 0.23928574 0.26428574 0.26071432 )
( 0.22500001 0.23571432 0.27500004 0.26428574 ))
(( 0.22500001 0.23571432 0.27500004 0.26428574 )
( 0.22142859 0.24285717 0.25714287 0.27857146 )))
((( 0.23928572 0.22857144 0.26071432 0.2714286 )
( 0.21785717 0.27857143 0.19642858 0.30714288 ))
(( 0.20000003 0.29285717 0.19285716 0.31428576 )
( 0.21071431 0.3 0.20357145 0.28571433 ))))))))
(((((((( 0.29642862 0.23928574 0.22500002 0.23928574 )
( 0.23928574 0.25714287 0.21785717 0.28571433 ))
(( 0.24285717 0.2464286 0.21428575 0.29642862 )
( 0.20714286 0.27500004 0.2071429 0.31071427 )))
((( 0.2357143 0.23928574 0.26428574 0.26071432 )
( 0.23214288 0.25000003 0.26785716 0.25000003 ))
(( 0.21071431 0.2714286 0.2464286 0.27142859 )
( 0.20714287 0.27857146 0.22857144 0.2857143 ))))
(((( 0.19642858 0.2714286 0.21785715 0.3142857 )
( 0.19642858 0.2714286 0.21785715 0.3142857 ))
(( 0.19642858 0.2714286 0.21785715 0.3142857 )
( 0.19642858 0.2714286 0.21785715 0.3142857 )))
((( 0.20000002 0.26071432 0.21428572 0.32500002 )
( 0.20000002 0.26071432 0.21428572 0.32500002 ))
(( 0.19285716 0.27857146 0.2 0.32857147 )
( 0.19285716 0.27857146 0.2 0.32857147 )))))
((((( 0.21071433 0.26428574 0.20357144 0.32142857 )
( 0.21785717 0.27500004 0.175 0.3321429 ))
(( 0.22500002 0.25714287 0.18928573 0.32857147 )
( 0.22500002 0.25714287 0.18928573 0.32857147 )))
((( 0.2321429 0.23571429 0.18214287 0.35000005 )
( 0.24285717 0.23928571 0.17142858 0.3464286 ))
(( 0.25714287 0.2357143 0.17857145 0.32857147 )
( 0.24285719 0.23928571 0.17142858 0.3464286 ))))
(((( 0.22500002 0.25714287 0.18928574 0.32857147 )
( 0.21428573 0.25357145 0.20000002 0.33214286 ))
(( 0.21785715 0.2464286 0.21785715 0.31785718 )
( 0.20357145 0.25000003 0.21071431 0.3357143 )))
((( 0.21071431 0.23571432 0.2464286 0.30714288 )
( 0.21071431 0.23571432 0.2464286 0.30714288 ))
(( 0.20714287 0.24285719 0.22857144 0.32142857 )
( 0.20714287 0.24285719 0.22857144 0.32142857 ))))))
(((((( 0.21071431 0.2321429 0.22500001 0.33214283 )
( 0.22500002 0.22857144 0.23214288 0.3142857 ))
(( 0.22500002 0.22857144 0.23214288 0.3142857 )
( 0.22500002 0.22857144 0.23214288 0.3142857 )))
((( 0.22500001 0.22857144 0.23214288 0.3142857 )
( 0.21071431 0.26428574 0.20357144 0.32142857 ))
(( 0.21071431 0.26428574 0.20357144 0.32142857 )
( 0.22500002 0.2607143 0.2107143 0.30357143 ))))
(((( 0.22857144 0.25 0.20714287 0.31428573 )
( 0.22857144 0.25 0.20714287 0.31428573 ))
(( 0.23214288 0.23928572 0.20357144 0.32500002 )
( 0.26428574 0.22142859 0.21428575 0.3 )))
((( 0.27857146 0.21785715 0.2214286 0.2821429 )
( 0.26428574 0.22500002 0.23571432 0.27500004 ))
(( 0.24285717 0.2464286 0.21428575 0.2964286 )
( 0.24285717 0.2464286 0.21428575 0.2964286 )))))
((((( 0.23571432 0.26785716 0.2214286 0.275 )
( 0.25357145 0.25357145 0.22500002 0.26785716 ))
(( 0.23928574 0.26071432 0.23928574 0.2607143 )
( 0.21785717 0.2821429 0.21785715 0.28214288 )))
((( 0.18571432 0.3 0.20714286 0.30714288 )
( 0.18571432 0.3 0.20714286 0.30714288 ))
(( 0.18214288 0.30714288 0.18928573 0.3214286 )
( 0.18214288 0.30714288 0.18928573 0.3214286 ))))
(((( 0.2321429 0.27500004 0.20357144 0.28928572 )
( 0.22857146 0.2857143 0.20714286 0.27857143 ))
(( 0.22857146 0.2857143 0.20714286 0.27857143 )
( 0.22857146 0.2857143 0.20714286 0.27857143 )))
((( 0.25000003 0.2607143 0.20714287 0.28214288 )
( 0.25000003 0.2607143 0.20714287 0.28214288 ))
(( 0.26785716 0.2464286 0.21071433 0.275 )
( 0.26785716 0.2464286 0.21071433 0.275 )))))))
((((((( 0.25357145 0.25000003 0.20357145 0.29285717 )
( 0.2714286 0.2357143 0.20714287 0.2857143 ))
(( 0.2714286 0.2357143 0.20714287 0.2857143 )
( 0.26785716 0.2464286 0.21071433 0.27500004 )))
((( 0.24285717 0.25000003 0.23571432 0.27142859 )
( 0.23214288 0.24642861 0.24642861 0.275 ))
(( 0.25714287 0.2178572 0.28571433 0.23928572 )
( 0.25714287 0.2178572 0.28571433 0.23928572 ))))
(((( 0.21785715 0.25357148 0.26071432 0.26785716 )
( 0.21785715 0.25357148 0.26071432 0.26785716 ))
(( 0.21785715 0.25357148 0.26071432 0.26785716 )
( 0.22857143 0.2571429 0.25000003 0.26428574 )))
((( 0.22857143 0.2571429 0.25000003 0.26428574 )
( 0.21071431 0.2714286 0.2464286 0.2714286 ))
(( 0.20000002 0.26785716 0.25714287 0.27500004 )
( 0.20000002 0.26785716 0.25714287 0.27500004 )))))
((((( 0.25357145 0.22500004 0.26785716 0.25357145 )
( 0.24285717 0.25000003 0.2357143 0.27142859 ))
(( 0.24285717 0.25000003 0.2357143 0.27142859 )
( 0.23928574 0.25714287 0.21785715 0.2857143 )))
((( 0.2464286 0.2357143 0.21071431 0.3071429 )
( 0.25000003 0.22500001 0.20714287 0.31785718 ))
(( 0.25000003 0.22500001 0.20714287 0.31785718 )
( 0.25357145 0.21785715 0.22500004 0.30357146 ))))
(((( 0.21428573 0.25714287 0.2214286 0.30714288 )
( 0.21071431 0.26785716 0.22500002 0.2964286 ))
(( 0.21428573 0.26071432 0.24285717 0.28214288 )
( 0.21785715 0.25357145 0.26071432 0.26785716 )))
((( 0.20714286 0.25000003 0.27142859 0.27142859 )
( 0.20714286 0.25000003 0.27142859 0.2714286 ))
(( 0.21071431 0.23928574 0.26785716 0.2821429 )
( 0.21071431 0.23928574 0.26785716 0.2821429 ))))))
(((((( 0.21071431 0.2714286 0.2464286 0.2714286 )
( 0.21071431 0.2714286 0.2464286 0.2714286 ))
(( 0.22857144 0.25714287 0.25000003 0.26428574 )
( 0.24642858 0.24285719 0.25357145 0.25714287 )))
((( 0.24642858 0.24285717 0.25357145 0.25714287 )
( 0.24642858 0.24285717 0.25357145 0.25714287 ))
(( 0.24642858 0.24285717 0.25357145 0.25714287 )
( 0.24285714 0.25000003 0.2357143 0.27142859 ))))
(((( 0.25714287 0.24285714 0.2214286 0.27857146 )
( 0.25357145 0.25 0.20357145 0.29285717 ))
(( 0.25357145 0.24642856 0.18214287 0.31785718 )
( 0.2357143 0.2607143 0.17857145 0.32500002 )))
((( 0.23214288 0.27142856 0.18214288 0.31428576 )
( 0.23214288 0.27142856 0.18214288 0.31428576 ))
(( 0.2357143 0.2642857 0.20000003 0.3 )
( 0.23571432 0.2642857 0.20000003 0.3 )))))
((((( 0.21428572 0.26071432 0.24285717 0.28214288 )
( 0.20000002 0.26428574 0.2357143 0.29999998 ))
(( 0.20357145 0.25714287 0.25357145 0.28571433 )
( 0.20357145 0.25714287 0.25357145 0.28571433 )))
((( 0.22500001 0.23571432 0.27500004 0.26428574 )
( 0.22500001 0.23571432 0.27500004 0.26428574 ))
(( 0.22500001 0.23571432 0.27500004 0.26428574 )
( 0.23571429 0.23928574 0.26428574 0.26071432 ))))
(((( 0.23571429 0.23928574 0.26428574 0.26071432 )
( 0.22500001 0.23571432 0.27500004 0.26428574 ))
(( 0.22500001 0.23571432 0.27500004 0.26428574 )
( 0.22142859 0.24285717 0.25714287 0.27857146 )))
((( 0.23928572 0.22857144 0.26071432 0.2714286 )
( 0.21785717 0.27857143 0.19642858 0.30714288 ))
(( 0.20000003 0.29285717 0.19285716 0.31428576 )
( 0.21071431 0.3 0.20357145 0.28571433 ))))))))
(((((((( 0.29642862 0.23928574 0.22500002 0.23928574 )
( 0.23928574 0.25714287 0.21785717 0.28571433 ))
(( 0.24285717 0.2464286 0.21428575 0.29642862 )
( 0.20714286 0.27500004 0.2071429 0.31071427 )))
((( 0.2357143 0.23928574 0.26428574 0.26071432 )
( 0.23214288 0.25000003 0.26785716 0.25000003 ))
(( 0.21071431 0.2714286 0.2464286 0.27142859 )
( 0.20714287 0.27857146 0.22857144 0.2857143 ))))
(((( 0.19642858 0.2714286 0.21785715 0.3142857 )
( 0.19642858 0.2714286 0.21785715 0.3142857 ))
(( 0.19642858 0.2714286 0.21785715 0.3142857 )
( 0.19642858 0.2714286 0.21785715 0.3142857 )))
((( 0.20000002 0.26071432 0.21428572 0.32500002 )
( 0.20000002 0.26071432 0.21428572 0.32500002 ))
(( 0.19285716 0.27857146 0.2 0.32857147 )
( 0.19285716 0.27857146 0.2 0.32857147 )))))
((((( 0.21071433 0.26428574 0.20357144 0.32142857 )
( 0.21785717 0.27500004 0.175 0.3321429 ))
(( 0.22500002 0.25714287 0.18928573 0.32857147 )
( 0.22500002 0.25714287 0.18928573 0.32857147 )))
((( 0.2321429 0.23571429 0.18214287 0.35000005 )
( 0.24285717 0.23928571 0.17142858 0.3464286 ))
(( 0.25714287 0.2357143 0.17857145 0.32857147 )
( 0.24285719 0.23928571 0.17142858 0.3464286 ))))
(((( 0.22500002 0.25714287 0.18928574 0.32857147 )
( 0.21428573 0.25357145 0.20000002 0.33214286 ))
(( 0.21785715 0.2464286 0.21785715 0.31785718 )
( 0.20357145 0.25000003 0.21071431 0.3357143 )))
((( 0.21071431 0.23571432 0.2464286 0.30714288 )
( 0.21071431 0.23571432 0.2464286 0.30714288 ))
(( 0.20714287 0.24285719 0.22857144 0.32142857 )
( 0.20714287 0.24285719 0.22857144 0.32142857 ))))))
(((((( 0.21071431 0.2321429 0.22500001 0.33214283 )
( 0.22500002 0.22857144 0.23214288 0.3142857 ))
(( 0.22500002 0.22857144 0.23214288 0.3142857 )
( 0.22500002 0.22857144 0.23214288 0.3142857 )))
((( 0.22500001 0.22857144 0.23214288 0.3142857 )
( 0.21071431 0.26428574 0.20357144 0.32142857 ))
(( 0.21071431 0.26428574 0.20357144 0.32142857 )
( 0.22500002 0.2607143 0.2107143 0.30357143 ))))
(((( 0.22857144 0.25 0.20714287 0.31428573 )
( 0.22857144 0.25 0.20714287 0.31428573 ))
(( 0.23214288 0.23928572 0.20357144 0.32500002 )
( 0.26428574 0.22142859 0.21428575 0.3 )))
((( 0.27857146 0.21785715 0.2214286 0.2821429 )
( 0.26428574 0.22500002 0.23571432 0.27500004 ))
(( 0.24285717 0.2464286 0.21428575 0.2964286 )
( 0.24285717 0.2464286 0.21428575 0.2964286 )))))
((((( 0.23571432 0.26785716 0.2214286 0.275 )
( 0.25357145 0.25357145 0.22500002 0.26785716 ))
(( 0.23928574 0.26071432 0.23928574 0.2607143 )
( 0.21785717 0.2821429 0.21785715 0.28214288 )))
((( 0.18571432 0.3 0.20714286 0.30714288 )
( 0.18571432 0.3 0.20714286 0.30714288 ))
(( 0.18214288 0.30714288 0.18928573 0.3214286 )
( 0.18214288 0.30714288 0.18928573 0.3214286 ))))
(((( 0.2321429 0.27500004 0.20357144 0.28928572 )
( 0.22857146 0.2857143 0.20714286 0.27857143 ))
(( 0.22857146 0.2857143 0.20714286 0.27857143 )
( 0.22857146 0.2857143 0.20714286 0.27857143 )))
((( 0.25000003 0.2607143 0.20714287 0.28214288 )
( 0.25000003 0.2607143 0.20714287 0.28214288 ))
(( 0.26785716 0.2464286 0.21071433 0.275 )
( 0.26785716 0.2464286 0.21071433 0.275 )))))))
((((((( 0.25357145 0.25000003 0.20357145 0.29285717 )
( 0.2714286 0.2357143 0.20714287 0.2857143 ))
(( 0.2714286 0.2357143 0.20714287 0.2857143 )
( 0.26785716 0.2464286 0.21071433 0.27500004 )))
((( 0.24285717 0.25000003 0.23571432 0.27142859 )
( 0.23214288 0.24642861 0.24642861 0.275 ))
(( 0.25714287 0.2178572 0.28571433 0.23928572 )
( 0.25714287 0.2178572 0.28571433 0.23928572 ))))
(((( 0.21785715 0.25357148 0.26071432 0.26785716 )
( 0.21785715 0.25357148 0.26071432 0.26785716 ))
(( 0.21785715 0.25357148 0.26071432 0.26785716 )
( 0.22857143 0.2571429 0.25000003 0.26428574 )))
((( 0.22857143 0.2571429 0.25000003 0.26428574 )
( 0.21071431 0.2714286 0.2464286 0.2714286 ))
(( 0.20000002 0.26785716 0.25714287 0.27500004 )
( 0.20000002 0.26785716 0.25714287 0.27500004 )))))
((((( 0.25357145 0.22500004 0.26785716 0.25357145 )
( 0.24285717 0.25000003 0.2357143 0.27142859 ))
(( 0.24285717 0.25000003 0.2357143 0.27142859 )
( 0.23928574 0.25714287 0.21785715 0.2857143 )))
((( 0.2464286 0.2357143 0.21071431 0.3071429 )
( 0.25000003 0.22500001 0.20714287 0.31785718 ))
(( 0.25000003 0.22500001 0.20714287 0.31785718 )
( 0.25357145 0.21785715 0.22500004 0.30357146 ))))
(((( 0.21428573 0.25714287 0.2214286 0.30714288 )
( 0.21071431 0.26785716 0.22500002 0.2964286 ))
(( 0.21428573 0.26071432 0.24285717 0.28214288 )
( 0.21785715 0.25357145 0.26071432 0.26785716 )))
((( 0.20714286 0.25000003 0.27142859 0.27142859 )
( 0.20714286 0.25000003 0.27142859 0.2714286 ))
(( 0.21071431 0.23928574 0.26785716 0.2821429 )
( 0.21071431 0.23928574 0.26785716 0.2821429 ))))))
(((((( 0.21071431 0.2714286 0.2464286 0.2714286 )
( 0.21071431 0.2714286 0.2464286 0.2714286 ))
(( 0.22857144 0.25714287 0.25000003 0.26428574 )
( 0.24642858 0.24285719 0.25357145 0.25714287 )))
((( 0.24642858 0.24285717 0.25357145 0.25714287 )
( 0.24642858 0.24285717 0.25357145 0.25714287 ))
(( 0.24642858 0.24285717 0.25357145 0.25714287 )
( 0.24285714 0.25000003 0.2357143 0.27142859 ))))
(((( 0.25714287 0.24285714 0.2214286 0.27857146 )
( 0.25357145 0.25 0.20357145 0.29285717 ))
(( 0.25357145 0.24642856 0.18214287 0.31785718 )
( 0.2357143 0.2607143 0.17857145 0.32500002 )))
((( 0.23214288 0.27142856 0.18214288 0.31428576 )
( 0.23214288 0.27142856 0.18214288 0.31428576 ))
(( 0.2357143 0.2642857 0.20000003 0.3 )
( 0.23571432 0.2642857 0.20000003 0.3 )))))
((((( 0.21428572 0.26071432 0.24285717 0.28214288 )
( 0.20000002 0.26428574 0.2357143 0.29999998 ))
(( 0.20357145 0.25714287 0.25357145 0.28571433 )
( 0.20357145 0.25714287 0.25357145 0.28571433 )))
((( 0.22500001 0.23571432 0.27500004 0.26428574 )
( 0.22500001 0.23571432 0.27500004 0.26428574 ))
(( 0.22500001 0.23571432 0.27500004 0.26428574 )
( 0.23571429 0.23928574 0.26428574 0.26071432 ))))
(((( 0.23571429 0.23928574 0.26428574 0.26071432 )
( 0.22500001 0.23571432 0.27500004 0.26428574 ))
(( 0.22500001 0.23571432 0.27500004 0.26428574 )
( 0.22142859 0.24285717 0.25714287 0.27857146 )))
((( 0.23928572 0.22857144 0.26071432 0.2714286 )
( 0.21785717 0.27857143 0.19642858 0.30714288 ))
(( 0.20000003 0.29285717 0.19285716 0.31428576 )
( 0.21071431 0.3 0.20357145 0.28571433 ))))))))
(((((((( 0.29642862 0.23928574 0.22500002 0.23928574 )
( 0.23928574 0.25714287 0.21785717 0.28571433 ))
(( 0.24285717 0.2464286 0.21428575 0.29642862 )
( 0.20714286 0.27500004 0.2071429 0.31071427 )))
((( 0.2357143 0.23928574 0.26428574 0.26071432 )
( 0.23214288 0.25000003 0.26785716 0.25000003 ))
(( 0.21071431 0.2714286 0.2464286 0.27142859 )
( 0.20714287 0.27857146 0.22857144 0.2857143 ))))
(((( 0.19642858 0.2714286 0.21785715 0.3142857 )
( 0.19642858 0.2714286 0.21785715 0.3142857 ))
(( 0.19642858 0.2714286 0.21785715 0.3142857 )
( 0.19642858 0.2714286 0.21785715 0.3142857 )))
((( 0.20000002 0.26071432 0.21428572 0.32500002 )
( 0.20000002 0.26071432 0.21428572 0.32500002 ))
(( 0.19285716 0.27857146 0.2 0.32857147 )
( 0.19285716 0.27857146 0.2 0.32857147 )))))
((((( 0.21071433 0.26428574 0.20357144 0.32142857 )
( 0.21785717 0.27500004 0.175 0.3321429 ))
(( 0.22500002 0.25714287 0.18928573 0.32857147 )
( 0.22500002 0.25714287 0.18928573 0.32857147 )))
((( 0.2321429 0.23571429 0.18214287 0.35000005 )
( 0.24285717 0.23928571 0.17142858 0.3464286 ))
(( 0.25714287 0.2357143 0.17857145 0.32857147 )
( 0.24285719 0.23928571 0.17142858 0.3464286 ))))
(((( 0.22500002 0.25714287 0.18928574 0.32857147 )
( 0.21428573 0.25357145 0.20000002 0.33214286 ))
(( 0.21785715 0.2464286 0.21785715 0.31785718 )
( 0.20357145 0.25000003 0.21071431 0.3357143 )))
((( 0.21071431 0.23571432 0.2464286 0.30714288 )
( 0.21071431 0.23571432 0.2464286 0.30714288 ))
(( 0.20714287 0.24285719 0.22857144 0.32142857 )
( 0.20714287 0.24285719 0.22857144 0.32142857 ))))))
(((((( 0.21071431 0.2321429 0.22500001 0.33214283 )
( 0.22500002 0.22857144 0.23214288 0.3142857 ))
(( 0.22500002 0.22857144 0.23214288 0.3142857 )
( 0.22500002 0.22857144 0.23214288 0.3142857 )))
((( 0.22500001 0.22857144 0.23214288 0.3142857 )
( 0.21071431 0.26428574 0.20357144 0.32142857 ))
(( 0.21071431 0.26428574 0.20357144 0.32142857 )
( 0.22500002 0.2607143 0.2107143 0.30357143 ))))
(((( 0.22857144 0.25 0.20714287 0.31428573 )
( 0.22857144 0.25 0.20714287 0.31428573 ))
(( 0.23214288 0.23928572 0.20357144 0.32500002 )
( 0.26428574 0.22142859 0.21428575 0.3 )))
((( 0.27857146 0.21785715 0.2214286 0.2821429 )
( 0.26428574 0.22500002 0.23571432 0.27500004 ))
(( 0.24285717 0.2464286 0.21428575 0.2964286 )
( 0.24285717 0.2464286 0.21428575 0.2964286 )))))
((((( 0.23571432 0.26785716 0.2214286 0.275 )
( 0.25357145 0.25357145 0.22500002 0.26785716 ))
(( 0.23928574 0.26071432 0.23928574 0.2607143 )
( 0.21785717 0.2821429 0.21785715 0.28214288 )))
((( 0.18571432 0.3 0.20714286 0.30714288 )
( 0.18571432 0.3 0.20714286 0.30714288 ))
(( 0.18214288 0.30714288 0.18928573 0.3214286 )
( 0.18214288 0.30714288 0.18928573 0.3214286 ))))
(((( 0.2321429 0.27500004 0.20357144 0.28928572 )
( 0.22857146 0.2857143 0.20714286 0.27857143 ))
(( 0.22857146 0.2857143 0.20714286 0.27857143 )
( 0.22857146 0.2857143 0.20714286 0.27857143 )))
((( 0.25000003 0.2607143 0.20714287 0.28214288 )
( 0.25000003 0.2607143 0.20714287 0.28214288 ))
(( 0.26785716 0.2464286 0.21071433 0.275 )
( 0.26785716 0.2464286 0.21071433 0.275 )))))))
((((((( 0.25357145 0.25000003 0.20357145 0.29285717 )
( 0.2714286 0.2357143 0.20714287 0.2857143 ))
(( 0.2714286 0.2357143 0.20714287 0.2857143 )
( 0.26785716 0.2464286 0.21071433 0.27500004 )))
((( 0.24285717 0.25000003 0.23571432 0.27142859 )
( 0.23214288 0.24642861 0.24642861 0.275 ))
(( 0.25714287 0.2178572 0.28571433 0.23928572 )
( 0.25714287 0.2178572 0.28571433 0.23928572 ))))
(((( 0.21785715 0.25357148 0.26071432 0.26785716 )
( 0.21785715 0.25357148 0.26071432 0.26785716 ))
(( 0.21785715 0.25357148 0.26071432 0.26785716 )
( 0.22857143 0.2571429 0.25000003 0.26428574 )))
((( 0.22857143 0.2571429 0.25000003 0.26428574 )
( 0.21071431 0.2714286 0.2464286 0.2714286 ))
(( 0.20000002 0.26785716 0.25714287 0.27500004 )
( 0.20000002 0.26785716 0.25714287 0.27500004 )))))
((((( 0.25357145 0.22500004 0.26785716 0.25357145 )
( 0.24285717 0.25000003 0.2357143 0.27142859 ))
(( 0.24285717 0.25000003 0.2357143 0.27142859 )
( 0.23928574 0.25714287 0.21785715 0.2857143 )))
((( 0.2464286 0.2357143 0.21071431 0.3071429 )
( 0.25000003 0.22500001 0.20714287 0.31785718 ))
(( 0.25000003 0.22500001 0.20714287 0.31785718 )
( 0.25357145 0.21785715 0.22500004 0.30357146 ))))
(((( 0.21428573 0.25714287 0.2214286 0.30714288 )
( 0.21071431 0.26785716 0.22500002 0.2964286 ))
(( 0.21428573 0.26071432 0.24285717 0.28214288 )
( 0.21785715 0.25357145 0.26071432 0.26785716 )))
((( 0.20714286 0.25000003 0.27142859 0.27142859 )
( 0.20714286 0.25000003 0.27142859 0.2714286 ))
(( 0.21071431 0.23928574 0.26785716 0.2821429 )
( 0.21071431 0.23928574 0.26785716 0.2821429 ))))))
(((((( 0.21071431 0.2714286 0.2464286 0.2714286 )
( 0.21071431 0.2714286 0.2464286 0.2714286 ))
(( 0.22857144 0.25714287 0.25000003 0.26428574 )
( 0.24642858 0.24285719 0.25357145 0.25714287 )))
((( 0.24642858 0.24285717 0.25357145 0.25714287 )
( 0.24642858 0.24285717 0.25357145 0.25714287 ))
(( 0.24642858 0.24285717 0.25357145 0.25714287 )
( 0.24285714 0.25000003 0.2357143 0.27142859 ))))
(((( 0.25714287 0.24285714 0.2214286 0.27857146 )
( 0.25357145 0.25 0.20357145 0.29285717 ))
(( 0.25357145 0.24642856 0.18214287 0.31785718 )
( 0.2357143 0.2607143 0.17857145 0.32500002 )))
((( 0.23214288 0.27142856 0.18214288 0.31428576 )
( 0.23214288 0.27142856 0.18214288 0.31428576 ))
(( 0.2357143 0.2642857 0.20000003 0.3 )
( 0.23571432 0.2642857 0.20000003 0.3 )))))
((((( 0.21428572 0.26071432 0.24285717 0.28214288 )
( 0.20000002 0.26428574 0.2357143 0.29999998 ))
(( 0.20357145 0.25714287 0.25357145 0.28571433 )
( 0.20357145 0.25714287 0.25357145 0.28571433 )))
((( 0.22500001 0.23571432 0.27500004 0.26428574 )
( 0.22500001 0.23571432 0.27500004 0.26428574 ))
(( 0.22500001 0.23571432 0.27500004 0.26428574 )
( 0.23571429 0.23928574 0.26428574 0.26071432 ))))
(((( 0.23571429 0.23928574 0.26428574 0.26071432 )
( 0.22500001 0.23571432 0.27500004 0.26428574 ))
(( 0.22500001 0.23571432 0.27500004 0.26428574 )
( 0.22142859 0.24285717 0.25714287 0.27857146 )))
((( 0.23928572 0.22857144 0.26071432 0.2714286 )
( 0.21785717 0.27857143 0.19642858 0.30714288 ))
(( 0.20000003 0.29285717 0.19285716 0.31428576 )
( 0.21071431 0.3 0.20357145 0.28571433 ))))))))
(((((((( 0.29642862 0.23928574 0.22500002 0.23928574 )
( 0.23928574 0.25714287 0.21785717 0.28571433 ))
(( 0.24285717 0.2464286 0.21428575 0.29642862 )
( 0.20714286 0.27500004 0.2071429 0.31071427 )))
((( 0.2357143 0.23928574 0.26428574 0.26071432 )
( 0.23214288 0.25000003 0.26785716 0.25000003 ))
(( 0.21071431 0.2714286 0.2464286 0.27142859 )
( 0.20714287 0.27857146 0.22857144 0.2857143 ))))
(((( 0.19642858 0.2714286 0.21785715 0.3142857 )
( 0.19642858 0.2714286 0.21785715 0.3142857 ))
(( 0.19642858 0.2714286 0.21785715 0.3142857 )
( 0.19642858 0.2714286 0.21785715 0.3142857 )))
((( 0.20000002 0.26071432 0.21428572 0.32500002 )
( 0.20000002 0.26071432 0.21428572 0.32500002 ))
(( 0.19285716 0.27857146 0.2 0.32857147 )
( 0.19285716 0.27857146 0.2 0.32857147 )))))
((((( 0.21071433 0.26428574 0.20357144 0.32142857 )
( 0.21785717 0.27500004 0.175 0.3321429 ))
(( 0.22500002 0.25714287 0.18928573 0.32857147 )
( 0.22500002 0.25714287 0.18928573 0.32857147 )))
((( 0.2321429 0.23571429 0.18214287 0.35000005 )
( 0.24285717 0.23928571 0.17142858 0.3464286 ))
(( 0.25714287 0.2357143 0.17857145 0.32857147 )
( 0.24285719 0.23928571 0.17142858 0.3464286 ))))
(((( 0.22500002 0.25714287 0.18928574 0.32857147 )
( 0.21428573 0.25357145 0.20000002 0.33214286 ))
(( 0.21785715 0.2464286 0.21785715 0.31785718 )
( 0.20357145 0.25000003 0.21071431 0.3357143 )))
((( 0.21071431 0.23571432 0.2464286 0.30714288 )
( 0.21071431 0.23571432 0.2464286 0.30714288 ))
(( 0.20714287 0.24285719 0.22857144 0.32142857 )
( 0.20714287 0.24285719 0.22857144 0.32142857 ))))))
(((((( 0.21071431 0.2321429 0.22500001 0.33214283 )
( 0.22500002 0.22857144 0.23214288 0.3142857 ))
(( 0.22500002 0.22857144 0.23214288 0.3142857 )
( 0.22500002 0.22857144 0.23214288 0.3142857 )))
((( 0.22500001 0.22857144 0.23214288 0.3142857 )
( 0.21071431 0.26428574 0.20357144 0.32142857 ))
(( 0.21071431 0.26428574 0.20357144 0.32142857 )
( 0.22500002 0.2607143 0.2107143 0.30357143 ))))
(((( 0.22857144 0.25 0.20714287 0.31428573 )
( 0.22857144 0.25 0.20714287 0.31428573 ))
(( 0.23214288 0.23928572 0.20357144 0.32500002 )
( 0.26428574 0.22142859 0.21428575 0.3 )))
((( 0.27857146 0.21785715 0.2214286 0.2821429 )
( 0.26428574 0.22500002 0.23571432 0.27500004 ))
(( 0.24285717 0.2464286 0.21428575 0.2964286 )
( 0.24285717 0.2464286 0.21428575 0.2964286 )))))
((((( 0.23571432 0.26785716 0.2214286 0.275 )
( 0.25357145 0.25357145 0.22500002 0.26785716 ))
(( 0.23928574 0.26071432 0.23928574 0.2607143 )
( 0.21785717 0.2821429 0.21785715 0.28214288 )))
((( 0.18571432 0.3 0.20714286 0.30714288 )
( 0.18571432 0.3 0.20714286 0.30714288 ))
(( 0.18214288 0.30714288 0.18928573 0.3214286 )
( 0.18214288 0.30714288 0.18928573 0.3214286 ))))
(((( 0.2321429 0.27500004 0.20357144 0.28928572 )
( 0.22857146 0.2857143 0.20714286 0.27857143 ))
(( 0.22857146 0.2857143 0.20714286 0.27857143 )
( 0.22857146 0.2857143 0.20714286 0.27857143 )))
((( 0.25000003 0.2607143 0.20714287 0.28214288 )
( 0.25000003 0.2607143 0.20714287 0.28214288 ))
(( 0.26785716 0.2464286 0.21071433 0.275 )
( 0.26785716 0.2464286 0.21071433 0.275 )))))))
((((((( 0.25357145 0.25000003 0.20357145 0.29285717 )
( 0.2714286 0.2357143 0.20714287 0.2857143 ))
(( 0.2714286 0.2357143 0.20714287 0.2857143 )
( 0.26785716 0.2464286 0.21071433 0.27500004 )))
((( 0.24285717 0.25000003 0.23571432 0.27142859 )
( 0.23214288 0.24642861 0.24642861 0.275 ))
(( 0.25714287 0.2178572 0.28571433 0.23928572 )
( 0.25714287 0.2178572 0.28571433 0.23928572 ))))
(((( 0.21785715 0.25357148 0.26071432 0.26785716 )
( 0.21785715 0.25357148 0.26071432 0.26785716 ))
(( 0.21785715 0.25357148 0.26071432 0.26785716 )
( 0.22857143 0.2571429 0.25000003 0.26428574 )))
((( 0.22857143 0.2571429 0.25000003 0.26428574 )
( 0.21071431 0.2714286 0.2464286 0.2714286 ))
(( 0.20000002 0.26785716 0.25714287 0.27500004 )
( 0.20000002 0.26785716 0.25714287 0.27500004 )))))
((((( 0.25357145 0.22500004 0.26785716 0.25357145 )
( 0.24285717 0.25000003 0.2357143 0.27142859 ))
(( 0.24285717 0.25000003 0.2357143 0.27142859 )
( 0.23928574 0.25714287 0.21785715 0.2857143 )))
((( 0.2464286 0.2357143 0.21071431 0.3071429 )
( 0.25000003 0.22500001 0.20714287 0.31785718 ))
(( 0.25000003 0.22500001 0.20714287 0.31785718 )
( 0.25357145 0.21785715 0.22500004 0.30357146 ))))
(((( 0.21428573 0.25714287 0.2214286 0.30714288 )
( 0.21071431 0.26785716 0.22500002 0.2964286 ))
(( 0.21428573 0.26071432 0.24285717 0.28214288 )
( 0.21785715 0.25357145 0.26071432 0.26785716 )))
((( 0.20714286 0.25000003 0.27142859 0.27142859 )
( 0.20714286 0.25000003 0.27142859 0.2714286 ))
(( 0.21071431 0.23928574 0.26785716 0.2821429 )
( 0.21071431 0.23928574 0.26785716 0.2821429 ))))))
(((((( 0.21071431 0.2714286 0.2464286 0.2714286 )
( 0.21071431 0.2714286 0.2464286 0.2714286 ))
(( 0.22857144 0.25714287 0.25000003 0.26428574 )
( 0.24642858 0.24285719 0.25357145 0.25714287 )))
((( 0.24642858 0.24285717 0.25357145 0.25714287 )
( 0.24642858 0.24285717 0.25357145 0.25714287 ))
(( 0.24642858 0.24285717 0.25357145 0.25714287 )
( 0.24285714 0.25000003 0.2357143 0.27142859 ))))
(((( 0.25714287 0.24285714 0.2214286 0.27857146 )
( 0.25357145 0.25 0.20357145 0.29285717 ))
(( 0.25357145 0.24642856 0.18214287 0.31785718 )
( 0.2357143 0.2607143 0.17857145 0.32500002 )))
((( 0.23214288 0.27142856 0.18214288 0.31428576 )
( 0.23214288 0.27142856 0.18214288 0.31428576 ))
(( 0.2357143 0.2642857 0.20000003 0.3 )
( 0.23571432 0.2642857 0.20000003 0.3 )))))
((((( 0.21428572 0.26071432 0.24285717 0.28214288 )
( 0.20000002 0.26428574 0.2357143 0.29999998 ))
(( 0.20357145 0.25714287 0.25357145 0.28571433 )
( 0.20357145 0.25714287 0.25357145 0.28571433 )))
((( 0.22500001 0.23571432 0.27500004 0.26428574 )
( 0.22500001 0.23571432 0.27500004 0.26428574 ))
(( 0.22500001 0.23571432 0.27500004 0.26428574 )
( 0.23571429 0.23928574 0.26428574 0.26071432 ))))
(((( 0.23571429 0.23928574 0.26428574 0.26071432 )
( 0.22500001 0.23571432 0.27500004 0.26428574 ))
(( 0.22500001 0.23571432 0.27500004 0.26428574 )
( 0.22142859 0.24285717 0.25714287 0.27857146 )))
((( 0.23928572 0.22857144 0.26071432 0.2714286 )
( 0.21785717 0.27857143 0.19642858 0.30714288 ))
(( 0.20000003 0.29285717 0.19285716 0.31428576 )
( 0.21071431 0.3 0.20357145 0.28571433 ))))))))
(((((((( 0.29642862 0.23928574 0.22500002 0.23928574 )
( 0.23928574 0.25714287 0.21785717 0.28571433 ))
(( 0.24285717 0.2464286 0.21428575 0.29642862 )
( 0.20714286 0.27500004 0.2071429 0.31071427 )))
((( 0.2357143 0.23928574 0.26428574 0.26071432 )
( 0.23214288 0.25000003 0.26785716 0.25000003 ))
(( 0.21071431 0.2714286 0.2464286 0.27142859 )
( 0.20714287 0.27857146 0.22857144 0.2857143 ))))
(((( 0.19642858 0.2714286 0.21785715 0.3142857 )
( 0.19642858 0.2714286 0.21785715 0.3142857 ))
(( 0.19642858 0.2714286 0.21785715 0.3142857 )
( 0.19642858 0.2714286 0.21785715 0.3142857 )))
((( 0.20000002 0.26071432 0.21428572 0.32500002 )
( 0.20000002 0.26071432 0.21428572 0.32500002 ))
(( 0.19285716 0.27857146 0.2 0.32857147 )
( 0.19285716 0.27857146 0.2 0.32857147 )))))
((((( 0.21071433 0.26428574 0.20357144 0.32142857 )
( 0.21785717 0.27500004 0.175 0.3321429 ))
(( 0.22500002 0.25714287 0.18928573 0.32857147 )
( 0.22500002 0.25714287 0.18928573 0.32857147 )))
((( 0.2321429 0.23571429 0.18214287 0.35000005 )
( 0.24285717 0.23928571 0.17142858 0.3464286 ))
(( 0.25714287 0.2357143 0.17857145 0.32857147 )
( 0.24285719 0.23928571 0.17142858 0.3464286 ))))
(((( 0.22500002 0.25714287 0.18928574 0.32857147 )
( 0.21428573 0.25357145 0.20000002 0.33214286 ))
(( 0.21785715 0.2464286 0.21785715 0.31785718 )
( 0.20357145 0.25000003 0.21071431 0.3357143 )))
((( 0.21071431 0.23571432 0.2464286 0.30714288 )
( 0.21071431 0.23571432 0.2464286 0.30714288 ))
(( 0.20714287 0.24285719 0.22857144 0.32142857 )
( 0.20714287 0.24285719 0.22857144 0.32142857 ))))))
(((((( 0.21071431 0.2321429 0.22500001 0.33214283 )
( 0.22500002 0.22857144 0.23214288 0.3142857 ))
(( 0.22500002 0.22857144 0.23214288 0.3142857 )
( 0.22500002 0.22857144 0.23214288 0.3142857 )))
((( 0.22500001 0.22857144 0.23214288 0.3142857 )
( 0.21071431 0.26428574 0.20357144 0.32142857 ))
(( 0.21071431 0.26428574 0.20357144 0.32142857 )
( 0.22500002 0.2607143 0.2107143 0.30357143 ))))
(((( 0.22857144 0.25 0.20714287 0.31428573 )
( 0.22857144 0.25 0.20714287 0.31428573 ))
(( 0.23214288 0.23928572 0.20357144 0.32500002 )
( 0.26428574 0.22142859 0.21428575 0.3 )))
((( 0.27857146 0.21785715 0.2214286 0.2821429 )
( 0.26428574 0.22500002 0.23571432 0.27500004 ))
(( 0.24285717 0.2464286 0.21428575 0.2964286 )
( 0.24285717 0.2464286 0.21428575 0.2964286 )))))
((((( 0.23571432 0.26785716 0.2214286 0.275 )
( 0.25357145 0.25357145 0.22500002 0.26785716 ))
(( 0.23928574 0.26071432 0.23928574 0.2607143 )
( 0.21785717 0.2821429 0.21785715 0.28214288 )))
((( 0.18571432 0.3 0.20714286 0.30714288 )
( 0.18571432 0.3 0.20714286 0.30714288 ))
(( 0.18214288 0.30714288 0.18928573 0.3214286 )
( 0.18214288 0.30714288 0.18928573 0.3214286 ))))
(((( 0.2321429 0.27500004 0.20357144 0.28928572 )
( 0.22857146 0.2857143 0.20714286 0.27857143 ))
(( 0.22857146 0.2857143 0.20714286 0.27857143 )
( 0.22857146 0.2857143 0.20714286 0.27857143 )))
((( 0.25000003 0.2607143 0.20714287 0.28214288 )
( 0.25000003 0.2607143 0.20714287 0.28214288 ))
(( 0.26785716 0.2464286 0.21071433 0.275 )
( 0.26785716 0.2464286 0.21071433 0.275 )))))))
((((((( 0.25357145 0.25000003 0.20357145 0.29285717 )
( 0.2714286 0.2357143 0.20714287 0.2857143 ))
(( 0.2714286 0.2357143 0.20714287 0.2857143 )
( 0.26785716 0.2464286 0.21071433 0.27500004 )))
((( 0.24285717 0.25000003 0.23571432 0.27142859 )
( 0.23214288 0.24642861 0.24642861 0.275 ))
(( 0.25714287 0.2178572 0.28571433 0.23928572 )
( 0.25714287 0.2178572 0.28571433 0.23928572 ))))
(((( 0.21785715 0.25357148 0.26071432 0.26785716 )
( 0.21785715 0.25357148 0.26071432 0.26785716 ))
(( 0.21785715 0.25357148 0.26071432 0.26785716 )
( 0.22857143 0.2571429 0.25000003 0.26428574 )))
((( 0.22857143 0.2571429 0.25000003 0.26428574 )
( 0.21071431 0.2714286 0.2464286 0.2714286 ))
(( 0.20000002 0.26785716 0.25714287 0.27500004 )
( 0.20000002 0.26785716 0.25714287 0.27500004 )))))
((((( 0.25357145 0.22500004 0.26785716 0.25357145 )
( 0.24285717 0.25000003 0.2357143 0.27142859 ))
(( 0.24285717 0.25000003 0.2357143 0.27142859 )
( 0.23928574 0.25714287 0.21785715 0.2857143 )))
((( 0.2464286 0.2357143 0.21071431 0.3071429 )
( 0.25000003 0.22500001 0.20714287 0.31785718 ))
(( 0.25000003 0.22500001 0.20714287 0.31785718 )
( 0.25357145 0.21785715 0.22500004 0.30357146 ))))
(((( 0.21428573 0.25714287 0.2214286 0.30714288 )
( 0.21071431 0.26785716 0.22500002 0.2964286 ))
(( 0.21428573 0.26071432 0.24285717 0.28214288 )
( 0.21785715 0.25357145 0.26071432 0.26785716 )))
((( 0.20714286 0.25000003 0.27142859 0.27142859 )
( 0.20714286 0.25000003 0.27142859 0.2714286 ))
(( 0.21071431 0.23928574 0.26785716 0.2821429 )
( 0.21071431 0.23928574 0.26785716 0.2821429 ))))))
(((((( 0.21071431 0.2714286 0.2464286 0.2714286 )
( 0.21071431 0.2714286 0.2464286 0.2714286 ))
(( 0.22857144 0.25714287 0.25000003 0.26428574 )
( 0.24642858 0.24285719 0.25357145 0.25714287 )))
((( 0.24642858 0.24285717 0.25357145 0.25714287 )
( 0.24642858 0.24285717 0.25357145 0.25714287 ))
(( 0.24642858 0.24285717 0.25357145 0.25714287 )
( 0.24285714 0.25000003 0.2357143 0.27142859 ))))
(((( 0.25714287 0.24285714 0.2214286 0.27857146 )
( 0.25357145 0.25 0.20357145 0.29285717 ))
(( 0.25357145 0.24642856 0.18214287 0.31785718 )
( 0.2357143 0.2607143 0.17857145 0.32500002 )))
((( 0.23214288 0.27142856 0.18214288 0.31428576 )
( 0.23214288 0.27142856 0.18214288 0.31428576 ))
(( 0.2357143 0.2642857 0.20000003 0.3 )
( 0.23571432 0.2642857 0.20000003 0.3 )))))
((((( 0.21428572 0.26071432 0.24285717 0.28214288 )
( 0.20000002 0.26428574 0.2357143 0.29999998 ))
(( 0.20357145 0.25714287 0.25357145 0.28571433 )
( 0.20357145 0.25714287 0.25357145 0.28571433 )))
((( 0.22500001 0.23571432 0.27500004 0.26428574 )
( 0.22500001 0.23571432 0.27500004 0.26428574 ))
(( 0.22500001 0.23571432 0.27500004 0.26428574 )
( 0.23571429 0.23928574 0.26428574 0.26071432 ))))
(((( 0.23571429 0.23928574 0.26428574 0.26071432 )
( 0.22500001 0.23571432 0.27500004 0.26428574 ))
(( 0.22500001 0.23571432 0.27500004 0.26428574 )
( 0.22142859 0.24285717 0.25714287 0.27857146 )))
((( 0.23928572 0.22857144 0.26071432 0.2714286 )
( 0.21785717 0.27857143 0.19642858 0.30714288 ))
(( 0.20000003 0.29285717 0.19285716 0.31428576 )
( 0.21071431 0.3 0.20357145 0.28571433 )))))))));
}

potential (ranije_bolesti)
{
 data = ( 0.08 0.08 0.08 0.08 0.08 0.08 0.08 0.08 0.08 0.08 0.05 0.05 0.05 0.05 0.0 );
}

